-0.09884483631927488,-0.21116605443740066,-0.2563173929042398,-0.3864543451204343,0.07001813298021276,0.44956430430015926,-0.010874371763247015,0.05843926496489571,-0.009247645076223998,-0.47949752082768493,0.01594752308909686,0.1534630663257177,0.43782999970389314,-0.25063002420035996,-0.005579082342806796,0.42447540744284973,0.15236379035802605,0.1431036183925818,0.2315134655911424,0.22023697143650134,0.014654328264137928,0.2521970181083125,0.4252802451536959,-0.4762789838750413,-0.24238982984094803,0.3888164337650444,0.3414252086570889,0.0857368588899523,0.18662021069712387,0.46185031001412624,-0.03792599236893768,-0.23242774878111838,0.32529189039555917,0.07224482985713487,0.07299249194515378,-0.08022295685586722,0.4218501269171824,-0.008551773882200834,-0.05677956866818592,-0.3179589220499244,0.10525123211928622,-0.23800791759825024,-0.07837697160972719,-0.45693068265456277,0.4284757178595684,-0.3370032041149321,0.40160617096508,0.02148775778955969,-0.2627829650277089,-0.1381212923851053,0.46070984301670603,0.09063324055373378,0.05283104636485714,0.20240959744885845,-0.2669572646585108,0.3123662771373271,0.1612383344104894,0.14712851745438005,0.24705541665807518,-0.1728841051248653,0.18960865051757658,0.4587503216775716,-0.041800877903774625,-0.38319164054678423,-0.004114407007189779,-0.2588956997776917,-0.20664832222502394,0.423984292837493,0.49504817911562765,-0.30044368239512165,0.35906524724630084,0.48633347455824805,0.479819297675445,-0.38644580522812044,0.08004832477048508,-0.47802422831262986,-0.021068888092161304,0.43454823020715194,-0.29537401186160644,-0.38641107486134574,-0.39304074881269824,0.27918107822288707,0.19071935251785788,0.20158052779684021,0.06773426611580724,-0.0539815959271176,-0.47448883139851417,0.1492836288275825,0.3741955549964313,-0.08208420967005547,-0.03031597753226315,-0.3371288669090278,0.38355165407929115,0.30579840117403306,-0.27590378486039074,-0.49651480981882085,0.3309818618786677,-0.13267634468178321,-0.18860746954533716,0.2782472398834966,0.06830105834206796,0.10810404706956417,0.4769672982636866,-0.27796258893397485,-0.03702596940676886,0.011111909940706105,0.2745305741678732,-0.4199036695662796,-0.45384059431672624,-0.3609007840760012,0.1175680180557126,0.3640448144390124,0.19879896823867604,0.3250433830019901,0.23890851725530093,-0.2776926282091232,0.13857156724026615,-0.2654075126026424,0.44535055582374783,-0.327121915458125,0.3391819449882255,0.2840395862630006,0.4450446283558353,-0.215626214746394,-0.10300035721552603,-0.37803999642078273,-0.05203913518507223,0.05899194980388424,-0.4809818188815092,0.08470114779621758,0.4069032990296969,-0.2096758499164194,-0.038272205553780254,0.16082103353012048,0.19659222815645191,-0.23209877935525275,0.21239030180270405,0.33671391409886375,-0.3438000748373679,0.4567322602742039,0.38740982229330057,-0.17487609526278125,-0.12344347122599486,-0.11062884925779526,-0.18339194432566822,-0.2945311297552528,-0.18116950207499008,-0.2818995729901073,-0.3026608968264293,0.1917328481513882,-0.04841553823502008,0.17495649780605232,-0.19830573478555052,0.09105157320280176,-0.304236622193267,-0.22864266538350947,0.23866130283768675,-0.23777621352929929,0.33831298414465805,-0.005006625569310975,0.048949003495839395,-0.2888725740292135,0.05104275310326145,0.3139067208939319,-0.22859208499228498,0.0008163177775137661,0.2075449645041119,-0.1982922156422918,0.271782372434067,0.444870378963812,0.3473889918356339,-0.392370799016459,0.23334213056921427,-0.17027952119979667,0.049394212755459424,-0.48412942209017756,-0.1201135819662828,-0.4280572576291517,0.47106733889784186,-0.19519829585115456,0.45365022582274384,-0.1803361696777266,0.41989761753751664,-0.17295257842585435,0.2689374716224435,-0.181464772850663,-0.0870165483619324,0.35634098784142787,-0.008307989083645335,0.40641325443725523,-0.40066556094074124,0.2504196235904891,0.2116637638532236,0.22837348293903675,-0.4018229071952515,0.3009224886143899,-0.19876464863747734,0.05520482893749057,0.4566626387567034,0.1368476885359031,0.48639229279479235,-0.23362994793380085,-0.36191184730270864,0.4104272539902154,0.17898660504473388,-0.012885010961941345,-0.38947922071106683,-0.4516949093734891,-0.2350105468835205,0.11689008917398833,0.3485302498118301,0.3318400970336754,0.1820206058961322,-0.23800058444163089,-0.049463669397383524,-0.37989504224008036,-0.11164564358170319,0.12660251656387206,-0.18056207643089892,0.4922920785493449,-0.02197326967794147,0.3733733812684184,0.3251212443880817,0.431501194558521,0.32867602891568193,0.22111943501360232,-0.49309798846999575,0.3080835955678189,0.06170439291524425,0.0823411546243804,0.40699779077481857,0.22359190971561446,-0.19146310649152914,0.46736619473574936,-0.2708679222890311,0.28543216230975904,-0.12219483142442705,-0.1115339287992134,0.17413267038285002,0.1687100294960958,-0.4705951339227885,0.15699432698381546,-0.24389836108247,-0.03937355237452411,-0.19189618859368418,0.34662190980398017,0.4002017949166134,-0.07562325889963464,-0.08371770222953008,-0.3320211958453626,0.04801486463545436,-0.47298042650438366,-0.19367963715687397,-0.22925822834916,0.2457279407335515,0.23187531100731715,-0.3824114500101551,0.42241457368193724,0.3764916616682378,0.3723799140178814,-0.29218495607549366,0.4727630106428503,0.3552828235449698,0.4486279489915238,0.3514395424252258,0.22426651622883076,-0.2572623056432995,0.02305226600035949,-0.34938292070483107,0.19636237627762282,-0.21223651310628372,0.4041740659707876,-0.2724405446923053,-0.15315937170102012,-0.059323676171914794,-0.2004362348981104,0.303228871754677,0.13336557652534586,0.016272285133565188,-0.17256073564503188,-0.24517846635940266,-0.3295926679315896,-0.20018864231750202,-0.44540687247446875,-0.38065845139425963,0.44995259099555723,-0.4375516245449243,0.22402691079454334,-0.13758579371930937,0.33010274182852956,-0.3297270389403426,-0.4233845018516872,0.418121609919337,-0.23861603615654153,0.20189049704715425,0.409956033466917,0.1380705923271491,0.08983236499768008,0.09123705720778909,0.4411609903672238,0.19212707649796745,-0.15752664267046113,0.2426411055399278,-0.25567963527720905,0.2551955820983418,0.13619872019294776,0.10786632924734144,0.16201648989156778,0.060050976852260796,-0.3308227161468058,-0.24214637265168795,0.4853697376620503,0.4843794474616612,-0.3388667988331673,-0.40205401250938444,0.03261824619201309,-0.0979384777411486,-0.4675561969277994,-0.4800445926882678,0.0865646492543746,0.024061673538984245,0.08632086464043089,-0.20157472753662928,0.24312584459442024,0.1238338469328932,0.17977188734139385,0.4584193760843167,-0.12239197829078366,-0.1875637709613038,0.2677516663313318,-0.46431278800703446,-0.20812061597092946,-0.16944464104242088,0.0746992215986912,-0.4124253263915355,-0.40845578317006137,0.22216287261937828,-0.46114419559548,-0.007987281639439727,0.3047471565199018,0.29453865406682905,0.1853431762250299,0.12310508442330433,-0.13759855954568,0.16055867637226748,0.32029421892817167,-0.21616628175074062,-0.29279169738730226,0.45490738632847105,-0.009922116948018813,0.383994100118829,0.41859053981489314,0.05919861392485681,0.2816405812301743,-0.14158127420928257,0.22841425707169405,0.025263145964712037,0.3329062234653793,-0.38056948015554454,-0.32392756229416003,0.39516141610850825,0.29300320510391664,-0.03716900094807818,-0.04382274665225694,-0.060321802939363955,0.12850239279755504,0.2655916205244835,-0.008625725071736862,0.36475586521492387,-0.03915956554401051,0.29578747590305354,-0.05311038848325168,0.2839950663131133,0.01757367615497409,-0.04039849935960206,-0.25133323078580866,0.1256944037895491,-0.2976580643093202,0.39079441310900875,-0.020751732126003272,0.4437160333661809,-0.011870306933245867,0.06645067819375275,-0.36528037800934593,0.42533524281756535,0.05415412122934365,0.24652654180534495,0.2765362555939084,-0.41721676666897534,-0.0141282591113762,-0.06118975674046028,0.31923122167273654,-0.32963722097045656,0.13541177544735172,-0.4506626573551341,0.02045481598692542,0.43343855773248907,0.45764797179322547,0.26566198400595975,0.2290924642353011,0.13863649002425568,0.07137852846170094,0.2888561089783111,-0.44036827579691246,-0.1165945350457127,0.19431800516525774,0.0023220425037938095,-0.3912117359960499,0.40297596267056535,0.3124933978122229,0.2695388683627685,-0.3270224289436124,0.00012764432963452673,0.3386832537383731,0.4270396851481042,-0.2582830025521214,0.05530808253436201,-0.1811041072696093,0.12736074040709575,0.43478543267418013,0.2531454499850032,-0.08539887794135814,0.4776217697469968,-0.4366186863001011,-0.42449331336006924,0.26377892179374823,0.08364934827329802,-0.38035071896125044,-0.15137012683101833,0.2179744260277276,0.2664156621394416,0.2058420442764741,0.1423648088688177,0.47016325053576524,-0.12563965174942363,0.14100422365363197,0.38008150749660047,-0.4702009753028823,0.35292787768544087,0.1387190449320171,0.11030372748747523,-0.2609726739784905,0.27682382237404346,0.4079444504005276,-0.04499108090660266,0.25644820863242895,0.18405346955275756,0.28233486740168445,-0.22501413975428275,0.4520582995917998,0.03948905334112627,-0.13936295105265295,-0.19137663137550578,0.39418601793029806,0.17263456180936806,-0.19851652615793602,0.33175093888055357,-0.3480883203178827,-0.26409832075553125,0.03818684942222834,-0.3590993458236371,-0.18187700950858932,0.23070706520069567,-0.332685512674998,0.3389696251454753,-0.248932990593771,0.3221574815626825,0.41937165602066123,-0.08025144233456728,-0.3034607192127299,0.1842448059477133,-0.22435704396151307,-0.010051427577785725,-0.09131277334755203,0.4880581126924009,-0.27854724473302694,-0.021659586501815542,-0.1441162188399161,-0.18329578027100954,0.26235360777429967,0.05312238446708142,-0.3821383689642854,0.17107341625737985,-0.2673808096453026,-0.45757491941838024,0.32698734992513445,-0.41623866137427706,-0.29971831169432667,-0.20524697541869233,-0.15091376222865915,0.4175902722241667,0.010310814245808759,0.3071360188417275,-0.08667819480521127,0.15039095308654354,-0.034871094766805125,-0.43921734978688876,-0.42214840984779406,0.2976138119490516,-0.25514195241121074,0.1840629614535688,0.16947026524676007,0.21177476341548176,0.24469707372597904,-0.39002080956675844,-0.4890307479325029,0.30354400310889157,-0.03622857698369705,0.1264664187320192,0.20322332314615246,-0.35904918925843676,0.2543669946140568,0.288695289685767,0.01778360955474647,0.1574624189835973,0.35086117479104123,-0.014646075219954792,0.3974364074609528,0.37539408136012986,-0.1287468138109222,0.1265482266585266,-0.24569950020543366,-0.23527300312612992,-0.2424142005518669,0.35778944000822666,0.4894700103487929,-0.3372976788294591,-0.16950756650917992,0.39041441261805365,0.04617795591144751,-0.12653379014514585,0.4267034866225238,0.4546090480103482,-0.41253233898478936,-0.46758893603600954,-0.07749214871918447,-0.4936598554733068,0.08389639041889477,-0.40526855115893684,0.3243396945932528,-0.27622146213489057,0.46201369074955273,-0.1362709077167736,-0.3063305868045279,0.10257230637360645,-0.4780084782058183,0.35535488056391656,0.24530430602947403,-0.2840177512958047,0.39792697883197037,0.49002809605001185,0.2595677267595961,-0.0992279658466801,0.15281016476137899,0.27242095951257433,-0.1012712245202384,0.4869829951928023,0.40914231047557964,0.2764800707438675,0.2610185106876972,-0.19088644814081712,-0.19109125289645312,0.17005090630770664,-0.48966011908789053,0.19386702447638068,0.26354343958565274,-0.2518152524872218,0.17832721416260494,-0.30378309513499824,-0.30406557059947653,0.44703760696079603,-0.14872639800652018,-0.3967120719653833,0.2504127340645783,-0.36234331169314193,0.3511445300613971,0.0131158540042098,-0.17500408108070825,-0.39977773803784095,0.37417471413055936,0.08243550221375262,-0.3689810311909568,0.3679948739132421,0.19036576905777305,-0.4934906678513457,-0.4457837801069643,-0.16639670777654125,0.027661503981651236,-0.27136980680447775,-0.2153511829263115,-0.12812358766427567,-0.025192722425739028,-0.32275608317707427,-0.22194557522741576,0.07146402060767301,-0.19517509189362628,0.41520831371751915,0.3807666778798608,0.22711486126822647,-0.03971136367207072,-0.481282868075445,-0.41244330018204306,-0.3956674280017688,-0.4706879981732641,-0.14864477867555353,0.1120272076729433,-0.4409258016656568,-0.30137640127543985,0.4333722787710024,-0.09720272939531027,-0.4331395784273421,0.06602621311265175,-0.3714521883993246,-0.4815516931023282,-0.04980923565727979,-0.34123576815815704,0.24701275817451263,0.3769263533882018,-0.4894618870905285,-0.2646560961623222,0.21555222623698672,0.40231902579326423,-0.15063816130606897,0.30967164654761375,0.3040989485338158,0.2177188057546117,0.06844414654379274,-0.08385353011511137,0.004534958355837378,0.44351209237918776,0.28606131566255905,0.19500587474606706,0.1370928524883075,-0.3683481522791689,-0.18759024843174332,-0.20659691966447963,-0.40478678794388195,-0.4754789356181616,-0.43863395344102,0.31546810206681897,0.47183442263909353,0.33868748653772246,-0.44468901292491214,0.286274207037169,0.09751464153645595,0.15395117240052547,0.42942040744584886,-0.2094848520420522,0.14222145933421362,-0.2908445265671622,0.09162750732322227,-0.2290456428777497,-0.1889817871445567,-0.45786019001415307,0.18176864200436726,0.12156772240111845,0.04522011151028232,-0.3880533446805565,0.1251091106711126,-0.4645458106129696,0.4731216759532817,0.08720477528922092,0.4986520250247615,0.32386622428118667,-0.44471525418690233,0.09673056403076238,-0.09571438766619554,-0.04549226927159219,-0.2755554688079856,0.35901023126474846,-0.12869911711028503,-0.42933265178248115,0.4764566956096513,0.06346811471509084,-0.45014812764909773,0.009051309267739251,0.438744978712971,0.2982193910133443,-0.37736479526835237,0.4875281773464133,-0.12736857970065374,-0.12791410293754402,0.41767428621378044,-0.3903213336392176,0.034872930630498136,-0.21184101071350403,0.40828550667205804,-0.0060436199323313945,-0.234391815092159,-0.2016023171386913,0.3283132271787673,-0.09624914958171238,-0.4864506724055109,-0.04935923058772445,0.420448842973733,0.19920581572761178,0.07286424924380469,0.44182195018326675,0.18173967395635415,-0.1945168526483575,0.43122164922140027,0.49830276059128387,-0.48898937343581217,0.21302849187850448,0.037427657168629766,0.19394368732323483,0.37874754305475117,0.4005294311357456,-0.3822846325111815,0.28378352073994995,-0.05356015822332868,0.030816137249101483,0.39132995911264157,0.4582060537161691,-0.3239244668872337,0.26693791599625205,0.1957645682920497,-0.39248523363009463,0.03948462537664321,0.24207300372414112,-0.39799139613120954,0.03861216172262849,0.05521221190558791,-0.21066267683487605,-0.07194322290769084,0.3055708317088357,0.09730951885916961,0.21658383651888713,-0.44152260590948256,-0.061674162110727626,-0.07063837470501699,0.2446893263534019,-0.4012858968278391,-0.3824714479799153,0.42881593696192355,0.17841206819179065,0.13536369904402712,0.006225183997420973,-0.14667350784803732,-0.03209932835206716,-0.004699689980787868,-0.09024156978627905,-0.37349364407893465,0.37333535259165,-0.10710927054489185,-0.14958263395952653,0.1911561889524899,-0.2630389141596532,-0.41327786961079893,0.2736884461820707,0.3794824887046017,-0.23711984539184627,0.07806612964852244,0.4400948857540695,0.3966782556740651,-0.01161126749205521,-0.23816258706233717,-0.14779678805460883,0.12157005943584487,-0.46723078701610055,-0.22687298376365672,-0.17624652273823682,-0.10643500897040725,0.0698663358035401,0.17633394236630986,-0.4706874619668108,-0.36052882660746416,-0.24732027250490712,-0.15097630747444768,0.269472930700828,0.21309817600326028,0.2528877908289595,-0.24470866889863752,0.3297955965812379,-0.00794914630376975,-0.3581243543624113,0.283533711500095,-0.0007839754259321152,-0.14258290443696664,-0.2548896368730251,0.4360679332378461,0.15877422836446375,-0.14007841814894473,0.29141219471413615,0.4531606215086587,-0.45609758815423473,0.49817167742214097,-0.2965949347504382,-0.014210042772479503,0.00262958380354239,-0.18423692042055673,0.20570564069905672,-0.028624558287264068,0.42010493212295263,-0.3971421483297721,0.40240742325249534,0.3284574669909436,0.15203808006103658,-0.44311350092401613,0.39601677565196136,0.08238387438066619,-0.252389643296159,-0.48856380181585357,-0.15451892827508718,0.11024250277520464,0.351101129296861,-0.1787052518738551,0.06342976840800207,-0.03931289188917375,-0.10153201930422606,0.004296494266837203,-0.39080732300633925,-0.08613354226210101,-0.08175833853232273,0.25537799342442014,-0.2996157316574404,0.07173454470581919,-0.37871245339792403,0.18328459139025255,-0.06141779341513964,-0.3482040354378041,0.24438198750393647,0.2646624065434322,-0.37882913660320355,0.33390053384797447,0.39610920194488763,0.0764208225053385,0.4605795835699766,-0.25339794236758145,-0.1924468215907793,-0.3869742838353366,-0.2534359413141396,0.062445129270535915,0.1452100945086311,0.35013806765893285,-0.25968045198168466,0.013255187324570539,-0.2918789461666559,-0.2797895680670641,-0.4596508408692149,0.0730607692256271,-0.07219466909867323,0.30503159813959524,-0.00047872048102548526,-0.0291990675443895,0.19889106067486895,0.40973998025394387,-0.3966938514274365,0.19871978650724353,-0.0908022453797834,0.3050082468157493,0.16963710259895792,-0.20345755360430434,0.03675273500444384,0.27048492120616163,0.3982185666715274,-0.30276841581513153,-0.4752909232281754,-0.45758812759483186,-0.11157594839003067,-0.3539109748313212,0.3030126593159889,-0.4127807799700082,-0.41269392186992315,-0.4665040067082523,0.4435020739202945,-0.04839886426009021,0.4045125238753271,0.12770886223797384,0.4775310549615368,0.40189456352622155,0.18791103439563372,0.19468705182961488,0.08881579877749524,-0.1699246563211164,-0.4334733027963293,-0.2882812976268959,0.13469710909702734,0.31980377423656675,0.0195905233082134,-0.28989011529566483,0.2808550601307665,0.4367241188232276,-0.22081384136073165,0.3061838402421072,-0.18384190051555377,-0.3291180856486513,-0.3631163315509465,0.32988494047139266,-0.023605407630904966,-0.027563724955593095,0.21297616843909054,-0.22435993052293704,0.04736340196056923,-0.48761094587271714,-0.460830970774164,-0.3820943412634127,0.2116354763466628,-0.123602468086634,-0.46304889988586406,0.19944947666114687,-0.12015995248090228,-0.1496975221246359,0.30540032925353094,0.17701893967540028,0.20735306480593912,0.1425772332549899,0.20172745362980699,-0.17613184446400246,-0.38948000014173345,-0.02948824234469007,-0.49225572287385444,0.4017902971738088,0.03440127121753404,-0.048365811661292245,0.47123479778803734,0.341894870264924,-0.0004979369201938065,0.45733441865512275,-0.10678208432462047,-0.47640074994609954,0.28141197492422176,-0.21596559423369316,-0.21712333772148307,-0.4406950338413791,0.38980093554331285,0.35212008232406733,0.009678584926196554,-0.33883186642145546,0.48193233392290635,0.3972580241042298,0.21614150074460844,-0.19181310517433603,-0.21411412813233247,-0.4818741235526173,0.026194909414536033,0.2572526796319282,0.07394735927070788,-0.1994136718542876,0.1648710323357457,-0.4370792725591751,0.31065196408972384,0.3892501367122356,-0.48140499774610623,-0.4621622758827032,0.3703178473684403,0.09278642813419985,0.27496276133184755,0.15715597223743122,0.4787885765719069,-0.4950704131822881,-0.2455156937819005,0.27998509005916256,0.022899867782046113,-0.2587077520896447,-0.4901531512135575,0.42588767668878624,-0.04706494148229324,-0.4770132308970641,0.05558644451527124,0.4246489910680144,0.30607468705354035,0.3045489354727384,-0.4524430888553791,0.017430594135778205,0.39144032571965925,0.08174124487471912,-0.020519414466384306,0.2196820624440248,0.301925357407719,-0.33527285812717916,-0.20175345611940296,0.43062382490792106,0.45818331261945894,-0.45701705405027304,-0.46599144323718206,0.4950520227583843,0.3564742024915353,0.1392531283207049,-0.3101987358056049,0.2299042727344248,-0.20955153320410225,0.31414979031304713,0.26064115875483934,-0.24268736454155845,0.07446572337708748,0.40461755573597474,-0.4903506730884996,-0.4261595661046521,0.1861477922396994,0.16543888119182884,0.13074769970218156,0.1532794468205426,0.21776001631368705,0.3456221122361381,-0.15869938830261085,-0.4265406936184021,0.21855710505140424,0.2609415286852187,0.19100141187259204,-0.37972614890611534,-0.02668847879323612,0.013999832619166364,-0.18144625165702738,0.4417074011709647,0.22933187909078492,-0.39288654578576987,-0.2696547755560651,-0.07421208760133136,0.41350753482357383,0.13829538618132164,-0.40363869733883573,0.49776248010640123,0.014184078646177576,0.34568625895651334,0.17086276741850118,-0.26767695000648495,0.1316472491404468,-0.25533708412500294,0.40582124496156635,-0.22957478653845345,-0.31815894872104866,0.27593190988606714,0.26225793137370906,-0.2416224462739698,-0.26708481945063794,0.01222201123983362,-0.3482662057105024,-0.38425885067348897,0.081802576776579,-0.06024112655319713,0.30838489888085396,-0.22272693450087142,-0.3250686718761564,-0.38110590325158766,0.023357634942693346,-0.11225717366149723,0.11458054977243703,0.3018415785606732,-0.016623899349522162,0.24933086737205454,0.04677649231918149,0.03741188932366567,-0.36657077578543246,0.12967882868174338,-0.4807098009849531,0.11315020427980023,0.23841525773717098,-0.3819121103603838,-0.012434668254143199,0.2525308815308362,-0.26649726590193357,0.28700974108946714,-0.37509612673819354,-0.3019971457033248,-0.463603495547596,-0.04374692634875436,0.09890978759320183,-0.4885750236562571,0.16837142802344854,0.007108344974563514,-0.3201372882069068,0.30090523282519493,0.13620843707925004,0.4565232998565355,-0.4506941960436398,-0.34266839350389294,0.2405334369342677,0.08187776194418185,0.2028414539811883,0.3188989778281594,0.4251678026450637,0.03505363251825735,0.13859629991660283,0.131333364839253,-0.1354027768262811,-0.0425746929064283,-0.17743872502167019,-0.366324620060817,-0.24639756311865163,-0.015809711702037512,0.25726877932139813,0.27913818210619284,0.2589879881807036,0.40395893244023173,0.4872781293843949,0.1854675858766587,0.4056712898728991,0.22308286316772863,0.19633392949034287,-0.1310646626388488,0.2345999246982739,-0.08829671117178668,-0.03756451683933071,-0.3297864105832558,-0.028096116676778114,0.09830101512013804,-0.49400672466817036,-0.46586898605487287,-0.34799664219896226,0.22612641321061103,-0.42057034093644324,-0.19545809590288826,-0.33868595097446974,-0.2835617840929391,-0.21142221658774144,-0.12469924987749968,0.2643558435332728,-0.25872616039679924,-0.46166056542201067,-0.31276095343096544,-0.07787337448076882,-0.39182093817289443,-0.45464587857244587,-0.27298164288843474,-0.4803813602420811,-0.4072593394515945,0.4477153958927522,-0.34164803360789175,-0.1355153993475786,-0.35756986998190177,0.07098413978101525,-0.02746742006405256,0.3339976050144528,-0.1312864602433763,0.08675744962100795,0.44830123550078715,0.1321409965974834,0.46893070384831353,-0.29574762714515573,-0.18022409197898387,0.028292868253413643,0.3589093575685072,-0.28007853333463967,0.37920255647451434,0.3010742752769763,0.1588978198700074,-0.17455462045456177,-0.4685554413579947,0.2920104956579596,0.3216170907041349,0.14267464826795093,0.3024263844686706,-0.33958890941438946,-0.2466037868555375,0.3472265064214784,0.09962970660885345,0.43363478932902727,-0.18826951854279173,0.4849978266985805,-0.396381392006111,-0.19494162254915215,0.037847110816417624,-0.2526172024139485,0.2752602763181924,-0.44911108635536584,0.4651957771893071,-0.2840675721650015,-0.054540920659271595,0.3400548267429365,-0.4661763123575974,-0.42618041167449233,-0.38650707880362584,-0.23411277005571857,-0.22536653088496467,0.36021673026838147,-0.37703975797511197,-0.08694274659271102,0.08123356941993629,0.21674729016928507,0.3269260212505262,0.23384452448859644,0.3775527192351635,-0.23584760678937333,-0.2552151828093376,0.0004598197325558737,-0.23494032616236404,0.1029467668270172,-0.4835273550844075,0.4990502589984145,0.27683903047895164,0.16208033868441793,-0.36658910787450233,-0.06517200700597575,-0.03195526307860364,0.23439388829373117,0.32691897847808987,-0.40863044937329196,0.3672771578660391,0.4665594838543425,0.3799763179318703,0.4317616015526633,-0.4439450502327335,0.026149014882718504,-0.4259736560782863,-0.3918300238672633,0.22835516327466962,-0.26094304766183324,0.46878945830059626,0.14399550547105172,0.11472229284280477,0.47654298253376265,0.05740340088328025,0.06596621381871177,-0.3870298548603205,0.4602373572026516,0.41824901159079975,-0.3263768965143312,-0.41018650890699954,0.13254568362962033,0.22500051992930725,-0.2804044413361615,-0.3488621339382424,-0.2580175184698353,0.35883085947232757,-0.16890868251173854,-0.20593536603048698,-0.11082887368038567,-0.04747328548759075,0.07542291083251786,0.3554359582329262,-0.3003389530203537,0.447143802882389,-0.1901087817906317,0.03647345846234361,-0.29769167464009855,-0.013459408546026754,0.1753770481779174,-0.2623819499253541,0.31457133313214913,0.2665612989520517,0.30527812491754486,0.22956335959890364,0.42537212503798916,0.4896506461199056,-0.22156206366830583,0.48222420297875673,-0.1491634115235427,-0.20527618000756506,0.4349420371389247,0.35750318728128133,-0.49085233201745243,-0.20267751275964307,-0.044043625086111,0.13573372852646506,-0.06059761300524731,-0.2442640841245956,0.18105570732424123,-0.25590333596387455,-0.48524047425650463,0.1389070879812132,0.06589316283699793,-0.4710124819604904,0.10664451980988658,-0.11205615573285754,-0.16579816487515456,0.3161449947129226,0.17134618803413765,-0.1012876117551801,0.062215217107247485,-0.39520785155798127,0.13483978298859667,0.29312222169247204,0.4422609304516531,0.04285292335694264,0.24028260593204148,0.11775821602753106,-0.05343592144831895,-0.44633902420701604,-0.09523352489522052,0.29681713932852016,0.25801276829623854,0.21045659519999124,0.07023614691814992,0.014434867121901989,-0.0016799203848371093,0.06947082468469269,0.18772209498339215,0.06297550836483791,-0.34762731431761035,-0.23576234829981657,0.1236915927044134,0.23396395411452514,-0.43894527823761137,-0.46843666249878596,-0.3733379215770637,0.47880470116968504,0.358162019957081,-0.26511972200046197,0.32123203910931497,-0.027593669111982022,-0.2712377754653911,0.17755722204211358,-0.13561616639130464,-0.2621626787784454,-0.15631886618110077,0.1846585234372402,-0.4108461707216124,0.16010108230395734,-0.46856883634054697,0.10713683246397909,0.24683760030052934,0.32328121845053803,0.37911495223921227,0.15868520166148162,-0.15026770098515496,-0.07700473579827449,0.21115285317501956,0.20355113788919507,-0.12537687479595297,0.2947585329478375,0.1781511099679572,-0.03873291360398775,0.400713846440345,-0.4533245025192292,-0.3502326191599821,0.3026427055973401,0.45588439701658645,-0.45513744889476737,-0.19179428215757974,-0.4079986608997052,0.44038280227840726,0.3609425942229651,0.05261740829991663,-0.44631313001372996,0.33656466564895876,-0.07949225015279605,-0.15778977905363184,-0.23517755671869445,-0.21608643604033684,0.06419368057650568,0.4232636020014943,-0.3283051741598036,-0.17982908126133604,0.44674744805796873,0.04848788352002081,0.0928539696627012,-0.12735776858885867,0.03254693821483823,0.06626854732609544,0.3844703535695699,-0.026087914789266534,-0.43783026206821124,0.38410092439238347,0.2758187291179537,-0.2956525239943788,0.4087246920002243,-0.0777285025121736,-0.40723782648310275,-0.41536211728215044,0.20064182342731524,-0.4726119611264896,-0.36612831465382545,0.34347422058190064,-0.4754217849128524,0.41013963561335165,-0.0733469884195024,0.26812905380327956,0.26062847516789944,-0.2865746209595316,0.39928269638694636,0.2790386754978818,0.2427972507864392,-0.4708757635454342,-0.14226929554557968,-0.381802276623169,0.20146715758608194,0.06411695416253976,-0.35263890983435037,-0.11616855413907869,-0.15549570543337782,-0.17801749026136804,-0.27298139354794115,0.39079937539040543,0.06383287480022348,0.02367701280760965,0.3638763261181198,0.24256031743674436,-0.20943140188978163,-0.32813293200564725,-0.026125848831464835,0.30522252081950496,-0.05958873495114168,-0.22044134452702124,0.1939235130687986,0.2409161598658569,-0.01528684152076029,0.11761274649655436,0.18304643906110615,0.256867094760379,0.3794961858524566,0.2353221595598518,-0.16172853922473965,0.25530110888807395,-0.33464333619148595,-0.20459283018490115,-0.28781372105338876,-0.33480005731949436,-0.12233827041231998,0.4391855283613628,0.36699239585831955,-0.4037774677357311,-0.1752688363869862,0.41285446583720214,-0.3989736626676363,0.052086100893532855,-0.33772107226129655,0.4547939997822099,-0.382626569065172,0.19258272654714292,0.09050064496195397,0.47968434219010203,-0.016808656823810563,-0.015567498444849904,-0.29154730351887936,-0.061441115220131536,0.11911168277666113,0.44593159227577894,-0.04676104367364534,0.25349539371299207,-0.46397299800564373,0.19790285724692017,-0.2051842999880475,-0.4610299121774337,0.10630574267887972,0.040487866875556076,-0.31284677875543154,-0.3488515909702872,0.4406205774645183,-0.29582477003177643,-0.30645967038308686,0.21632014120520815,0.2904994822636475,0.17848895382789629,-0.19917893937785566,0.11676150034837723,-0.3335338221563122,-0.11869002721104711,-0.43860958416330975,-0.15603473746872326,0.1245293906099424,-0.059406618929512475,-0.16620768617566808,-0.150781695549808,-0.14073585885762102,0.2718419868510426,-0.34583310606772516,0.4452072061355394,-0.21976507414555332,0.03220719662318176,-0.21233292034365486,0.47569786279724074,-0.3452357127641425,-0.2528037444500532,0.21254900588057504,-0.4643165117664776,-0.10069096886346751,0.1863094854526609,0.09986838062918812,0.2456055122085975,-0.12336291835942186,0.45495953005391354,0.4545392255419446,0.12211238744567711,0.46289080927697723,0.35973944138806574,-0.24633636147661808,-0.3603747257807424,-0.04559169138019867,0.03324274867281285,-0.16836675281263142,-0.3058589310900838,0.004923959363783393,-0.32467138145326824,0.32729074078458353,0.22745288015237275,0.4926297409142849,-0.4080845361029084,-0.3677556813303379,0.4347440654052601,0.31900989159063825,0.47744111293778646,-0.2215970340029143,-0.07967247916530995,0.388407652854018,0.4917640056594422,-0.12066041476633149,0.1596526445338854,-0.45550983731000017,-0.16794462374945424,-0.23731947297309677,0.187029556187555,-0.19512343009863678,-0.33384606431760816,0.2983721627184374,0.08061493169745645,-0.3205814347787104,-0.0319498457161843,0.07271462142797398,-0.046502679646140056,-0.05121856391750275,0.18109743067425785,0.13562918489461506,-0.41879296969406266,-0.47128319316344214,0.32561493836801025,0.159188994224196,-0.19169660069453706,-0.2427738661248604,0.47516950583439144,0.3058144473816914,-0.055306987574599176,0.41125607608693215,-0.4128352559532429,-0.3241762944379749,-0.14299674884047242,-0.14301518281993086,0.46929503178621235,0.33552850556887026,-0.2658661197397139,-0.3480979701251127,-0.1991665612161721,0.16370255048230914,-0.3476972329245684,0.13326849660580622,-0.4638739520341405,-0.1511285309313652,-0.27488530948786244,0.43395520627284906,0.37496514299837985,-0.1338835129334135,-0.37314088235324955,-0.3374479973833676,-0.34613157285961976,-0.43664224167357274,0.15540696267937978,0.24210161869682567,-0.32925486303671425,-0.2771022120260349,-0.308181271197716,-0.09268738847751956,0.12208585981392284,0.40193318408777157,-0.29091147049272015,-0.4166995962118448,-0.3146746597586588,0.44329943863610966,0.024675981334280506,-0.44829754501338415,-0.10826823910423582,-0.4567549673621117,-0.007710160532388893,0.4318514943776448,0.1785892675248191,-0.05947041033218584,-0.0837886782119592,0.29954954035253367,0.32914527548592565,0.07031757899425725,-0.30098875858774754,-0.17353755885827093,-0.026082790184698834,-0.4529537866819635,0.048486814088594676,0.05276167969158996,0.05103787190889386,-0.03552632270912259,-0.3223119263806292,0.45885816389634004,-0.000489464253722731,0.06717386300970962,-0.23615833548850795,0.09037958545974623,-0.13608407196512162,0.27594709445452836,-0.2125538852893396,-0.43530460610830524,0.055106280752315606,0.42924827435936264,0.14960128303862197,-0.08783212563956722,-0.29646847156877887,0.10699225709287452,0.23746359952075857,-0.3868176958584707,-0.41040865664195936,0.10199122448741527,0.011222743658195311,-0.3538333695362189,0.04366792132372033,-0.34919836747522304,-0.08599519641756637,-0.174162913891722,-0.11823003390344533,-0.17921952750173986,0.3986055496927956,0.2798763186973514,-0.1265128389173189,-0.24745501362841826,-0.2609980310510168,0.043264948987336904,0.1757406146104039,0.17084766573585008,0.025280729556689363,-0.2013211748231174,0.4796544576024877,0.3755126687395378,0.032335284962883716,-0.055077976517899876,0.16667844616501404,0.37223933837788625,0.1774229149904764,0.33133944274772,-0.39513746783557446,-0.3973423429660117,0.21370387748619124,0.34170972106885034,0.32793696148968965,-0.07881344707594617,-0.022437155272510667,0.06587817012179387,-0.19117734407347287,0.37359871991495164,-0.4631530825589103,-0.07908795442562855,0.44810049531309104,-0.4560897701259936,0.14249767088908405,-0.3267741201784121,-0.31467450246172546,0.11438503474327266,0.20772608460764092,-0.33659334775588334,-0.13873937940587322,0.40363956170265564,0.26292414952430054,-0.22992688452407475,0.06364008250084019,0.2904217755043595,-0.23896536521283968,-0.2538630998825559,-0.24900967602788052,0.1891064824901498,-0.22308721533212372,0.01623020417339363,0.07367331495301226,0.36411934913680105,0.321539831538229,0.17284148788106313,0.33480914092576625,0.4966860094290214,0.14882786848770602,0.14140292576372326,0.34043386737554204,-0.18792556700819396,0.06602411744310033,0.2548370597027019,0.3036032902316437,-0.42120471263578607,0.25822383656772796,-0.3640145197346313,0.21700062576924367,-0.10789826865181426,-0.36513620278646397,-0.2309550512775989,0.1061053036975086,0.38284676316223887,0.14125284972109697,-0.0836804482298847,0.2699883768400535,0.3475551177193911,-0.13169096027483765,-0.12575767997849768,0.07415867005517261,0.4417586819503401,-0.027612815808667344,0.0719401376779806,-0.41514621238613714,0.47606795617645864,-0.4603036982583499,0.2936188043673542,0.39700136333687763,-0.18399433762861983,-0.3586149663977396,0.3087213985631594,0.20467513001482096,0.24109778724390057,0.24146622572163343,0.16936423924723623,-0.3335862445999727,0.024356139728857397,-0.1854371952116803,-0.2558006344601759,0.28738776415982725,0.0896412124052586,0.013575995617403901,-0.021940512990965045,0.29200082659586274,-0.3336536381417283,0.3139464687751889,-0.0073820916714453545,0.045479452743456494,-0.23844470130691817,0.1852554051050673,-0.08930613841214464,-0.12121364834712081,0.4527247960800349,0.1583606616197189,-0.36200617836576277,-0.2049700972623898,-0.26262859117003046,0.429859476146344,-0.23566031488312755,0.4931801173711715,-0.43516040879419315,0.08916949402016901,-0.37437157954723915,-0.293464363467351,0.3199383260250911,-0.3352467482539158,-0.3235011230058548,0.37127021694879386,0.37636331747690616,-0.1743443114386929,0.10253875017148584,-0.18285253784654162,-0.09646710829755525,-0.31308978726061004,-0.27951934144803064,0.47496208868068707,0.15128483839955562,-0.2055313024320801,-0.4987764661017525,-0.11264184431296563,0.1947540313401084,0.22191474833420757,-0.388044253481799,0.07524875239921999,-0.17337645824506254,-0.40771936993187274,0.3729376541097278,-0.024565565130460564,-0.4101503375652077,-0.3457531789657637,0.41855354081340274,0.2532292516178504,-0.19120092935712837,-0.25549120571349065,-0.3468344829797688,0.33990524002962835,0.006185083015884379,-0.3247135909807789,0.16303186330397526,0.1681046356010866,-0.33183307019298103,0.06071311726043953,0.40521759433447746,-0.452970716855879,0.45134187057617314,0.007956262319723401,-0.39894463152907905,0.43774277479092294,-0.21644483711119564,-0.31809017012049695,-0.31188621571908925,-0.39493033172537706,0.37615925569542896,0.10705209872600108,-0.03188457303666672,-0.43751896673492924,-0.016998819863816784,-0.03931681551746784,0.2728034745947715,-0.36294350352036053,0.3122966878751629,0.23783280921215677,-0.1401675785860742,-0.13471588242211827,-0.24040759207063583,-0.07090224377544661,-0.25632492514167265,0.1297730288326344,-0.2056677475043342,0.3601138390414879,0.026122991330287355,0.4731659776886129,0.381333133835082,0.2838651836686118,0.15192621972755305,0.19728709943988013,-0.30325945363654716,-0.2167787418496012,-0.21513038497023712,-0.185841072726743,-0.2926602494591285,0.018671914651843924,0.16284113174446727,0.3779655174562335,-0.10705134394333005,0.06787312994811331,0.45312815353293767,-0.1880799842971249,-0.37687256720040074,-0.10851294053197429,0.07831941436906835,-0.015072128222812273,-0.16705415641181426,0.4480734358620715,-0.130977880196952,0.12265910648907079,0.4654980953182632,-0.4847968839255712,0.3912678038364101,0.1797395054358558,0.30354168552040356,0.35338204814199936,0.48714740771769466,-0.37865933796066165,-0.2949830977798839,-0.26759963094844164,-0.2549526396707269,0.0831372357187462,-0.2320598054616705,0.2216718133979254,-0.3885111643033134,-0.39715956650166995,0.38774545767022595,0.38377165967418986,-0.013178766113086876,0.1326560752736296,0.1360804966922481,-0.03023159720342937,-0.35916020690475725,-0.11070636094714316,0.07614157741141647,-0.1670157880899765,-0.21993738241548072,0.010848094567746538,0.15205273852917803,-0.1317558021107565,0.3700248913604513,0.035242767403467525,0.20380926697706506,-0.023638176270008162,0.20775566730645634,-0.1927524444341098,0.18693422851264552,-0.061692770953214536,-0.13374648468953929,-0.33203669433594263,0.4701014328317299,-0.37292626759937486,0.4118115860454174,0.23176704909693066,0.007538064294693148,-0.05508908689055068,0.03015816798601568,-0.24930512071765143,0.2238326623008496,-0.3528532892702008,-0.1605149878062546,0.2584419347110377,0.13097352321432482,-0.11373530634977103,0.2668072112434322,-0.14339725473308437,0.3830091171047001,0.48606507535282356,-0.1880260573951193,0.18705960546005204,0.08577904329572812,0.4571298748504898,-0.46803301498615174,0.02257216684018401,0.22658286879885667,0.41117739516181573,-0.20941119783360934,-0.42476618895866347,0.49762783785692655,0.174601442036208,-0.393863483638618,0.40046077135667113,-0.4941044058165745,0.0939262224334523,0.21365420803900861,0.017046990691228153,0.29677355141109246,-0.0706780790548026,0.19760136455072186,-0.2393232333728216,0.2701096016036353,0.43087528488983073,0.40444291194125354,0.37169681228627854,0.23378013376794265,0.03019436087962666,0.34661047094375375,-0.1472857912267155,0.3572406150901637,-0.38646122134812566,0.41401582635514683,0.00940560867624956,-0.09792792187617716,-0.4255182125063013,-0.45704268575775786,-0.16720014319484722,0.33082617405615133,0.08135872693102873,0.38275160064194735,-0.47370576207058046,0.37500955638710687,0.3548738333715763,-0.49164736918214447,0.3992008075258887,-0.43421205123956336,0.3036797289388745,-0.2952082498550035,0.3045108171343714,0.45890186691655716,-0.014161217378767564,-0.044280871316650504,0.24615172264709428,0.2676145756739496,0.491762093488318,0.0679557411593244,-0.42438096586369334,-0.20776794567805876,0.48100158671155074,-0.16257655952773464,0.24533521808254385,0.1964503665374769,-0.03754115516956394,0.2152102229530373,0.42311480740592466,0.3451010152542544,0.22394548231092082,0.45285670799350464,-0.10794676421421465,-0.30019109007109773,0.12018812211351673,0.49259293146649397,-0.09497131884776615,-0.26514705602225036,-0.4854534681815259,0.008281437001496767,0.4337727612621939,-0.11608355152385805,0.07072648277867497,-0.43955681950543624,0.1873825021489657,-0.18498404257233692,-0.13742673043270456,0.41289584075748526,-0.026862018719319952,-0.29606598564423775,0.26192026398412216,-0.37016027147807745,-0.23820981318444584,0.345255360093943,-0.22324109311881632,-0.2028206086442603,0.2214960768222647,-0.35746146789035416,-0.3056607323827736,-0.014419658810362002,0.4407788981870912,-0.259649508129543,0.10512905637994514,-0.46081343104105205,-0.10634728293440816,-0.05196280495490579,0.19742171488708377,-0.1395426571734812,-0.04101939971566826,-0.45910631587399575,-0.0004148840550976189,0.08943650607196003,0.0667097649235002,-0.22554312273619698,-0.08777414803975046,-0.1701310006185506,-0.1540774687370544,0.31103893239543784,0.27479337262857567,-0.3059794554172341,0.43580620930735936,0.17701195499209532,0.25724620203301835,0.37540386639878676,0.09212843640532342,0.41043931766230035,-0.3892852386946918,0.28463595993923185,-0.28037223599072364,-0.29540742018919464,0.025131127191432307,-0.11599334942569087,-0.29754980172337414,0.44643439092363707,0.189937269815096,-0.3547444151014303,0.19435049359120177,-0.4762262123905434,0.25481883067469685,0.3050196466076663,0.4192473494901382,0.033341025223966474,0.20301257245339993,0.04410601461375307,0.3155008540635255,-0.3361719204694576,-0.12952776016916895,0.23159187330353084,-0.4675308572225433,0.3117501309676805,0.004098899995151371,0.29961409783710413,-0.11051099685570959,-0.4282460610593021,0.1348579283780834,-0.3777102037727444,-0.4065674242966992,-0.04291261180268772,0.02725578567890663,-0.4632877371287055,0.37807940169634646,0.03191279636266411,-0.09026112178056828,0.001248900922258302,-0.10807763182106676,0.24786973054050604,-0.366842382192202,0.45452585272841783,-0.10933924549164115,0.02928136363944184,-0.047090991923648844,0.14631588842015597,0.33138839153328753,0.13889796692749437,0.26836701982255073,-0.3700858469015247,0.04271832554156325,0.3209424680561264,-0.3658185667113828,0.4081128977348347,-0.42809802989570417,-0.194177415119399,-0.15963114884067275,-0.38334871375499097,0.14946500538066643,-0.46061119726732475,-0.3785993013601141,-0.007942234248815612,-0.06610830638185208,-0.15728968965404788,0.3902005854118739,0.11709423783415783,-0.15233073743469502,0.09582229052414616,0.15419628619227346,-0.3879793337753352,0.14099945896115643,-0.42965516846429147,-0.2532572106017662,0.2885447412871638,-0.4393544031002303,0.14135966501570219,0.2895615809637127,0.18961415939043008,-0.16401712185163708,0.4887640642473309,-0.10499540871048872,0.10324820502218802,0.23881926101958117,-0.2731759376577918,-0.39196508477623804,0.2974370293194045,-0.29782626652959376,-0.08233012917162323,-0.2859316779472403,0.31405093652813193,-0.4500417290338336,0.18127582357327507,0.23150217033771642,-0.2873102312149366,-0.1172054099743165,-0.19843080383342787,0.05554187547854595,0.13755152956174152,0.2732781802791312,-0.05832701523597949,-0.3796562959244614,0.2720555260906205,0.407243212443031,0.17093715729892928,-0.19727174933224859,-0.33180807359982906,0.2545042847847925,0.09122722637273133,0.21197468116430615,-0.273606108916722,0.11055985927800616,-0.2878386324626778,0.4686277539991487,-0.2851966509662591,0.3265679240872387,-0.12928549657613084,0.11394615436921901,0.10337963255128776,-0.24501793900869062,0.2600416638911578,0.31237554880871926,-0.2290376361358159,-0.09438218195998503,-0.08465889717562809,-0.07939387569633008,0.10997981015802434,0.3987288049317598,-0.033777106531836805,0.22593169259786253,0.34733133372154756,0.2102933178967523,-0.1615885569685647,0.2584889944889947,0.06714624475471596,-0.22862825219320745,-0.37696627951520567,-0.386966276283886,-0.24494305191364604,0.13180850042566128,-0.3450061978356125,0.08162731206156082,0.12946663018155935,0.285881570538432,0.02233186981889643,-0.20978700770455513,0.2906370966028173,-0.3285883414444409,-0.4241595640976402,-0.3412213200437915,0.07230110900233935,0.06195540112566986,-0.09035983695323468,-0.23047602371816597,-0.032599200434399865,-0.28004429548211557,0.2556473947638211,-0.024807677942414796,0.27133403854280186,-0.2505089292855566,0.41078466865524293,0.18051179909313889,-0.22469541948149913,-0.027166683690980915,0.20531458777250827,-0.006137146345907147,0.06522479620392196,-0.21076928965312935,-0.025212347352935316,0.40054895614503816,-0.28666909941874663,-0.23646809715008213,-0.08730435693197437,0.21689466008322375,-0.019737039994001376,0.3036639555282217,-0.2947128465250957,-0.05894608315582652,0.4274331291375318,-0.06140773546107613,-0.278164637124497,0.3227318372985448,-0.4116013840087293,0.4880613611624127,0.3954064567771987,-0.21606840559982213,-0.34167872499521784,0.1469286304821465,-0.07746132495315017,-0.4972932961481681,0.4856926768557019,-0.028485374608739473,-0.29397567412458847,0.3985983320097877,0.1773515261940627,0.18930108558916692,-0.43855358671887157,-0.25288978689886776,-0.21148430113224714,0.007853403542017082,-0.479751425066454,-0.47124497874510113,-0.06732140029136058,-0.13972616508647534,0.36303902378112646,0.0810084167388054,0.17520868752310864,0.3094946379883743,0.20928282095702966,-0.17652960601766796,0.09636879520645052,-0.4325616559734935,0.44720767894492863,0.39129485933857827,0.028812576248765213,-0.45230967447263243,-0.002419331092218853,-0.05787697250639553,-0.39928521611882956,-0.06606230223182578,-0.32137887056512615,-0.08278205626173665,0.08581832247383636,-0.40017977168098906,-0.24661063724890642,-0.12538994767086165,0.23711199505177916,-0.03201058141777634,0.1764438633278624,0.08294733415856595,-0.35997472401198133,0.13609719076527416,0.11058264502396518,-0.382338822804642,0.3455684658584581,-0.1821260623247537,-0.16513798295536417,0.1155128486915174,0.06514569615658748,0.12915661914106538,0.03488763785483488,-0.26031548870897386,-0.018859678876378065,-0.14675095038862085,-0.4219873121883525,-0.0530524606521242,0.08967354040777635,0.10102875951739752,-0.11884481462132553,0.13246115844374434,-0.13007888731733264,-0.4181030252193617,0.025841844686040005,-0.2978358930098406,0.21659161053633214,-0.44913518338341113,0.31054401047185265,0.02060716705834559,0.07427996950729233,-0.11626835491867939,-0.49222848031501754,-0.17344002489192925,-0.24157155569865119,0.3544535790995503,-0.1607117640544042,-0.007901803934139631,-0.3019105931098082,0.18235817770343837,-0.42334584786966606,0.0894125948249555,-0.02815701291105783,-0.10184761427011225,0.08968829546330126,-0.046427124739231586,-0.0004912922640087764,0.12489898179153411,0.31564662101084234,-0.31600480466788305,0.4506697051247879,0.2430208585788518,-0.33777292441134743,-0.43724283227797933,0.1618891163260735,-0.488162534162492,0.007173393574463974,-0.4712799180906059,0.283133707484684,-0.39413801957651395,-0.49332855835647377,0.06631498242906274,0.30683970337863337,0.29741623465177724,0.09413047672068263,-0.019078722580155638,-0.035511008116586626,-0.46360646619735935,0.1729553285327075,-0.49130755500662315,0.3379536886415438,0.10962044236753014,0.027196775002404364,-0.05908443113145198,0.311125265401529,-0.48000139098337735,0.29174735152806375,-0.14376012610640854,-0.38282814337811477,-0.339115172204456,-0.0935455526644392,0.17090790445173076,-0.19237934336035256,-0.04168988483478342,0.4782483240440313,-0.1345263842422162,0.2365867794643574,-0.34882925051167146,-0.09180443433482448,0.48931448996017607,-0.4038952944540475,-0.4207996791602276,-0.13011508815202574,-0.4195973979066674,-0.4290028791803354,0.0111865498903199,-0.4762391178890802,-0.38763763236272264,-0.011590935056358203,0.2925363882789171,0.47530942132132664,0.09143956083554826,-0.2861015820680032,0.05837576087196905,0.44154145304269843,-0.3370143484400976,-0.4169885077330653,-0.35155355435059943,0.3150494869257977,-0.4928658141342407,0.21290020317207092,-0.050697661864292365,-0.4653961616332013,0.4615557861424491,-0.11579154891121612,-0.17878022574035815,0.04154389867278715,-0.3884368760244904,-0.2555990653391965,0.02111518260791141,-0.14144021652722652,-0.191777520157602,-0.15314128004261365,-0.07756222004833263,-0.03463590622341192,-0.008876291704131707,-0.4980913272062585,-0.014134213820049424,0.09924130242413176,-0.357173151057094,0.3992436307944236,-0.3281641955645408,-0.4403898683262554,0.05708199233377609,-0.4941938538726802,-0.271337722466769,-0.2759911461991436,-0.15354707504138654,0.4881148850987702,-0.19185356870440806,0.08776318875114764,0.47006445234795147,-0.2611068713672521,-0.22312012019711303,0.07590729944794017,-0.23158012249456317,0.08912304600090815,-0.2549373168836846,-0.3715850149583202,0.23591095794955974,0.03708330164873075,-0.06017333864805896,-0.31583415753775523,0.25679552899229163,-0.3793486729665777,0.34803576974986017,-0.07999192032225377,-0.49285841647904427,-0.355486184054545,-0.05740812367808645,0.3480909362524579,-0.29367477030314926,0.055864373129648315,0.09983141388420602,0.3152393598205723,-0.08930223658246195,0.4410742704943782,-0.30573097322451026,0.06723976490101158,-0.4285005687135024,0.07808860610978874,-0.4866541446927857,0.23255057012990776,0.15548820800376706,-0.1912235289744296,-0.3075744282548538,0.029188752041132027,-0.3583334534969428,0.11941669815744765,-0.03629750845229383,0.09176168395790077,0.004753023324666872,0.44059481280737256,0.4593764421661085,0.19521839266188856,0.21074150523553836,-0.4788865771583277,0.49559975882446294,0.3290643924045319,-0.3343490121088304,-0.0010598318596989342,0.09041632934036514,0.31516007407319113,-0.07919871615173624,0.3611638510695031,0.4967185472130524,-0.3969402996829978,-0.17861949754290707,0.44488638698709443,-0.13842323702270087,-0.15855093312165247,0.24440373598426746,-0.4037455926162705,-0.23256262652611584,0.37968575187695563,-0.0872763568032668,-0.03482997279477901,-0.016391540070555682,0.24070793081085712,-0.3753182461276307,-0.33411745044908864,0.08629172354176991,0.3773791331350201,-0.2119203238883236,-0.3218546844086424,0.0634747406850154,-0.49607637011217826,-0.13962708484998598,0.31490454910714505,-0.23509486906727717,-0.1193013272766057,0.1993244019594308,-0.11964590346964954,-0.4038608454906306,0.16092466827256813,0.0023843140438729593,0.2691838326761612,-0.27727584285898793,0.29263625396984705,0.27989395825877833,0.3728049625866946,-0.41732080764953666,0.40443120152873224,0.3803981589606913,-0.19792374120972694,-0.23297925970433228,0.2559321630063482,-0.3568260636475107,0.47758271837965777,0.2738341727317771,0.14550083482935983,0.24383993918649333,0.33802049874988627,-0.294353518878362,-0.1544987119710921,-0.3622120517346013,-0.313981850081918,0.09266694024768796,-0.4269250161685717,-0.03566540393407547,-0.41850783166403704,0.14364412323168352,-0.3737325477121902,0.29545881651250516,0.22355822974707365,0.27276602780953596,0.17155343637959244,-0.2351521134918255,0.27471037831532286,0.44225262330986026,-0.4600821854257289,0.038004533368458784,0.3284799592523391,0.08340307072564931,-0.20311482029272657,0.12846311813872363,-0.4009679976362408,-0.16780716641836654,0.026542759476277517,-0.34084345982198,-0.27599295335998,-0.07328646969331892,-0.2155142731905763,0.4556603579787279,0.18078415366432746,0.3286624220023544,0.46615081113920465,0.015593943812474031,0.26868368269139864,0.13683727096232867,-0.11812342836478729,0.22001911312150735,-0.2759313056348816,0.47397377157485265,-0.04744161582977501,-0.07987967022196223,-0.3773160848231202,0.13596427695640437,-0.002925751626538,0.3804660409153731,-0.3699233535167427,0.2845080927191478,-0.3157196461450264,0.2326775072571712,0.1825611528237599,-0.19363908070544136,0.14431927032954522,-0.49805063566611507,-0.24550293089041558,0.021298801389156224,0.0933815845762328,-0.43409692923849585,-0.4764835149018132,-0.44332914491768904,-0.3247143133583691,-0.4288977518974545,-0.16172159496116179,0.19686117324569585,0.3686714366354353,0.24487219558152956,-0.4887664732862155,0.2863777084568394,-0.20882594382639807,0.1123992367482109,-0.042593823914526596,0.43778462261053996,0.09543840081409555,-0.4713528466916423,-0.18634139518003046,0.3741513099159017,-0.36968229807696995,-0.3836704910482588,0.3902533394063018,-0.3028341325103547,-0.3529858930998869,0.4190686370908245,0.3802701063230079,-0.4191351070204571,0.36008220827782,0.2063271785618503,0.07984620114144943,-0.42503021189511875,0.4559752470828723,-0.07486629672264389,0.4056929510530213,0.2006518456823289,0.24848735874422717,0.3664838244471253,-0.49562281097105865,0.00540751186374724,-0.2948660009346123,0.15488012166311801,-0.38321428322336804,-0.35340037538507996,0.33265565430073885,-0.18422619101143142,-0.45181478430744776,0.17450603096909784,0.4727673751238626,-0.4416791379330091,0.13103221295869996,-0.048719698237183195,-0.3727174005287367,-0.032860969914246176,-0.1601132120842297,-0.3265125938420212,0.13523398342166182,0.3750767125326528,0.2434500517070922,0.22885729031252489,0.35395479986665357,-0.29282736621591954,0.2503380665950956,-0.40408465411112937,0.34331671458838675,-0.0802290443821644,0.3720515569303378,0.36540224698765983,-0.29001552838647937,0.30763080107959007,0.3571074495539098,0.33423768647992275,-0.36764265801157214,0.12666596214029027,0.3423872343623141,0.38460333939728586,0.38203142801146706,0.14417985479299286,0.10238602242371382,-0.18882886588207687,0.08619760058816056,0.31977819558326015,-0.44126101371291987,-0.19267959190104378,0.24729321914380728,-0.46655097476302254,0.3420554972554215,0.17855383353785304,-0.3767300561766411,0.23626711647218013,0.3508319676439601,-0.47014303572983135,-0.023362726449201357,-0.33664928203676847,-0.40391612103629954,0.07313636749584253,0.03997448041505,0.33342836213331756,0.19308301935817013,-0.23844480479962618,-0.21682370309485482,0.17859536145762978,0.5013562307254039,-0.11938426216052561,0.43967068942196763,-0.12509454842195672,-0.08180284153207583,-0.40061785854831417,0.0980607586787801,-0.4784726610761579,0.294949144188841,0.08087795547842726,-0.03716343624994851,0.2357352375688055,0.4970070656169136,0.2016658933830072,0.22433426437200585,0.24127985642116445,0.20859222115301423,0.11134037958527696,-0.1072482262586909,-0.33246305781926855,0.1226585953516729,-0.29900333395500106,-0.31755110758197685,0.2520270994092878,-0.12504783692989424,0.16731594342904865,0.11573938648994088,0.3689353004740345,-0.14650037682788541,0.08542243773955724,0.37475417772673575,-0.3594291540477326,0.4339320849474414,0.23091074318568044,0.176813119502686,-0.0606250917666504,-0.3784220892369533,0.19842724955800675,0.0031512437674894827,0.09121650314812968,0.19619748771046364,0.20745234336340518,0.14892437531396224,-0.30652471975572826,-0.35901661380611205,-0.07544240080053007,-0.14588272598378313,-0.48027820946205935,0.4656144359205933,0.34135683329595534,0.4450284117556432,-0.146469679827655,-0.37727984399151704,0.2661967566250496,-0.29001050181006666,0.44369739028110367,0.35996205441810836,-0.3798879935480722,-0.2644256706710532,0.3641967675502484,0.47190291544960694,-0.09084797440852287,-0.40435970782401476,-0.14742041899808325,-0.04989916042900345,0.2470689281489178,-0.2914158013241355,-0.17700676599864662,0.016665280725016586,-0.28636937152083564,-0.3335412182093618,-0.43235214666832356,0.02383562203496876,-0.2774003712427737,-0.1509357848121207,-0.10605137214877336,0.3961371175711117,0.36954644728875646,-0.1290761106155085,0.45744309548087025,0.4333527909089413,0.3918847385489049,-0.12725946166874422,-0.25502200487192794,-0.13697830461385302,-0.37937748717139963,0.23176452254917757,-0.03820364974791719,0.49163804734563304,0.2170825966744026,-0.024829602974391678,0.025290852821001297,0.3133900019629329,-0.2677606070654464,-0.07559126273286633,-0.0011274598886219628,-0.3905250319628265,-0.10222261744225712,0.1426576900253793,0.1834228971192392,0.3341029792185892,-0.18131472369734492,-0.42215776584822723,-0.46973257446098854,-0.14198370266244617,0.08597110903173193,-0.23866879678052924,-0.36923800986260064,-0.26385413859056533,-0.04202640737678431,-0.4930846343340484,0.4123200365976863,-0.07360364433442944,0.3739492676438489,0.2731340118799275,0.26724744938282086,0.10540930620290208,0.03621765678080998,-0.16732697965664795,0.39658145795896155,0.32876279179778123,0.25021355951653573,0.11455380946669814,0.14427868814598227,0.06699379836499722,-0.32806924997539844,0.4171051963356256,0.20994756135444426,-0.29646284266916834,0.13283207447667578,0.187994478101004,0.3359043020180333,-0.41583124110056163,0.3177567770910854,-0.0863090691664418,-0.09418095854811148,-0.4877689078823229,0.04852158508282483,-0.19912886310290603,-0.34671559770092486,-0.11908911751211312,0.08932611562387915,-0.1473840152066833,0.14173953610293893,0.13698187368242945,0.23353719144296825,-0.26264029008684503,0.20651610895075076,-0.11835900601333822,0.14985018145346893,0.20011834875901,-0.18295762361525722,-0.04023708253493614,-0.4807357600668847,-0.16856872461839545,0.3956805401013339,0.4343242842141003,0.2584266029214989,-0.006632695377179892,-0.3675956753452487,-0.28771017334986415,0.3147763515813633,-0.45995135848849744,-0.16687067181930546,0.28951110392373397,-0.3259346370941797,-0.2325937373955667,0.2826056349835757,0.43748837695003145,0.13738181847541125,-0.08523894740319303,-0.10762789646285675,0.37046354857246355,0.3798577410579277,-0.29236183668485954,0.010330570130735467,-0.08999171058287553,-0.022492083308556177,-0.25390054435684883,-0.24274189994600356,-0.4512812002916109,0.18904106869946075,-0.24684312333225525,0.18398150654784895,0.09736832574493248,0.19822684149608435,-0.18475380049327522,-0.18382680927731562,0.4432012877629888,0.203968728410223,-0.17005230004824998,-0.06803760823390152,-0.06693156688451905,0.06501625852857673,-0.4183994816925097,0.012822641414083971,0.3050915651502102,-0.034751706206930466,0.27039098839229203,0.2892797619857494,-0.11396011775978027,0.19133632892517405,0.23215864352522794,-0.40711821331915204,0.20329376090081605,-0.12992918427068548,0.35656845646753993,0.15452621454831955,-0.3173300152751359,-0.12686596814670453,0.14757451475038313,-0.3951440739072417,0.1066649122776383,0.05059239423572357,0.1976508627328957,-0.23019919111518833,0.2250081788899424,0.059332316936934415,-0.48792862902227246,0.0004977965486499642,-0.273691725046967,0.3456595362649667,0.278247248865345,-0.10774822314168059,-0.2817236687030828,-0.30357762457318616,0.003907803376086527,0.38318528773383664,-0.10352533410816522,-0.33581634261495175,-0.25501110698775603,0.0685081439047024,0.19688402437337324,-0.138665182047369,0.45365855918074666,0.2874286450021014,-0.45733723071287474,0.2365963195575822,-0.47627710592836603,0.31086526521858715,0.04276067615674706,-0.235326243180257,0.31957237492700563,-0.450953323838186,0.2659661129895078,-0.48299989756612294,0.3992306353904181,0.3167691872845414,0.1762006714462337,0.4276245183497827,0.28835186108138194,-0.08042555216169046,0.24832362508670905,-0.30864624694605297,-0.30781997475745093,-0.15414030913326252,-0.3641423422535315,0.004098736154040944,0.04599903925632719,0.052588856861877496,0.17448209165895084,0.16204204088890403,0.22012563028692736,-0.4296798423434305,-0.03648592338464901,-0.12535494546742418,-0.05996144405339687,0.3906482432650884,-0.027685032181629876,0.4328260612124682,0.2892481141621713,0.34268250002251344,0.4013772469457115,-0.027495441365253184,0.2451655085902179,-0.4405803243250417,-0.2855312830176306,0.4229958222577449,-0.18627377383473637,0.45830551592704116,0.44981297806776754,-0.207985473211605,-0.2698527827117148,0.4405408545080646,0.018971172146715527,0.4545833191722179,-0.4640178021073344,0.22103403508602656,0.4043978677594937,0.17330525614653322,-0.49558978117044744,0.4732505046728228,0.48589884652836823,-0.35790659522243917,0.3647745624875701,-0.09284135748275768,0.024176941454127188,-0.4142902452606683,-0.04980051743791548,0.22500559506026674,-0.49782063480233574,0.11479561441286039,-0.4892238909209037,-0.32299047477840104,-0.3118450498979162,-0.4361723109727395,0.4441615370570597,0.4809462057015991,0.060451638595321586,0.22109928626549305,-0.4465163633894154,-0.04946571812357624,-0.04634308281697582,0.4379498553924887,-0.37619935718453235,-0.28139975351885665,-0.43627435171491286,0.21024899704175856,-0.13145687010500393,0.2986191910229047,0.34058277917404006,-0.07542583611034737,0.12357636924903015,0.4831841897309096,-0.2610465811481937,0.4263159306936536,0.21935930986015167,-0.06275134823923335,0.20599286951418894,0.1390395554680779,0.3361804921250989,0.49120523998405907,0.12980107096285046,-0.0803011638112163,-0.14306505456424728,0.38539770377795207,0.47760042880540915,0.22964720519577567,0.09561337716728874,0.005208161087156941,0.24465319811129307,-0.03525461189370456,-0.4490359172096623,-0.18088455237503048,0.4304933900236436,0.4144663096304881,-0.09146644919173413,-0.474626189810641,-0.02624585995091458,-0.4595356807197766,0.3486755178195716,0.16564175270298465,0.454654382633375,-0.32592211299335316,-0.10395534530989158,0.34537716108756245,0.10506398276694456,-0.18586852744977297,-0.2867213815097244,-0.2829678092106469,-0.3634174039757714,-0.3338605601160633,0.3772107005150908,0.12960360447417799,-0.46252400318042214,-0.44887628746567837,0.45952109435950217,-0.3901193945783857,0.34243447743046185,-0.10036921205852703,0.43721705095047475,0.2354394699061341,-0.2408962268626901,-0.1830460245841441,0.16246104011601403,0.08672255260458835,0.46689969258396136,0.37993062514646037,0.17692936708884777,-0.003892264593327144,0.11010539500793182,0.17193243182336904,0.4933141911188462,-0.3116016787061709,0.06672151764497641,-0.13066447730355427,0.06478920744771016,0.07386549877140139,-0.41602600850487376,0.27195192811187424,-0.17742586996900117,-0.36483450085244046,0.3826540987416295,-0.14328954887195838,-0.019900836932617978,0.19676947231822736,-0.18230124278341264,0.2175275470519704,0.4071909386606768,-0.43249938325971027,0.33552166838201675,0.024672450471994668,0.1427207620378055,0.3998917744778324,0.44988671312993916,0.3026436761933279,0.2657160807182618,0.002653173396049091,0.404694000998722,-0.1766800949478271,-0.12210258474878712,0.3316144039660756,0.14149050711491248,0.3441167954910323,-0.02009599988123916,-0.26788222329184724,0.23222371179034396,-0.005450977056871679,-0.43888786073947006,0.12708435732416962,0.04601666360781483,-0.2602916978892141,0.340695876338103,0.39559047725052443,0.06559549411015415,-0.014991279532555727,-0.30847605123004984,-0.25473903688919336,-0.48142337241169836,-0.3468561307556811,-0.2754488004596592,0.05155643258200673,-0.34257367382766446,-0.2442591086810052,0.41986507337967394,0.32867180941092,0.438407999826829,0.2849236659260509,0.45669428538006673,-0.42978331351943927,-0.03801930402548253,0.14947282047229657,-0.11574377224647457,0.42553608428832107,0.23367745889568795,-0.05164305618857821,0.45003936942223516,0.2662176049732619,-0.462215088289252,0.23630120067581453,-0.29262212712652874,-0.45954894397189233,-0.03299504275445839,-0.06671205241993217,-0.2637500786253646,-0.49156180997488336,-0.4455843036909611,0.42097249423310745,0.07948553538820269,-0.44935122916069514,-0.054542839126730525,0.20668170566480226,0.4975569398115419,-0.3342323036838074,0.2221844109589971,-0.2024491158256021,0.1026718988817179,-0.19751993231212783,0.348139416538766,0.023536800384966382,-0.381608912484129,-0.11796278492925313,0.3138654509613611,-0.3838292655488845,-0.07309021655038157,0.10939405106915027,-0.25457700682748663,-0.10638529923404018,-0.2302079084747816,0.3617972505908499,0.39604922385245994,-0.19863713377060535,-0.05676706462658948,-0.02419974201982254,-0.05593883839498657,0.4771207533128247,-0.36521511252325356,-0.380543928308289,-0.18164792121652196,0.19418519994022165,0.08949067707291103,0.0834928932428376,-0.26273374639937974,0.11618761933825394,0.20700234902170422,0.2739463061774188,-0.4422085006255142,-0.4740145846564615,-0.22548895170783229,0.3700104668735783,0.3266292232597327,-0.32691388116692177,0.2849714608446596,0.19375133397596572,0.22011601280100737,0.15924430132480466,-0.21938592562223594,-0.2282367243834243,-0.49283064613893846,0.12164992890467163,-0.26473801429723376,-0.2649104443606506,0.33548557673235935,-0.4404019603733096,-0.4979606127445739,-0.16103832917522665,-0.07851512086872148,-0.1333347178283224,-0.459940602256097,0.4715676569134474,-0.3780949655606607,0.061528703983734445,-0.1489595852384532,0.09930667663068149,0.22118495609178535,0.30023138251040216,-0.2552049543009095,0.2237816706926551,-0.41835975652599855,-0.005902506479891212,0.37855408121619627,-0.2685219418610323,0.10237235938135991,-0.047744349429805766,0.41659028323167335,-0.028503178007695085,-0.13991087011565173,-0.24812468513210328,0.3730255869743274,0.0759512201772764,0.3485083461641133,-0.33714257462380404,-0.09970478328706212,-0.24916225162492933,0.40629098756232185,0.3614106179032123,-0.37128691780518375,0.07978298827106611,-0.04432399916805074,0.45792886646798125,0.12774906141140252,0.4878224262108086,0.2766421510743582,0.39412569457837876,-0.03377800782287632,0.058227639017795485,-0.4889188820419237,0.20429394369765647,0.4108772867537978,0.08618003126385543,0.17397178540014357,0.22035695152395976,-0.1654324555194046,0.49702456785063526,-0.007172621234197707,-0.17528667686805832,0.10663185060847136,0.3619311766420473,-0.15801247597126744,-0.21114748154403917,0.3046762917051765,0.2463050005401788,0.4582757914042659,0.10437747137677356,-0.4014737898404498,0.4475318030370752,0.28235980622246803,0.34553568193340134,0.2896492437125324,-0.10660896447908264,-0.21255349229280573,0.4879481603182701,-0.3750513674820082,-0.06216709702835954,-0.42760432479766836,-0.14385738705845966,0.4583119687769605,0.09302764712468407,0.36786550106719346,0.4426295932212337,0.35987944829126645,-0.32802218047205917,-0.40526072288038745,-0.13820461680678095,0.020088736458261574,0.22000865927206079,-0.04533825555897306,-0.3656129407192275,-0.3237739072523549,-0.36860911707063954,-0.4978106903149311,0.3913371327159071,0.142940912705794,-0.1406439270962454,-0.12428062016046182,-0.2259677705336116,0.429355132597559,-0.0734969575648935,-0.036580483337507186,-0.13114199938450932,0.484241918665111,-0.49292024016509794,0.4604940234858841,0.034060728078713035,-0.08640716480636447,-0.08219770529733379,0.4385376119401958,0.27514388726252936,-0.08042208192847472,0.22489061163676763,0.3919641652552339,0.4504745915016602,-0.40683089831852565,0.4008812033016014,-0.33676765222337096,-0.09778664526882212,0.15515714213610546,-0.1421082376984362,-0.11484223132395242,-0.14022200952615252,-0.2738043834981049,-0.42017856527142083,0.09188144614821758,-0.019838111681254156,-0.25535358819618603,-0.3141551076913405,0.34964884204460706,-0.12293211068505258,0.2396371972921164,0.18424145388743968,0.15467282858802894,0.2316917397996708,-0.3730608736998321,-0.09000479506579939,0.08687797915373288,0.2069998553611807,0.2770199330583282,0.29870676186047257,-0.3045952292799036,-0.3260188256903018,0.3144182846787162,0.4782777438600222,0.2651525235928422,-0.432642545941374,0.475795827342778,-0.2241850692092938,0.1601203261691414,0.46239236869024314,0.06340033397525466,-0.2477895380171653,-0.1570431855955633,0.14909862299733445,-0.35283547005746574,-0.08068417156872687,0.09495869912612266,-0.4278002544342691,-0.4591335331399338,-0.36600810384217375,0.032205615131257755,-0.04896568884013744,0.06147719277402729,0.06724907421005843,-0.32700417530690556,-0.4377029081229946,0.2036332756007333,0.3086813839124247,-0.486976682339152,0.25564707753290505,-0.49322947663958083,0.1608925777399588,-0.21996071200207407,0.062290933140502026,-0.13260293552597316,-0.37652372938669865,0.35059546001061576,0.09368442014636547,-0.2072130393661088,-0.47906802247504743,0.45308900705218436,-0.07859256754585975,-0.1376913083573772,0.21238609366448266,-0.37552955587946907,0.3468054232355148,-0.4552429087275213,0.1909072753408997,-0.48071939236102645,0.15125175940175745,-0.38500255752282836,-0.2181576092164261,0.453799881048018,0.22026584913893385,-0.4032747326459872,-0.08499557302311539,0.14904382019980209,-0.05163830680550204,-0.18343735104665576,0.13693791358791796,-0.4205639241352852,-0.16345892239275858,0.37409878105150735,-0.01320742188530805,0.24161234958784164,-0.32344080243777057,0.21969869606604894,-0.21133887124553982,0.10195378581640635,0.2064780831005587,0.16433278577182062,0.293300016302347,0.2423272802101219,0.08400016836771039,0.2794784200136095,0.07731853730783883,-0.21801005857142122,-0.13409692060617745,-0.12205325682408079,0.19390185700320076,0.016947188083272086,-0.02460297992143805,-0.3278711923459515,0.21005185422350495,-0.0658150681901701,0.03024558401398743,0.04422840827043361,0.004776205040496148,-0.15801690364052465,0.0037542584145687464,0.24547168905173333,-0.4274817074673631,0.14309365863884316,-0.3604500814764144,-0.33475827137028324,0.13259661320726568,0.3643260681231837,0.13762024112756677,-0.37446404879521095,-0.18854241873685051,-0.49577815026245237,-0.18557569022324863,-0.3138945088632558,0.0595989963280203,-0.30051194449995405,0.10169256511204924,-0.1925920792439152,0.4397139308854831,-0.46973730687107274,-0.2510265845901525,-0.2940476546953058,-0.2483795684249461,-0.17907094183677053,0.42128313606781187,0.39786209622251245,0.03691303242375533,-0.10673511929585018,-0.21502494914531672,0.2789969132655779,-0.22940867905104634,-0.4833245840748345,-0.4288067191268987,0.03793924875958122,-0.23807677064878896,0.4955755440914217,-0.08215560112915266,-0.1266335508623509,-0.14687132255271665,-0.3621872558532836,-0.17015952465914,-0.2642243926576493,-0.0527792637493375,0.39027037340394666,-0.09922932634902946,0.024954701958393496,-0.4108144156967446,-0.25782593284081984,0.02690003127916929,-0.03646983255538028,0.2938889084574406,-0.054865988779525164,-0.21363840685081073,0.46888676579007676,-0.419633133322022,0.4440575871931895,0.11378313856755796,0.4914499185097962,-0.1731374178124945,-0.16073669557394293,0.13052449655880513,0.46228005728773397,0.35092475593674893,-0.40932260095569584,-0.26099848864441394,-0.18422292646831173,-0.07076034307391885,0.061352151072941,0.34621548079406955,0.017248543780474686,-0.23563664899573386,0.08170765686977745,-0.4061655136027908,0.456126802383905,0.42449633431018174,0.4691663060446868,-0.04926204046075729,0.18240710573038893,0.2527854022620448,0.07784155767350023,0.28693471760361794,0.0016861293294463727,0.27409443922453186,-0.10116499005060368,-0.3122181666085964,-0.26995808992799863,-0.31589232391699673,-0.19387095217912542,0.0657603825185263,-0.17710262434946494,0.20507480880575585,0.25356449287322025,-0.18120259327454794,0.15377545298031434,-0.46807497903408013,0.05820488137758209,0.3141532028872885,-0.2520270506887672,0.42077586183027055,-0.36989883489008035,0.31035517022839565,0.16276345978783555,0.13816326557857492,-0.2661158763329844,0.022109398622072503,0.035751065335452414,-0.338775226406338,-0.1272847597962803,0.18238140466038813,0.20841980735008991,0.24665304616666098,0.4094859910004642,0.2626421056550033,-0.11803558035092737,0.45400120874166505,-0.14245550757095368,0.4095468871635799,0.48041174185457314,0.29126536041533,-0.05262813343155415,0.18400352231233627,0.2952225651432721,0.4010581748570747,0.1303405133669211,-0.3183278366404497,0.13007818472978913,0.2779337610972368,-0.39999298305246667,-0.03051311136869011,-0.09754004627254798,0.462169159407421,0.09338623529553773,0.049874287213298125,-0.07870246882236935,0.2751072242249755,0.29984243011948347,-0.2414993896844753,0.3603502660484705,-0.18322425826916627,-0.41573516416198075,-0.08667569723467039,-0.2421277725492099,-0.26964901310373246,-0.32074490220652396,-0.4000160696317496,-0.18515213192265315,-0.09672750714495826,-0.2922478162011144,-0.33990643891196437,0.29459827091191515,-0.08330617177687157,0.08934189121117633,-0.05593782731632909,0.21021561006073405,0.3144746358793955,-0.3905187400713207,0.06843707974777886,0.4868945802723905,0.33705322134668675,-0.4338701082951239,0.1385076886910001,0.39094328671773376,-0.4044800880592428,-0.3427451819683189,0.2705030977590326,-0.11955752346683546,-0.3949943600337179,-0.46511817434207864,0.3675849808826454,0.056033153390442444,-0.23429098665289438,0.13681170208553992,0.0981460502761337,0.4180174503088607,0.4855066332366468,-0.06317857074450894,-0.15205910494260588,-0.19734198233865607,0.1553923481384119,-0.21993782965011718,0.005298323739726643,-0.37835192637674125,-0.09269308526787266,-0.13530577173829156,-0.34639995900310483,-0.17182398225905876,-0.11674815161592328,-0.042898166524444635,0.42160812590433516,0.3790072933672443,0.18998689714689962,-0.20380856978153875,-0.32563494316659247,-0.4519840523934414,0.4730843573979287,-0.3218888821454981,0.36494702119553296,-0.13031683227180887,0.14494828343977548,-0.073678496846352,0.4026554326836193,0.21407232788899946,0.27110500483547373,0.23922528866557047,-0.16826600802419056,0.43976644591204356,-0.12443725508188123,0.029763899215325195,0.10521559760134823,-0.02580358807299351,-0.45070315352291274,0.1740988810613867,0.01689308453867287,-0.22552027834334615,-0.0425910578825634,-0.42453125635484185,-0.45169697696360794,0.04687801145242151,0.11302673815264909,0.15786597186632567,-0.03438819626310639,-0.05080358777628677,0.2846992073185016,0.49025474681592385,-0.3292132720359531,0.17204394060118094,0.22906384244792558,-0.06588372793943902,0.3043762446637594,0.2784285003636381,-0.40484531263282275,-0.09018010743862626,0.26439893019843486,0.031439891467394426,-0.14015522353575996,-0.3808402598328591,-0.43482386391258077,0.19530759712718646,0.07788530477334996,0.32290363476494005,0.25097313860553505,-0.4546307922120817,0.06037245857793558,-0.13516252317537159,-0.22494322136405384,-0.4308038673432939,-0.4833382176311085,0.44446264626054516,-0.12085263671447057,-0.24684740418474863,-0.08559388108079621,0.3085982008373582,-0.2500592560817936,0.43189770369554065,0.2672409437022267,0.3598929107554629,-0.3094734747269049,0.15006092969202128,0.0982943697310285,0.030316920540308212,-0.42442158544590425,-0.2736518042457896,-0.24173493051159728,-0.0042211539325273575,-0.299919502708265,-0.10488996679794417,0.49232418495869373,0.014267392238667386,-0.26517433797763224,-0.45350124107015316,0.04659069021599865,0.256484628526911,-0.11212297998489144,-0.09908782856129732,-0.21666674792153082,0.4526290410951399,0.3481789702976409,0.13868733109373502,-0.07528539790632359,-0.4894690566800098,-0.10605500296441978,0.0023896954975567096,-0.4411167205525531,-0.32299587909352934,0.10287529665448752,-0.06692230816295325,0.22562144662186479,-0.28479832478425804,0.0054433727877510885,0.01930990052312457,0.08360309525545821,0.2941923837596563,0.35834708921349906,0.4820085743359621,-0.29299431951389904,-0.3905374192756034,-0.2627236355533429,-0.1647615151173747,0.3629126760716351,0.5058494981627749,0.20885974202327087,-0.2610182503757468,0.49907246403476846,0.3299046629664174,0.29330300558404565,0.4823691042070438,0.29602873060318174,0.08103195467576003,0.3177811731606685,0.14279919910144062,0.33577908050675626,0.12164355529072374,0.14797596645488895,-0.3328863789878458,0.4962256698895756,0.3892133806688366,-0.0036856446296950063,-0.10313940471580492,0.4632323458426147,0.1847228546967561,-0.05324058499269012,-0.015384965171153083,-0.0950227660722857,-0.45176112130724655,-0.42163000605531975,-0.4011697050260857,-0.04929453708183987,0.15873907010420818,-0.46809176275795955,-0.29944980006601307,0.21038661971401978,-0.13588054059274013,-0.17103111814858968,0.24438091089618913,-0.0725345922699874,0.28333147553313537,0.33490622008745974,-0.4013562157674721,-0.1067946784703244,-0.047911567275546914,-0.2759950345139523,-0.1840401640007427,0.1808986505081901,0.39003415119412277,-0.3596842706703942,0.04928883253402332,-0.44708649359062735,-0.16025248446053153,0.42865939865961505,-0.4031293970274721,0.2936862867972154,-0.33900959519666174,0.3830080983738086,0.1213462364010329,-0.2173563048792628,-0.3947386000175858,0.20822157977625744,0.06145818218251196,0.48506927249799636,-0.39824078638909716,0.3604870679481521,0.3223800947350775,0.20603740730621478,0.5003858364438493,0.4685530899065524,0.3544497824046689,-0.3105587068749972,0.2719485099602656,0.44889999307302897,-0.23095093457081262,0.3493854101096844,0.47518683403370654,-0.44491445393042406,-0.1325578945618507,0.25798522569940113,-0.22130074514331924,0.0060465894878484455,-0.13039511426977193,-0.4361754014813327,0.13927442439541537,-0.23443702589943424,0.26817820800482456,0.2734105191070336,0.5054970063282297,0.3237061935716994,-0.12604888001379327,-0.007623745241668355,-0.0431618064660106,0.15796291755384453,-0.2312814900623301,-0.31665836147757664,-0.21942046052379813,0.09337982157424492,0.4962334873015917,0.19326004884619163,-0.3379938742323677,0.24813615629889585,-0.28166237687871043,-0.48659257102431575,0.058849089676772603,0.12064696011354392,0.474674412404518,-0.07070156260644762,0.48789782421561295,0.2515607159151151,-0.2954247169777827,-0.0789596700872714,0.36828355368856197,-0.1840705741158835,0.0500505245755944,-0.2798107624782164,-0.3813978548843494,-0.27563642365204777,0.023735373044214348,0.024212202034409547,-0.1346508687922985,0.4310516900451509,0.4679737434141383,0.18419132871305705,0.3050773194400505,0.4228896842725094,0.37359785850770666,-0.4314431948601708,0.2567745143517087,0.1545787197177956,-0.33997018456744943,-0.29406510645082196,0.14110185692944432,0.4041011317256038,-0.1620487547244518,-0.31431255573878647,-0.48945116654408277,-0.08671363007274482,-0.2870987313509301,-0.29533650450654747,0.13944535857531756,0.39666593882999873,0.06064435809027386,-0.31809037105896504,-0.037014601283110495,-0.24720874118617997,-0.3336691943870214,-0.0943912722225505,-0.4749442923509332,-0.1514670161608578,-0.49350922256002394,0.3095799507882735,0.08641603136087789,-0.33229307921505763,-0.19676397200618154,-0.27319706549350753,0.18407967873771053,-0.06302835427476335,-0.49637153326102557,0.01608436950162795,0.3300187798219575,-0.27800934819136947,0.2679491065216384,0.11221888889169215,-0.435403013963593,-0.4440405017389382,-0.008253716737315649,-0.02173163137444628,-0.2668130767922849,0.3254668856850851,-0.31863618243385144,-0.17856792935994215,0.03122446644347609,0.3885677740869923,-0.3006580116905932,-0.17073462832353806,-0.3042626418334256,-0.015914358319928285,0.035631078613543504,0.31189291410619213,-0.08255917460002075,-0.2944197381830962,0.3742277342388988,-0.2733410526865889,-0.30218574684034505,-0.11323015253699797,-0.4104647510927746,-0.03656329145963,0.15895314753947698,0.37727828515817174,0.04290549243320385,-0.1442040749993707,0.07376225855654944,0.17015225398660652,0.425128049634773,-0.21066126359479587,-0.17184286412908498,0.3101431073045052,0.06754680535137333,0.052534582593969426,0.10724531579585347,0.3333305020938789,-0.16544149229141628,0.25282783760714206,-0.48649570020690813,0.36929383838401764,0.15709043144870022,0.10517070908421938,0.486767254814837,-0.2442552387263379,0.13649349882649514,-0.033746850359871794,0.1078678029402097,0.38616789143430164,0.214577311793,-0.0718034472100968,0.35937044374424254,0.021360446929758248,-0.42873140321113,0.14699420812162767,-0.1756513336936506,0.3186020684753461,0.09795669950946985,0.1420875336486326,-0.11135475697140686,0.10525677159845968,0.23864537897159951,-0.30396450692317245,-0.29121760124516594,-0.28123745436787134,-0.12229334486052781,-0.2808573263079681,0.08722530287430322,-0.028589744493230162,0.1078582606166443,-0.3495031021374341,0.27860964089409757,-0.011433938889457235,-0.36453942212159757,0.4508753324026933,-0.3243725670598352,-0.03984554262118967,0.07691114998994386,0.2827979161557018,-0.426408343649994,-0.35882828001953226,-0.08915943776592916,-0.09921072954842958,-0.3441403196782098,0.42486313903458717,-0.17109619012722588,-0.4077590895588463,-0.38854714100294985,-0.33644396787307873,-0.1460690177715002,-0.4672948376873062,0.35107677856503433,0.23390622064802064,-0.13910092607845265,-0.1599927214222356,0.29486125615468545,-0.404225888966827,0.18861782807938499,0.17141529707869563,0.054061568782445835,0.03953347184536704,0.3040434960492049,0.017824775250610658,-0.23562076603058557,-0.010119390950597884,-0.3333072443587306,-0.39719653772030683,0.2840850925571652,-0.19650793545351986,-0.16226701081644435,0.044477941244280395,0.27062030915800217,0.20077482965457327,0.4869749989769062,0.21158339418781869,0.3529395354736954,-0.32809988783396016,-0.3301550998759447,-0.38710110023167343,-0.2972836773923463,-0.4350604788037754,-0.20408297616487303,-0.3437305173399128,-0.3437167652428229,-0.012216955264362506,-0.19592711033488597,0.16869270500631817,-0.05079384829272071,-0.09390196362683612,0.11158177833538718,0.24966652613602924,0.43072889944138504,0.439013846964171,-0.4621348095791574,0.22887048264556875,-0.43151497052810217,0.29666816591855394,0.1579101183323297,0.25642756609815787,-0.059127614530554706,-0.010766213246729106,0.01770172603624398,-0.0917197887338922,-0.347520372937829,-0.0855307932306516,0.3068404503824064,0.4847258812802312,0.3674703763431637,0.1383165071626662,0.31552524649324537,0.36217822724969,0.2538414298096252,0.0383857836134347,0.39485105208633475,-0.15876611423646114,-0.4747497054651074,-0.09061554511019343,-0.29283582752750625,-0.12425858028690295,-0.21460706876847035,0.16438457665304673,-0.08164396027265053,0.3982135682189647,-0.15833954061040112,-0.17047339147081308,0.1523930530933424,-0.08435166409743422,0.223451425496771,-0.06701643467053131,0.45432441002339335,-0.3455691903964696,0.18222536787840637,-0.09413815295419904,-0.0035848016319075934,-0.4752505715423628,0.30854519141251235,0.1738870555918209,0.06568479026668142,-0.14824894176958048,0.10893094989975614,0.03602482361373035,-0.10144727716092486,0.48478147314673803,-0.011937135260385366,-0.3997778091430266,-0.38255424261338844,-0.3270358990453318,0.31126359503447176,0.13966811181547267,-0.19850866497967035,-0.4709737396980328,-0.18729788163035088,0.22309995606196276,0.30538057550526754,0.13453023452009494,0.41959132543631683,0.4187381160130419,-0.37688323203900825,0.2246361821055223,0.42344150691507104,-0.24396517970749468,0.10620412414878878,0.4907376722941923,0.09519557285987341,-0.0015403125368056454,-0.04807796762172486,0.44424259395481785,-0.45197162354096754,0.0905510653591857,0.16709792286555367,0.0693692531650664,0.4823498973027521,0.28534698495715827,-0.3635554346351566,0.009473336350568235,0.1767250338372305,-0.40035407674456586,-0.49724063156181647,0.05675014777230869,0.2357895283115874,-0.12179038866209768,-0.4102491016081995,-0.3402725792228086,-0.15777113482014538,-0.16880218913974487,0.18341083423722493,0.12393861236981778,0.27517115969054345,-0.3519866313841635,-0.30038402777297313,-0.3758338603655539,0.37962966736498566,-0.10713758403734312,0.06280417741315727,-0.4228615320312168,-0.29243355552232764,-0.4814070434339096,-0.1848416802889285,-0.08799729616285905,0.0037559117843891585,0.12508990592773972,-0.12457902825616007,0.25573413693725655,0.07848304009106712,0.2628780802327658,0.42486612199346135,-0.1269184685681352,-0.07057278542597467,-0.3997220484166819,-0.4491862553026419,0.31409325124983833,-0.37546256688472834,0.06808785139409163,0.17394854339727536,-0.04621968681197531,0.25152067659284466,0.07316801864965312,-0.059527751951526,-0.17949341186131412,0.270539380127547,0.18977033387337644,-0.13001863876669983,-0.15959896270821802,-0.4367308221601976,0.0554203998919755,0.34222273096840955,-0.27236628738374735,0.34528198511019365,-0.06003546616177735,-0.14642706978790535,-0.29148552608141853,0.17738113312399323,0.0727991680140972,0.32049353829636196,0.42687740973678456,-0.4500916527335565,0.4756195003948305,-0.10847826933312366,0.06852310914915072,-0.20859171139010974,-0.27887478400591903,-0.43340784576920416,0.40188747978924155,-0.48215350944024504,0.15415608748640527,-0.3240511972622613,-0.13595921748869133,-0.4621186544936158,0.2809554500603962,0.25332616348996445,-0.0016841185477846664,0.2556702227553287,0.023695708991785604,0.36478732645962714,0.03162623773052676,-0.016856776819770405,0.3064801062462754,0.06521751427841563,0.11410872574775752,-0.37486706551835747,-0.19470798792081323,0.1956433698248129,-0.38332361445216534,-0.20736450751216148,-0.3097607316047264,0.21956202975359507,0.3140743720785653,0.36517222215293665,0.07258939743830808,0.30407840907331335,-0.31405840994247486,-0.08748965640296386,-0.12961949407928017,0.3829228487489762,0.23698048337190256,-0.08338145556328018,0.05090769560580318,0.06888599981390671,0.28253893683476156,0.4468142602942689,-0.34615988500297556,0.273433094451515,-0.33325807837797633,-0.08126402389338305,-0.40631223087846696,0.40117517634499755,0.11735806258722963,0.07967517803624051,0.06279396258142272,-0.3646972055780325,0.35933597078382756,0.35123593999729175,0.06070352891366371,0.043312287030347396,0.33778296309999234,0.03270941683784763,0.2750675906096673,0.3143434628151804,-0.26422963810085526,0.32004274710300407,-0.1565702944998552,0.2855982607514044,-0.20637129998105982,-0.3508530095537663,-0.4688267794415099,0.3094278760460019,-0.052122626404953645,-0.20982735397797708,-0.4006925577813217,-0.125877015886335,0.3685218498054261,0.16432437647623502,-0.3532885477399851,0.006068212074308097,0.45806919809551994,0.16900003055842705,0.44641954760300273,0.24858615486171162,-0.46143451923016693,0.35394068423838176,-0.48561861831233655,-0.14300909320544408,0.22420737176245095,0.42838292696878444,0.194597097411597,-0.22220839068620132,-0.3486570121130635,-0.14943887004209794,0.27417761839845406,0.45261955905789747,-0.015067699475356883,0.06564846446589395,-0.39846386386520294,-0.01924680766759025,0.19754852937999995,0.06594591957256575,0.48777818656334176,0.296143738312068,-0.1908070022460171,0.26997901275643255,0.48257772127678145,-0.4277102745590071,0.42313787267532244,0.191363424224124,0.0698790736147779,0.3679738742480939,0.08812326344167673,0.37230822616272785,0.07172098063243537,-0.4223064820002853,0.3041844796153134,-0.1625948730770742,0.26871948597355805,-0.26772177099541755,0.3607152299222441,-0.30545362815014493,0.24949726485607016,0.3967201106244209,0.09534838531265852,-0.40533159879906466,-0.3171060167675005,0.053757643026082776,-0.3639620586894893,-0.10426915598830037,0.48724641169278393,0.24766115547282422,0.2520154689801891,0.15631888179377296,0.029831068846629887,-0.47213135359248914,0.10999832937946284,0.4464428177431042,0.06922326177741991,-0.403013664403131,0.4016812673731425,0.08133704961493436,-0.4792976871224506,0.49950038139200337,-0.015335177968184874,0.235403342888748,0.0374984848198314,-0.055639315701709206,0.13787513206827087,-0.2588363942066226,0.3578959282073959,-0.1900978298456031,0.41027374642899495,-0.2663909945354756,-0.18545384873173126,0.39951664700224426,0.3137103932504629,0.15281349955905804,-0.010818872621777382,-0.44091564892528107,0.3659342201320592,0.3708664199434116,-0.27875021045987586,-0.13799466239867325,-0.09678291653899627,0.08015894985666533,-0.49965177293251456,-0.2763069540407156,-0.10003279925422659,-0.46730367122503635,0.053425288810389104,0.20543724823350265,-0.16459917808407865,-0.2014462822940184,0.04820845191221288,0.27624168715039643,0.03533289097782088,0.26879813143583575,-0.10948200502747374,-0.26774722366895276,-0.4967907469420472,0.17402132786875596,0.09210599581308794,0.43913176876549376,-0.18724005394571241,-0.04995712981804927,-0.3433534980615027,0.40471517769703663,-0.35711565713229415,0.17046305192866426,-0.061667804015005996,0.2579366887273687,0.39626511017236954,0.39036167604044,0.11134460305964117,0.050790463801272404,-0.19363764113246884,-0.19253139720746926,0.1938973675591832,-0.4371787940386843,0.0426058673028189,0.29957372554230455,-0.31755311624684635,0.16239602657262098,0.17843294470276574,-0.34959125175891403,0.33587128197118726,0.2199021682357276,0.4334240616847143,-0.016019943754942485,-0.2723756612625321,-0.2968205074442304,0.2714518063556891,0.022849540950024415,0.13558167187353634,0.3828279548557407,-0.07617701081666285,-0.32490018119259534,-0.363310079490868,0.2836207824354358,0.09510454546185218,-0.44739552928690834,0.332192978902282,0.4113637595149854,-0.24159199826997044,0.12882169838193702,0.31655503090361903,-0.2292569191294468,-0.2987317568302156,0.028980905607914106,0.4367060577147207,0.28352476065011634,0.4574228524610476,0.49692340465015444,0.21276336576553687,-0.3146504831206788,-0.24172054130843948,0.46473530919173484,0.02738671058801013,0.33830630898261554,-0.2062145949434268,0.1443500071198784,-0.4642432654096073,0.16943491803307398,0.418829097256066,-0.2823828953193261,-0.09798223672654868,0.4257232427036145,0.3962487325434881,0.1436712230167751,0.1224314749995243,-0.48640060923133666,-0.14481299799056932,0.3068747638382705,0.32382308813903493,-0.37832281070634866,0.16576508992431097,0.23534462432235329,0.0069499989188329435,0.32249252391253413,-0.4913401330786191,-0.43206739975116915,0.06452807027206746,-0.4659370773450868,0.4243530250788378,-0.09211228072437501,0.3551577638872481,0.46731313822710463,-0.4666958766417659,0.1250666352988491,-0.4682886750771968,-0.3179994541525174,-0.2618003268996597,-0.24957126271485644,-0.4685825634627093,0.3998427386148147,-0.35688323149956197,0.2822479610320175,0.3797225125932694,0.3074136425873234,0.48772157975846253,0.32086610592454207,0.16096323065093943,-0.10841949254898042,0.2382596050146137,-0.3159010210587758,0.024331833322506484,0.32330121094840125,0.4709965285129734,0.30957502705265516,0.4438464060995681,0.3242883483892244,-0.31456930662400145,0.3891950591115269,0.4850306995433817,-0.025427155818137474,0.40226860069754705,-0.200735591473405,-0.018483040740728412,0.33921212890470986,0.49258354611444066,0.3103753942716667,-0.2402052715457247,-0.38084714318142604,0.1392819298022101,0.23513488259759965,-0.04261207095959278,-0.11506928161937222,-0.410049810247173,-0.38376105057885884,-0.344163837851992,-0.2599610313425982,-0.14612561993692844,0.02769315233996109,-0.07476340924412171,0.20109072736072378,-0.19886918597677558,-0.11520911565642948,-0.24543736772208533,-0.2734421507452974,0.20525329252161334,-0.4155315415826347,0.2584207695892918,-0.21998145783546813,0.24353665135922994,-0.2299840392719303,0.474211329827226,-0.22513736785874502,0.14778858990410643,-0.28325015445416946,-0.170763030553297,0.16509238079808217,0.47777702760694496,0.4972270140975989,-0.4199960305344845,-0.11075255856650103,-0.2755668858824972,-0.4710896278775868,-0.11740855964720787,-0.40831948311429034,-0.022546775865004514,-0.3253876711447154,0.36676621059735487,-0.28530155659530626,-0.13283973975861102,0.253025518313481,-0.17531950007997577,0.45915951253387605,-0.2956013088539072,0.0134189307894471,0.14124080742111317,-0.13150116910756174,-0.14683855013071112,0.07104026178560556,-0.196147904403423,-0.15475552929934625,-0.15586158165416197,0.210525550152464,0.3956103913866401,0.22957033479860964,-0.07520047868929014,-0.24698580884055832,0.2459230451814499,0.05797070206764799,0.17611827628060006,0.47601346723837235,0.45131003162115957,0.31138831824495783,-0.14915719037843175,0.10669592574050164,0.06019646996804236,-0.10386087665329607,0.4330461354475032,-0.46119459000379504,0.1178880806190156,0.1708475552127133,0.15083033258520928,-0.15403889841121166,-0.3323027411857766,-0.4773866671931117,0.17456103170702744,0.05850636100876454,-0.007444918943062778,-0.06477527786323743,-0.13730165159921756,-0.47082235470339695,-0.49463524738143655,-0.47172398217520206,-0.22323282097417313,0.2851930102884031,-0.0832373471019298,0.4256638383504033,0.4020145793820959,0.3948842621364338,0.20704329194917792,-0.17003442747229858,-0.12713206548442327,0.4072300367039459,-0.3154592843752293,0.3002169396599887,-0.10332321951715837,0.3135199331292807,0.4331860260380884,-0.22401258442665498,0.07097681725288336,-0.4192725134511437,-0.11026491219425931,0.2977035727090881,-0.35482321604935735,-0.47410872025841794,0.45107646568069976,-0.12693343225402187,-0.46863078285202775,-0.26343063635154323,0.21299009551569814,0.26691117092310007,-0.2158066644888884,0.40620246746943894,-0.47137825966077623,0.055023513233931405,-0.09193895320492707,-0.34473526346178596,-0.2953998046421372,0.3134897106723816,-0.30489361614660093,-0.22519355163271393,-0.11521992681174496,0.4091729943833211,0.22769883913140726,0.22665063748954437,0.07084650399912677,-0.24634106832027788,0.07867573184872141,0.5003370234681772,-0.042696961742009126,0.29678503594175254,0.2208636657970806,-0.20894120941839525,0.1698828031462131,0.3396326334664711,0.48314651136355985,-0.255974640866534,0.1451508580546303,0.15705820611768728,-0.23530687459408245,-0.4907109755795409,-0.048856714519177426,-0.13723883511642074,0.27661350771172744,0.3130599903725616,0.3200802068766374,0.017716374685071923,0.42114803956489477,0.05870697887255625,-0.07408946170834603,0.20608853897471074,-0.3006197897727751,-0.41289932667735446,-0.056776901808747095,0.40054238296545136,-0.22349468720294446,-0.48574363846017654,-0.46671282092175337,-0.30666891013507674,-0.07570138446150455,-0.273740647417188,-0.12060882037652283,0.38157297353240327,-0.10211436958270151,0.2901778381603345,0.18714518336063252,0.05304652700790781,-0.3735715332258692,-0.43029235915702796,-0.42615889547695696,0.019196351243478627,0.38492874478384165,-0.37641089763978763,-0.33281009011473606,0.006501024822523904,0.34940750783083485,0.22383215211371427,0.022820746952013166,-0.1351894563584807,-0.19659556180847743,-0.38302562784282945,0.12358236000633104,-0.05819215657550643,-0.271542861733909,-0.31294585704862404,-0.19084091854360377,-0.4103375472299435,0.23442678255783517,-0.2913796941972366,0.42646754742381665,0.3401798041744569,0.4940182629226203,0.26033964935022175,0.333661652630323,0.2859443093388943,0.1436364060299564,0.38893875408536105,0.40865668703275787,0.18626101424164543,-0.1771682643419099,-0.4256237886839277,-0.13757167397482162,0.3682363694118337,-0.014673111695486463,-0.19410695960384294,0.4135865763558961,0.253435782707502,0.4058941581755644,-0.08620118694204852,-0.1737716217315474,0.16985925726879186,-0.17993839596981348,-0.3691534105349287,-0.4198517243299284,0.4422533672757897,-0.10377782925452558,0.17987986556292682,-0.032976456845756494,-0.1820814070716728,-0.06042582859801654,0.045042919514723084,-0.04208825856428486,0.11841693632106683,-0.11752017972873045,-0.4590182648085302,-0.1355839228958799,-0.3298069652166541,-0.4369947998040853,0.2655774992569899,0.03270685823533526,0.058831020518699484,-0.08199283545585867,0.24728820626502868,-0.49303422883541054,0.09139613175808575,-0.3589196502305521,0.12236646160695512,0.37534785928317005,-0.14510125076101943,0.13930840753513132,0.08713937780045279,0.06725956281476753,0.2916621433697252,0.2737301748496366,-0.1062500256875127,-0.3957053089808169,0.40961074736058956,-0.45255038168563805,-0.06060730467813175,0.42452711574863267,0.11607371826206139,-0.044137575771940545,0.03361102879425515,-0.45442845470048676,0.36604821194045,0.33028736328599284,0.2615002307516887,0.03229063732885973,-0.07333530247573328,-0.20700415448912524,0.35320092327725616,-0.0012490490225391948,0.10290049537582846,0.16859730873101936,0.01979507762612962,-0.0035190004475731717,0.3136174765528588,0.14058396657048924,-0.20028947372601205,-0.04812603498278646,-0.17590177688656375,0.14791939328884302,0.443650302525507,-0.4345650249646751,0.09888814475658567,0.012389013689809044,0.3196670134358431,-0.03163661509664523,0.16877509645303293,-0.0799976797371928,0.17620649038301484,-0.0990352875755931,0.3040640047468287,0.40275730787655617,-0.3759999946118674,0.3657239009547797,-0.11857213381567311,0.0661615442116763,-0.2614525459676247,0.4727226678395172,0.4231961803066451,-0.30359262312763713,0.005871058874004448,-0.2650780992566035,0.3002598503138806,0.18469488262747571,-0.1907844798540979,-0.46698161828399665,0.002807113366696362,0.2403652288248346,-0.4567633784181696,-0.28233920519915673,-0.2084832834627276,0.40804618091367795,0.40492598760158627,0.405799205825621,-0.4682149622748367,0.1330287838422054,-0.022962867025491218,-0.004817150135985382,-0.1670891938650534,0.26125768771558966,0.08464639958719633,-0.13049968602111492,0.2035026336406962,-0.17124004486194921,0.43017035155863825,0.4677700034327813,0.1797355517917325,-0.04518674917612642,0.3836935666443465,0.2718811723132477,-0.32898802575221353,0.10394834394648755,0.35705076254455115,-0.4145812415868151,0.07419233012653748,-0.3991103815021543,-0.2985534503935099,0.3331180648912542,-0.3469512264356538,0.3923835879891473,0.46215596479915133,0.43058795513182935,-0.4244283306530293,0.4633495048876054,-0.2910864406628001,-0.4456472356949638,-0.2894738335979127,-0.12566801385466053,0.3785564102601231,-0.29762341251612834,0.11499274987163266,0.18656007496940785,-0.16306647729410917,-0.44870981730770054,0.38067619847334744,-0.17446727103976079,-0.3877428799877908,0.1388724187453344,-0.11059649125797544,-0.11293148142736582,0.4939421623792557,-0.4152612185297232,-0.12320174073472123,-0.04925296349912235,-0.09306895818207242,0.019812137373510005,0.25999641168350773,0.2084121561662392,-0.34995504388503873,-0.48196064277945627,-0.12317404059477532,-0.3031960156437039,0.06282883564931119,-0.4943290200334307,-0.2850356902790071,0.4319896114357594,-0.19719053539943332,0.46464235449549507,0.14728464219333925,-0.45479866417181447,0.10841447751013555,-0.35661792084670485,-0.1371079853594508,0.2685031874573655,0.1369875841556374,0.30855278194095725,-0.15951880522088502,-0.06427624680633806,0.2863232243037176,0.10467223903856199,-0.07967156417449515,-0.04074069864571711,0.04038852635160997,0.37651566414461096,-0.35914500274773736,-0.4587247393494604,-0.40209726297997633,0.0791562376769472,0.34436108014513644,0.10899560725383525,0.240697579616508,-0.16380662090407058,-0.32406893295240136,0.12768452057442725,-0.49335487919756404,0.11417284120537485,-0.3437635765980299,-0.11613830805098524,0.4582228938037193,0.4112130371629613,-0.4674506305770131,0.3117540040801291,-0.0013296748117271225,-0.1171925965533706,-0.16527409673035595,0.07204961481213197,-0.389417329193868,-0.08311461684664735,-0.3497939164408902,0.020738970547122204,0.38057876270669927,0.11493001056390581,-0.41206116469771314,0.47881102537287623,-0.3390358631251424,-0.2436929035506123,-0.1674316751158522,0.09587287460483208,0.056710579076196824,0.13070844315076713,-0.30359151393367606,0.49252485008694624,-0.2771353265376578,0.10304444548983505,0.14868354238629777,-0.3745456842969459,-0.38768978043653846,-0.2167761333717918,0.007531571398598931,-0.007316353658154549,0.04578492858830042,-0.2138081050224336,0.02486567697610803,-0.05122965240898063,-0.12166347829333973,-0.2763362023020958,0.014059863841536305,0.24013024751770362,0.33035939063361003,-0.30460478262724305,0.29537252702295586,0.14171362210689942,-0.23850666718136584,-0.2203860119109874,0.19988328556363238,-0.24378133455194212,0.41911745425510166,-0.3678387565901079,-0.30732044587387686,0.4378651648926755,0.18227906316192852,0.16840379600581912,0.27703091759627574,0.4999115622492879,0.3326214355905721,0.4908765083697726,0.009418616380804958,-0.28069425545561355,0.36317763360758987,0.4124976404838882,0.09587244446538845,-0.44449686161777274,-0.22824889300302753,0.13104692321788086,0.4667519947914339,0.4525420136633105,0.04712960031391321,0.06792877285148906,-0.15744987604892569,-0.09406058646007578,0.2879329290383805,0.40365947214453834,0.16104025426369564,-0.009350061139592592,0.07108724528038589,-0.34259417919482016,-0.3905583783340382,0.4944081521848548,0.17662350040779454,-0.41627850122199034,-0.43479615256995807,0.16170651611169617,-0.13327330255169934,0.3349536758267574,0.10085026160052242,-0.32454602296529,-0.14107873970428184,0.06073125732835588,0.09560190107630097,-0.02864228511773997,0.12032285597310616,-0.5004072514859312,0.3008178680919457,-0.17646894409467123,0.389605390652295,-0.13886519423951377,-0.15788341526201136,0.22401856162606995,-0.3974190571368896,-0.4603024972040049,-0.006744237163785675,0.29263617228259287,-0.12022000922003988,-0.4133753578883479,0.026784994816262907,-0.48320463071323566,0.4548056693299362,0.3341083396956612,-0.4272232642847834,-0.32495839226922985,0.30784428019532734,0.49695263604912937,0.04229391798895094,-0.45962991816424625,-0.10567310140858792,-0.3489127146384635,-0.34835790407654305,0.08419109007735838,-0.24080760699186507,0.19874775470402029,0.3615296341454237,0.38180863665560744,-0.336655420342535,0.16177985170565204,0.4523199237831324,-0.06695555552541543,-0.18031730498539478,-0.02095647083020622,-0.21654982798382935,-0.2068548536509563,-0.2905606945506013,-0.1840214048573223,-0.14074820923365472,-0.2819680084178421,-0.15955624121217843,-0.10716706357131567,0.3947368623203157,0.4750898927417341,0.25247019046088404,0.13678689088879872,0.3708342151744376,-0.41085369633613417,0.4065899662801852,0.4679214561484995,-0.4537186994602816,-0.38329677199313655,0.47212002615423243,-0.021018726960688783,-0.2448972199347219,-0.3474935896698826,0.20687384488251803,0.33811381224391723,-0.17164880528543255,-0.14355788586219526,-0.038452492591705335,0.171275279368748,0.008744112789975183,0.0470219722568062,0.29582585586076987,0.18135462751593923,0.45844977014782523,-0.40828346855768716,