0.12774039098107093,-0.23324204249220948,0.019699959849498794,0.2839553477930242,-0.40044950016264236,-0.17908225173583803,-0.0771315146034971,-0.17847647942456168,0.3136562232424408,0.4866458382513692,0.4618626248001271,0.14682631255260514,0.20913954853984784,0.4288577038856026,-0.2032574155835939,-0.09248032305228504,0.42116956844495745,-0.09594124550803362,-0.42808265173490245,-0.036193302776239444,-0.19612820794135655,-0.09068250058694294,0.22586319600740112,-0.466376977341896,-0.30086247480810746,-0.15953356090499138,0.31859553399271556,-0.47917091267796674,-0.03253791173802878,-0.38090384105451425,0.3178732521080616,0.2434805747044081,-0.14658554102690613,-0.1967301464738177,-0.09097729876702321,-0.39024300745615703,0.4022102497371123,-0.1988628510522662,-0.13815057665001573,0.3560974408166726,-0.0024437075039542844,0.05653639561676471,0.462540094995621,0.13961670505088475,-0.46754471175850587,0.08578367756139638,0.17665917439334788,0.3914419934155301,0.3737221583983047,-0.056287880728421724,0.06568636564781327,0.4579123726937613,-0.05623079316007329,-0.14319170906522882,0.17023086562130685,0.20111029649412415,-0.2708083909031993,0.041952955696395344,-0.2531912784770376,0.2505570984700779,0.4757981034350304,0.40273507671581643,-0.3455559412073097,-0.14349962292741758,0.03576853458147189,-0.32877654401217804,-0.39715015256110797,0.08100435162681163,0.30075895258224616,0.1792165399849429,0.318541281844844,0.41721394113158994,-0.4594952289725873,0.13585752143171637,-0.223853370671538,-0.47600557500673335,-0.22237514305549566,0.09180814700609063,0.3667540759871464,-0.23095522694719972,0.01140764459700283,-0.2966664519709502,0.40797020892927527,-0.4928113886249684,-0.12788427119439016,0.21272261590887964,0.32657332114258053,0.22660575391137316,-0.26542413628764716,0.06242225705299642,0.2900189824223631,-0.4839174222205683,0.3255983619275731,0.22034419692260865,0.4944322089563724,0.28243407221789174,-0.35449109809874824,0.3542728471294383,0.1514782337461662,0.03529154254273925,0.020840820313192343,0.40231540045221226,0.21541486116774178,-0.23793220796489112,0.19670498845231776,-0.4196378695395998,0.39444509198062383,-0.22099942123273786,-0.23302183997786285,-0.4242814515973087,-0.0483205830453155,0.20102058676252954,0.03980373562257333,0.12370929010498344,-0.4480837132031086,0.16437000376871913,-0.3340179565957915,-0.008903298051005537,0.40056727880762477,0.4249354371956132,-0.03886445365067481,0.059645161973737704,0.01572540427309188,-0.38497794454111034,-0.12789596456566432,0.22418062919047832,0.14549586283903837,-0.3619844613712161,-0.44804257214042353,-0.36645497117183046,-0.03961498668062313,-0.37121905594529947,-0.10058848433319911,0.27880595321516755,0.13923818453458492,-0.045346403201478425,-0.42337315212021986,-0.18693122704853582,-0.2790260952035082,0.4597324695947519,-0.395111678130063,-0.31698990502184576,-0.43760265906705864,0.3150158366295893,-0.09927978394072567,-0.405745832759588,-0.3668508661281257,-0.25846562356506175,0.3122919007047882,-0.028990951889753425,-0.20616410123382312,0.13218918283982617,-0.19879092651500319,-0.24326109184073375,-0.33777956318775526,0.21539740907701388,-0.10131418066763687,0.3471253524471659,-0.33756081140617467,0.4212248551379265,0.4279802333103332,-0.051034015209382555,-0.22848764477176942,0.10308958096882104,-0.4927642841641028,-0.16988901869653095,0.15206983777526484,0.43875773480255276,-0.18392869541672174,-0.43786863947046795,-0.3614033507968123,0.08481939613639666,0.16880635158708202,-0.255398479861648,0.38761972937018485,-0.4296402592744387,-0.12119504768021205,0.3451331056293272,-0.1839815619569345,0.3730885212718571,0.1477809218223739,-0.3861777367273971,0.11606808618948827,-0.10761693212671164,0.08415531174557866,-0.13053983995801843,0.3729333560040027,-0.19555089762694966,-0.44371254874067745,-0.4110505726013953,-0.19486647450554062,-0.13871770623145885,0.1550521691480632,-0.24347748813344783,0.34798391507244164,0.11310555811460887,0.44166642985764226,0.042419146955307685,0.2189609450483866,-0.10572883470367278,-0.36742932437004483,0.02331050558418779,-0.056053660587070064,0.23060673321525793,0.3442602854220065,0.04194655708151407,0.4155966808388114,-0.10338285093423083,-0.4206653563167161,-0.28884784274349506,-0.24987596511300292,-0.4128425808952585,0.3498563616484046,0.2949385690059201,0.43848563320365375,0.13709810314047033,0.43416230650539556,0.11258343525427517,0.1648468061419438,0.24141838653701464,-0.00431491260346728,-0.31521344734525025,0.2751824452950503,0.23001628921884976,0.4325328753580755,0.4790904594332339,0.0154638699126175,0.4422263311765048,0.36678293569367704,-0.2248924903040831,0.4602279641958159,-0.00047908313610722786,-0.11137696227425375,-0.23742242324677487,-0.4654415096023896,0.19054463846867442,-0.24043327740257014,0.3305998959740295,0.13969446909851513,-0.1887991390413445,-0.16180988044170308,0.19092195858824546,0.44748364864553736,0.4536165587888922,-0.05201212852441339,0.16605123545038958,0.3599562600928983,-0.13830349182652402,0.4757271062260202,0.3148291450913664,0.3419925533421201,0.398101693005276,0.0685276952785352,0.05972260610775304,-0.4603442539676499,0.22325809403722396,-0.4085853038605939,0.20797953028167226,-0.2553093716528083,-0.16385108167676776,-0.4168647041854969,0.26842028361465453,0.045463377547477646,-0.37772879624567046,0.3931983237656139,-0.12138812582186675,0.2219327546407569,0.3687121815264017,-0.36212838283944326,0.26980081185716165,-0.4720964571944948,-0.28576218955231436,0.20317018369155593,-0.006701029716924545,0.46101607768921704,0.48427613487742527,0.4034109514009777,0.32676507732932325,0.3515958093564271,-0.44711031186274297,-0.47958726141503194,-0.49584666890283025,0.4756702556955721,-0.3456980604129303,-0.24215964090778141,0.024395838829095795,0.41473708776627893,0.02241790014928724,-0.090079419164103,-0.4563138400455464,0.15622196393944976,0.2937599015970941,0.19319756261033771,0.3065668088108884,-0.3803480915819202,0.46382722346332494,0.3596557419777381,-0.09702989983770116,-0.03619316375139392,-0.21211945301429824,1.2571302726360756e-05,0.44025805927591743,-0.15306804937053375,-0.20369671695462344,-0.45540324161714074,0.29400305197865095,0.48770823911919914,0.20614440080149432,-0.4104550401518342,0.1944074278170962,0.06927798613637792,-0.025659066756956617,0.2774803563568329,0.36670329952585845,-0.16975474183287664,-0.07673382630943171,-0.44655174003073894,0.23823080125905138,-0.08140360021137438,0.12766987870161162,0.35425454059241646,0.22497617091732847,-0.23755518340607773,-0.4853686511110178,-0.19050095519703336,0.4101137990729161,0.1872244521308435,-0.006578980388705191,-0.21175446545033427,0.11823890684535465,-0.04835327859761218,-0.032198754237615757,0.1741862287446031,-0.38259382771599015,0.4015078859160812,-0.4304437414799085,-0.4444838251556913,0.2172554909034492,0.05518799449097822,-0.06380683704847223,-0.39239870273489474,0.47057646833950395,0.3244737534000107,0.35088957020936395,-0.25674360469351754,-0.38975997164745235,0.38447114478190914,0.14036794007838316,0.43802530916577276,0.2696784325342051,0.19546938362316013,0.03225042710674764,0.2747582572043663,0.10540829519744288,-0.13463509757197933,-0.08797378341506057,0.3981209509774081,-0.46604247307988456,0.19222142966670674,0.16830790041423627,-0.27080888440498063,-0.4087771677864257,0.11131008973518697,0.222721463436526,0.35441058750344134,-0.08693755250285129,-0.4626065162658686,0.07253714880237028,-0.12785938369205463,-0.2618390044109049,-0.10306305284988604,-0.49867561845568786,0.27920657999821974,-0.3133483445309764,-0.13748270924423944,0.027703015460178615,0.2252938472356324,0.0744008328837773,0.2015220171157398,0.1763945027168029,0.4496207508119775,0.13447597192863248,0.016391624155872808,0.22009479000140775,-0.18733790671815298,0.10926768130275222,-0.18259723781795467,0.3233235921997424,0.4372343080885701,-0.08366794108250752,-0.4861831761046074,0.0006490928009251773,-0.0628601469069775,-0.011584729473095634,-0.07267438055435438,0.49235680621098465,0.0706593421480084,0.37526357132188426,0.18638399706460163,0.41597246462338844,0.34987921050600446,0.39130919226426664,0.13046401856701784,0.3974109640165445,-0.18964183077196495,-0.38232319274594895,0.32149712830034405,-0.001178300087332218,-0.15192431816440144,-0.2087566505578926,-0.49963107917144023,0.3744204830172344,-0.40705930953403635,0.4965357892373755,0.2502014872113678,0.4362514589308759,0.06369620944400134,-0.42828276739613613,-0.2302653779026791,-0.10335896776538211,-0.48744347556033674,-0.10349577091625362,0.09146845398082115,0.39803272089329855,-0.1564022866058482,0.11646108678559519,0.42437975646592274,0.3648389858086688,0.3250324863471885,-0.3390868660829741,-0.4263807793737574,0.4884125148985221,-0.17786135968554584,-0.1437798729538472,0.4900638073480422,-0.4662273901608901,-0.4939384277655645,-0.357862710941962,-0.13274819606892696,-0.3627563626289707,0.21482654848201277,0.4397871159215776,-0.4068181793998472,0.11383017557124775,-0.14450642973610328,0.1003848708761026,0.444251703791287,0.0952338799864656,-0.30000124975697284,-0.09469201775213543,0.029407572399809068,-0.36142918021356596,0.24723786910776346,-0.1270060571411632,-0.22165000133156387,0.4714878657524354,0.4807645192840494,-0.4397463482083951,-0.3907992224754331,-0.03805174767980657,0.29870675655581214,-0.339939580054194,0.4512369054036648,-0.13805836653903636,-0.0865344392662476,0.2862112792821977,-0.401306666412248,-0.31048827767109455,0.47860821112423513,-0.218637616001366,0.3843548936613427,0.1431294197194357,0.29988503544224454,0.05791039986317281,-0.2916212484978541,-0.42854029004153915,-0.27749985171208047,0.25516192397717263,0.13605913897048216,-0.223850953456884,-0.3497131725399597,0.23633699294296984,0.17871509900108196,-0.09195846377760453,-0.03625267780369901,-0.4784313188679207,0.2977607928510444,0.35293739657531775,0.038213980782061396,0.207256474030735,0.23911157194961719,-0.22387709841504821,0.24534347301969905,0.3610359895801737,0.27433040743422343,0.1320607801639737,-0.13065878591021407,0.4568381661066452,-0.00852602847581807,0.07144678037157892,0.07195882418104171,-0.18361467361390116,-0.1547803324044429,0.26457098268465806,-0.27080382589162477,0.08771626132231314,-0.43366624713581203,0.36299215662873063,-0.4017086982071931,-0.05240186159903293,0.1946733254004982,-0.10917633247507086,-0.42648566903860685,0.30785313794047264,0.4329343217072533,-0.3816020080072565,-0.054966088689286874,0.23811124528180483,0.3010964152706187,0.2062102609469778,0.2498585824437245,0.07874275237390294,0.15157938664257076,0.11823775739011178,-0.0751509139769928,-0.1655594237930209,0.23200665315544733,-0.2400615218182267,0.4935441920296497,0.23341609018755016,0.2431165375252634,0.11852927998528329,-0.286991831418448,-0.10617739730594433,-0.44937219264878125,0.16404640358242983,-0.04597156913343681,0.4711656451331001,0.4143283275712263,0.1354487745459374,-0.09487425917335213,-0.3935339823745092,-0.08475619530926426,0.3727413925095282,-0.08787661230377164,0.17057440824970493,-0.45420086716922714,-0.3402326359677652,-0.19387200299158047,-0.05438730418120652,0.14330203135477648,0.34835410397890165,0.41498805533415717,0.44492246399516266,-0.1404999005761215,0.3143287581663323,-0.11700406981080325,0.3996976306435128,0.19755638892733984,-0.2171357553073775,0.361138205054916,-0.3856849010618477,-0.3381617868557064,-0.27051460405634065,0.3193432746340156,-0.30321676401106123,0.45115366059869033,-0.39858362656481405,-0.01969158097662238,-0.4186889816991912,0.2985752290807351,-0.49560271867300565,0.23305164332403772,0.02640469457852579,0.009523965869156492,-0.0656458100516838,-0.4810963296478199,-0.4760545318714626,0.28364364935384134,-0.4700949079541986,0.3927006353610014,0.4913055043107939,0.09475324024312637,-0.11251551328214404,0.46256490985597076,-0.4472068804406406,-0.06676148699827023,-0.288109550928217,-0.013711027916036733,-0.1905451632225147,0.09543098944203277,-0.4201348462776562,0.3756536065186722,0.33542075656632564,0.44740133643793356,-0.4209561411811531,0.02859469282369198,0.17404386661595528,-0.28866786205130757,-0.4436945771595431,-0.239697121093005,-0.12422986150653148,-0.27153867833525436,-0.20971781419651514,0.09578153897379182,0.00028979757167790776,0.4572030189794377,0.28311406904502623,0.0691757210003795,-0.08711725480110433,-0.46321346532703533,-0.11244058046548677,-0.309629118969706,-0.3998706889287015,-0.38172117610985024,0.42705421676514266,-0.18173026742668474,0.45809426293498223,0.4753439087620249,-0.47269743514357876,-0.40030368758814316,0.06648676777240026,-0.3553314396080909,0.27697459797880775,0.18835459006200905,-0.4968690163767858,-0.3110223655834954,0.1850461571710197,0.4502208212131569,0.4972268766361896,0.15735074394976978,0.4730209966740604,0.21100399398456016,-0.057736041521797565,-0.4046545103947926,-0.12078996459965441,-0.033670432907014214,-0.10753652192512608,-0.34171455539947904,-0.11533646402183273,-0.47905190335498427,0.2172959908744696,0.44594783017435347,0.054630794339871724,-0.4344018335597849,0.05426785394827838,-0.4477844841322006,-0.34798331409028127,0.3301934864895919,-0.33953024807123844,-0.23033347182817676,0.30415472453868475,0.2095437892988391,-0.1671171443456163,0.08510030614714148,0.421395412073886,-0.40501244630389344,0.1900441425449485,0.12175075052018047,-0.21453166004481494,0.40766233246668615,-0.4223520431939598,0.4175440418269398,-0.3432467225682627,0.10594776522591931,0.4049238052731444,0.36632402441434986,-0.026683236023969492,-0.12207439967953082,-0.46057578058221804,0.16452799615511193,-0.20742524439833532,0.1977388404968804,0.3581287978928298,0.19300852276514424,0.06513620027071365,0.25258750377587724,0.19664461398021837,0.42072544701475123,0.38540571930839707,-0.12097842445436546,0.43717781855868576,-0.057560324755535075,-0.43368258574181207,-0.424180615911962,-0.35647364253747094,0.03306160035860772,-0.31000320975886153,-0.01315703768148857,0.3219722892481993,0.42534177877851154,0.46913833370163227,0.11023945786274059,-0.43560404719231594,0.32947629910725973,0.39244289955225853,0.21454279955778865,0.06858388156889783,0.24753129444977262,0.3502776283663316,-0.22588912766956404,0.35367248221878456,-0.4173869230218874,-0.31263396025893,0.24927780662416177,-0.09656391378403906,-0.06675067809601387,-0.17339170386922842,-0.38867525750220655,-0.2162944682291078,-0.22374317697029333,0.3094262820423771,-0.32672661823856175,0.2943037050680777,0.4395091660025966,-0.35661563285692377,-0.30433724690408115,-0.1812742010782603,0.4881473685684049,-0.061882596932030465,-0.1288823443732533,0.25395692912220735,-0.41790184717289836,-0.4860518776184567,0.4604918282102546,-0.3324367728141132,-0.021617250255825504,-0.15368531245234573,-0.4215912116649192,0.49003154437888197,0.36784859525630365,-0.14831202996411108,-0.050789355004674075,0.1028765837619613,0.0625231800109245,0.2639971283282382,-0.42437236388847654,0.3668866975955759,-0.06972016649017665,0.23721090776410203,0.4110344125842853,-0.16364585217337269,0.1305857883468965,-0.17406839505377514,0.09942578160466209,0.47894737959753686,0.06885374953587264,-0.35497144090254873,0.19326453834775037,-0.36919693283901867,0.15856772325125112,0.12770567017959356,0.0816917856158238,-0.4198671132740732,0.49140689282142525,0.11387654398689484,-0.3324679399244229,0.24631385458304844,-0.385218724707702,-0.4076558180858596,0.4318688669834142,0.15886621119566768,-0.3701732365671907,-0.08425354958634068,-0.40182094114887723,0.29930720400548383,0.483302936040125,-0.36513234583476495,-0.42049786842443915,0.44061408196112795,-0.14665144070391134,0.3057106378028245,0.16577324288898598,0.13387285212218103,0.3965833649292566,0.03605064379290712,0.12625062357510364,-0.3082227466708395,0.369917465134843,0.07748352970362815,-0.28693632888083476,-0.24797768130093623,0.3626911666746653,-0.05394247474036018,-0.22948552466657313,-0.3452208949027049,-0.4200551267334758,-0.21199873119902746,-0.40217070013146294,-0.17624321745241078,0.40603081753320114,-0.41977551223537335,0.06314828830953301,0.2711184440740323,0.2470316994367402,0.22420376862428681,0.23567070094843123,-0.26337334520543043,-0.14760295575661286,0.0817850345869896,-0.22350490439890558,-0.22419928338377693,-0.413037798794466,0.3432812465713272,0.11513044415099494,0.037028237545918996,0.1679904360404274,-0.015355601384179463,0.4042932027770346,0.2758531822611905,0.2674035784225147,0.3669701855775451,0.05921072483768974,-0.032418446245298105,0.2541957823336549,-0.27923749883270943,-0.19893818072966085,-0.36184162381513163,-0.4697982329205209,-0.43715045131753716,0.2669875325555693,-0.4702691593322257,-0.48763101535000253,0.15597043486120188,-0.26440501929466154,0.24019499644391773,0.2284717977520756,0.4988687847814284,-0.2747933479109206,0.26978494938002984,0.4817839730089143,-0.12458334564684703,-0.37797442040048523,0.17459115211133758,-0.10881447435787195,-0.2856731272432125,0.09898507294601855,-0.28696060591811745,0.30806743503360634,-0.1072520891472033,-0.3870118413547644,-0.2687475608136449,-0.35206237015453545,0.050575805893013026,0.29985001680305945,0.4594868242063981,-0.1839276570034567,0.02650125792652469,-0.11059527581823292,-0.3956108267945575,0.02231819434286597,0.4722833499362884,0.1460929772184676,-0.14581492443592348,0.10418026631965949,0.19528339537261985,0.047890384114510964,0.2955208710528947,0.2931226823315647,-0.3651645593918966,-0.030048925708829888,0.007406272384585133,0.32010608344242963,0.4355293554181887,0.22204692574662466,0.08171937391426753,0.4018777728869194,-0.06858794349734332,0.45551873125082165,-0.33858847368490974,-0.024133520493880622,0.4612301421024495,-0.41173175841877063,-0.341932850031213,-0.3613400096013857,-0.38392305829538165,-0.3699273357910351,-0.04139733108968813,0.30421542529036505,-0.16776757600347203,-0.4105741780232023,-0.21034497921344153,-0.2417254394887135,-0.3017419987906068,-0.19636055012799958,-0.3019959806393485,-0.14526011055932175,-0.19080223805957686,0.28633391750960024,0.17952751174997317,-0.01457507804227065,-0.14781287629249085,-0.0670986736264022,0.05135041572466237,0.1794926579338656,-0.05107459119072055,0.37739169993321975,0.45436904294687996,-0.13680589132793275,-0.3621622855782669,0.3457979384006622,0.09471670014208178,-0.19100610307382482,0.18107051959380727,0.12830907634555944,-0.30584423284685824,-0.2895910003043163,-0.3515553144234639,0.3697448707708262,-0.147267694507757,-0.05720172731471007,-0.34922710754034725,-0.1837622720981651,0.23108945486153976,0.30312337247607435,-0.4315226661236824,-0.08215392400070753,-0.1817946279896352,0.1769430639080678,0.23559912963386298,0.2042497557356583,0.42852500917250835,-0.4146464993566733,0.31455125868469946,-0.27864899281311584,0.3874438644652728,0.2974311880603142,0.14758630480278223,0.3339419815041228,0.2536701125900296,0.19279305052884477,0.2922929236872792,-0.4506319282392368,-0.35844069652999977,-0.10867193557043131,-0.34516254337304486,0.17351331639230017,-0.26413405827334757,0.19481774115834138,0.18195987646784573,0.4057356502974643,0.22191599328694034,0.14034400540415337,-0.17500724452067773,0.1648136518701987,0.26829669240431897,0.20579788016448508,-0.326144666481913,0.3663110099022784,-0.3978910488044728,-0.18547194034696834,0.10102115526089495,-0.05912685371974047,-0.17157975517529966,-0.27552186544996793,0.11810511855055283,0.4344825497456981,0.18158852460947383,-0.1152433016762815,0.47578221377911445,0.26509215426754673,-0.4629242350137581,0.27757405509787547,-0.49024683319941476,-0.05156240683645297,-0.35352128799135163,-0.35882510484372465,0.09585739919353375,-0.2424285811166662,-0.3449078173720903,0.002931689798571613,-0.4422864205751885,-0.12620878755601028,-0.19084377138180286,0.14757625745974945,-0.05669631615035953,0.08629463739919785,-0.423611322900426,0.33953463853076715,-0.28912025836722843,-0.2148587136366451,0.1785473690217838,-0.3689131420135239,-0.3335548367279759,0.27818901018997466,-0.27083687983377114,-0.026206551094729136,-0.2513176177588664,0.11311926328189947,0.034334061731513654,-0.3062483677294573,-0.4267786300357783,0.3410712652260014,0.026161392956849494,-0.4066692522977017,0.4844038551275559,0.04301890816446308,0.34744317132728464,-0.4303926267064987,-0.383718971235233,-0.33663356178330484,0.38412578460961544,0.2275671521044369,-0.4513123374362613,-0.40436063736113403,-0.31197222049140605,-0.18010979989558173,0.3844529339648237,0.3184106264135723,-0.32730867030594024,-0.4406920345889175,0.3147119085569664,-0.2540708356290168,-0.06632124715953991,-0.3689115588107713,0.10829033931830312,-0.46270975850404017,-0.2270353193583291,-0.28615498538341233,-0.2677624509079197,0.3600051290074855,0.27722713477628746,0.011336792177733201,-0.15307344482600094,0.20195174793259252,0.3352857970772982,0.015600276611084318,0.174188634885035,0.05149546447865683,-0.0025442512429980635,0.21973026160138553,-0.12907287178504667,-0.01779238683892559,0.47284209185772186,0.36115267774972226,0.4525051409840899,-0.3371572991420859,-0.16614240019841375,0.23975811702956618,0.17745175762979548,0.28372737200899145,0.3547131643388588,-0.24413412193746808,-0.43310018136087824,-0.055556413609170074,0.19705480022577704,-0.08942797519073331,-0.02661194151295132,0.23451399232143022,0.421626521523881,0.33761150419423014,0.48989182059849967,0.47658972898327845,0.35629295092187585,-0.25719398943438954,-0.3624107624681273,0.1511519434255002,0.18365886041159518,-0.3361926856150175,0.4300979428538697,-0.4013413406952949,0.4739154783969023,0.28700709050676687,-0.30281051877075393,0.35948052359448757,-0.26825328473520793,-0.15942985629099948,-0.29946620751109276,0.19701150790652722,-0.27838152056025445,0.19897084860494596,0.04480642347326036,-0.18318080400112258,-0.05347807349830702,0.1483207108835396,0.02952609022104513,0.21240536408056054,0.4441110952531424,-0.4636094303618251,0.29271091348396483,0.05623006229888983,-0.4607186462997189,0.25261704792460815,-0.476078893425133,0.19011910469707993,0.2314423102511366,0.13335354180979886,-0.2240860894899097,-0.1073526071056119,0.10498930714799248,-0.3206166738739684,0.2931635488212021,-0.17870014685782598,-0.29547856404393147,-0.07705964316327274,-0.16652529026463558,-0.36606462647403915,-0.005364770774844874,0.49860235215318915,0.27749462059947894,0.26869961843815227,-0.4381786926554474,-0.03271299727034649,0.09355220495668892,0.22023713341151507,0.3227850487731452,0.03226656420944063,-0.42287408261068404,-0.10852521331417664,-0.2029789394774011,0.08061452301532956,0.32620087981763213,0.03261794017005437,-0.48744979145251444,0.22775334517513612,-0.46798038682268406,-0.49396480079914373,0.1865967922033056,-0.24261461302543774,-0.3907774527020772,-0.321427176573598,0.43478703853761325,0.4633976359667952,0.2392884845343154,0.3502496824904774,-0.08469683703901121,-0.20954185845259898,-0.014862549044010631,-0.16386366609744873,-0.28354658058063686,0.4670361605617823,-0.30085184077610905,-0.08555164349243694,-0.21950409632979173,-0.23296495121863603,-0.10604843727675062,0.10599699598020218,0.17133559832468181,0.2634914751788029,-0.1476738524033977,-0.40700574901115183,0.10741809004007252,-0.43025977858532083,0.3841314781486098,0.37019399512756945,-0.05752219552173654,-0.14269272272093358,0.020474165544611567,0.3244510782078862,-0.15914472857003614,0.1092717173826867,-0.11069086190346389,0.26406487249981925,-0.2681974947411244,0.18402531166428826,0.25640155711342305,-0.18395947407648683,0.06537334397767336,0.4462712824333406,-0.21242249482159647,0.3123671346447815,-0.4253871146003836,0.1730839885132146,0.27121374172752577,0.31580473380983776,0.12057161117698056,-0.08321184190182074,-0.08942673491662534,0.11223623024366525,-0.38822252881184416,-0.3036415446959476,0.16391680857586655,-0.10961099876129243,-0.3425826586599583,0.044137593304257705,0.15246394954989617,0.22931170693609715,-0.2701968409884392,-0.40485705041550735,-0.19486490909123788,0.39161737139907415,-0.41962562040220375,-0.34507811451515025,0.18345413599256843,-0.06988512830480542,-0.07732930358934742,0.3887166482953862,0.4815602725082966,-0.42196241466140394,-0.04999859550360608,-0.3791706834339491,-0.14734481205470884,-0.17931993446022731,0.14709393984289298,-0.22412942549777692,-0.45565825557369566,0.07566291534539071,-0.24943496736423443,0.25411641177366007,-0.07727064079022172,-0.2877153967096454,0.1524196707154848,0.05334533699277344,0.47976169246571787,0.4530144679628918,0.31368272094960925,-0.08030814704794331,0.2732086267106383,0.4024005541489979,-0.1852831015662506,-0.39775500018007703,0.3257546369649482,0.22916856952981235,0.41216978254496395,0.42260420060382253,-0.3280951936357933,-0.17894814094350975,0.1619017669072642,-0.4918152914115712,0.22902750657983528,-0.04194280277894824,0.029656937303317643,-0.054766537616599664,0.3797997858590285,0.31488219943205853,-0.44095578520189627,-0.20211487773380798,-0.008863323679599078,0.07512546834172273,0.45509846811623733,0.3399341782344607,0.12105343383624168,0.49659013421860987,-0.3276376897498896,0.04018489535553749,-0.49435179693437226,-0.19007146519284568,0.13554435128403575,-0.22601631600383265,0.004925649833184442,-0.006955481761389493,-0.28058476319855774,0.19989615953082007,0.11204324343081795,-0.46390818855059557,-0.36360224459027024,0.07670818179462902,0.18760012880185273,0.32858312857228045,-0.23205582783192868,-0.2944881218491304,0.09453041904888926,-0.051025527887562094,-0.4552489645184249,0.044163260108934455,0.004975006563652351,-0.15068808468105765,0.37879748482721454,0.3876424704136865,0.3107268093616088,-0.2816502950657217,0.4112892506939434,0.22166428550414474,-0.04187431523015783,-0.09988645404811591,0.03509337908297916,0.20163974260201567,0.40133328227300125,-0.07300035266236271,0.12814581768820366,0.01688405349317057,-0.007046709975333854,0.29717668701330147,-0.1428136985792724,0.029656242446400305,-0.4390967746389379,-0.10272634782190515,0.27120956844551714,0.2541106720758256,0.3953913652612663,-0.1802019932465111,-0.408289097397307,-0.3371695182774581,-0.2115342537965813,0.13894561875414968,-0.30933263577596115,0.21373135847138525,-0.11053205389689302,0.05043511409660961,-0.15291663853256876,-0.04148074648232358,0.4066010846967403,-0.4373792776413161,-0.01881576171373167,0.32371229927722955,0.05730163260222487,0.3267711130345745,-0.41668815400553505,-0.3303046954036507,-0.1676120737483746,0.2128281135374902,0.17613837930193021,-0.14981331462878422,-0.075066277913583,0.1979658812806454,-0.45444862700321964,-0.4642694225243045,0.2528634459477712,0.19635229638227458,-0.3781110390081923,0.0030207488697996387,-0.4913538464694688,0.08957627219837694,0.3508248690162501,0.44181414625206517,0.06100872888682107,-0.15516775705703167,-0.2641191795292134,-0.027023917730980118,0.4131482473701279,0.34687823910252225,-0.46746747452683535,-0.30429242262385214,-0.3917228524414562,-0.46420039720440043,-0.2437239736114959,0.4012512982830404,0.2548122277529339,0.42499990499874685,-0.40268173267005936,0.3285428204949329,0.47966779080537747,-0.17216336666665322,0.2587453156620392,0.45115394366040784,-0.4260892775915568,-0.3158446276057175,-0.4495560308915548,-0.19959739258989073,-0.37884146960754506,0.0977863720414589,-0.16351446591424124,-0.45451528325368395,0.4300998723598145,-0.021860102669292503,-0.3199984272820785,-0.17220530078992835,0.01902369805863624,-0.04083567659891163,-0.4052428660105697,0.22772360267137537,-0.18022178800383604,-0.20352191242687534,-0.19303695419686728,-0.42950971433745666,-0.015116897728613465,-0.14330387003380662,0.29473928401018723,-0.1899405403325466,0.0988957872614612,-0.4518240702244677,-0.20654911716711433,-0.315468279114691,-0.34400000495506167,-0.2278393535196419,-0.35197317399934946,0.11799970481028721,0.33811179093003474,0.27468208403791605,-0.24718903880783716,-0.13156161242101683,0.35539847214465636,-0.09973624289587923,-0.005313602540142903,-0.3440987236905291,-0.48476079057397714,0.06904653912699277,0.022762577407486884,0.48041351660574083,-0.353967544493911,0.13082301431330645,-0.1682411540153962,0.09752942150241606,-0.24074952565216556,-0.029385181397024063,-0.36908789098362516,0.20778029700079437,-0.2214939141874649,0.12207609336147285,-0.02154186416149151,0.4908087501093793,0.18934691815684723,0.4051709296223598,0.05849255176173318,-0.27314234798241566,-0.42872043430430895,0.4088021747940819,-0.23507690311397744,-0.30155296171259605,0.3253535917198238,-0.3883619359012621,0.34205834192746054,-0.23755307859939734,-0.41748256261444505,-0.48873465660681104,-0.36794998822906155,-0.3512925993812479,0.05552313607992965,-0.2366011487246268,0.010392697014535601,-0.12148057656976241,0.36553917715124196,0.3017308911558175,-0.37972294492175296,-0.19997665125529296,0.32808133016466323,-0.201541546051499,0.32869497842843476,-0.44584489697514607,0.4100970164589156,-0.4912843514008326,0.2699424397101976,-0.15576519941508116,-0.4767716663968963,0.3112998041659628,0.03896125893470692,0.48336510563913226,-0.18369898779599825,0.4120333606213883,0.09094268159767649,0.2722909539120921,0.08907953447659678,-0.3179908305303979,0.0330006783179857,0.1606786627841903,0.4479200099768904,0.3346005164228685,0.1428245729698071,-0.009636986969973282,0.18481130698513237,0.20804418007185543,-0.39537449202414643,0.2729283635735342,0.2270793592261251,0.2057749985018884,-0.3344416074399502,-0.1038812718446036,0.08241963852098,0.2744370307849162,0.43499956047044874,0.2909302726003976,0.094166963168,0.27540392946562275,-0.1795389749795161,-0.11398778613236282,0.30337820120803327,-0.29757478042942787,-0.18137482867543098,-0.20590733582772547,0.33197156992416443,-0.49428840542133223,-0.07416447870173637,0.19007228627645756,-0.11421843763363326,-0.1548505627803871,0.22314796364886802,-0.3044811813897371,0.19142834149378862,0.21841452287068241,-0.009872402053286766,0.2653921221399126,0.49918291711289475,-0.35138739212460846,0.44355191106782965,0.23310294379306518,-0.04423661416785829,0.2767252561439315,0.15927823048777157,-0.30281060355222755,0.21681090564551664,0.05551521859109365,0.09920679292962076,0.3171978580716732,0.339848590567011,-0.05633637097048083,0.1025554192595689,0.4526938640998994,-0.1965560191357506,-0.048896607740192555,0.49854201175910906,0.08678552741624801,0.4485518778103741,0.16224105577958026,-0.2475302187432411,0.13630083978858187,-0.09825248371467055,0.21168887374304157,0.008461939895475834,-0.00850393224837509,-0.1532493379666594,-0.0648898476340054,0.2688113975983836,0.1275546338682756,-0.43610983035211215,0.22398946260154762,0.11752553415255407,0.46214369890517326,0.46227250157694755,-0.25052489172112924,-0.43981429834255314,-0.4576712999809397,0.0032042111969174947,-0.39003512368922666,0.21199382825205837,0.2753212053002486,0.3174919216670996,0.020707420864372494,0.12975643039646512,0.486467857194521,0.31385739917009436,0.2957219976442388,-0.05775475200374536,-0.4271258943002938,0.3877122932913396,-0.009545260234008146,0.42717477120344205,-0.34284558185380887,0.27305255189814936,-0.34774679257701413,-0.43911648979098583,-0.4368788158365263,-0.39414738918887715,-0.3377648333177512,0.0055736151648341226,-0.29723999333098916,-0.12085415113188158,0.4544565972932235,-0.45806405163540953,-0.08722532420627149,0.03293666792960159,0.08880271024707564,-0.014727617112362146,0.33294064309692273,0.3485633288387836,0.38391043590921337,0.2607829604770493,0.21383680957080364,0.37857999297916145,0.3481643654809713,-0.3702901993106388,0.3062462318824247,-0.316873427182612,0.01748691631919508,-0.38890960790125695,0.1724624439918967,-0.11151209361289183,0.4610470355948256,-0.08644788947429605,-0.31458714432131507,-0.11875055986645566,-0.36015118745937647,-0.376052182266856,-0.15184549833029504,0.3652179885579122,-0.1731507630943927,0.25833022779195225,-0.4292893157817912,-0.26374570862134017,-0.10817140478467002,-0.46291037665559764,-0.08091197010843565,-0.3885146702913128,0.424679654167211,0.03206280990530508,0.0701796324052879,0.339679420832142,-0.06976626612252912,-0.22790654123008602,-0.3992168756456058,-0.4630168042419418,-0.3768561180772261,0.4103945522000866,0.24120013958324737,0.22111533810749906,0.32492666937818326,0.35211530560143733,0.05204736856254999,-0.0793727083232929,-0.1041606054409393,-0.06296278578037406,-0.33155027852455243,0.002658729159417339,0.19851251652696167,0.2525172234572385,-0.4827329779316264,0.20311700101955177,-0.034288420592693436,-0.13963528862510755,-0.4142324013785559,0.3910081685751562,0.03428994297184118,-0.13137431150185874,-0.197255074963552,-0.31051262705090144,0.41919824457413,-0.3522152451916696,-0.4342285196280825,0.380856895998102,-0.42188362659627165,-0.4361895901526467,0.4329712325987566,0.4580881766732712,0.22395754430637071,0.04871564048222665,0.2705457879139066,0.38808253445966123,0.4580565170963501,0.2843561838762114,0.08350955386620407,0.03961372338131686,-0.1963734987448974,0.054520275333849955,-0.05533806162621924,-0.11132545012918416,0.4665023787512258,0.09488249590636721,-0.2919805813692561,-0.1471991594623393,-0.22552660744116626,-0.2400945176036391,-0.27256060510807956,0.3824676102084117,-0.24272004600951325,0.3821360743155854,-0.267161367508447,-0.026221457111845203,-0.4297428603590022,0.3038948522980416,-0.29585771734453314,0.2893915413219368,0.3377660736812975,-0.3582768029797846,-0.41188897392635393,-0.28623779142150296,-0.251705479483606,-0.31644198744015406,-0.13982028775723743,0.05542052168847145,0.48301899321423125,-0.1264902280704263,0.2376102437524279,-0.25442818369475795,0.4647064653748777,-0.09931205363356554,-0.16022362764430276,-0.06534841835744387,0.0391812969939882,0.36153742960755464,0.23540062754575009,-0.009147810996640304,-0.38291959169254086,0.3244438355232728,-0.14487773776156432,0.26424019490198225,-0.08674133485295332,0.4510325453611691,0.48834400071297823,0.4407494595779241,0.34562429165908837,-0.49685144293559347,0.07770495109691833,-0.46706347513890645,-0.10686673209779562,0.23132421261155156,-0.4148760115570076,0.40646645997245723,-0.19057811773370947,0.13029587662268882,-0.004193558148991361,0.3492343216727666,-0.25534169068215096,0.14856369425973814,0.15579336458258553,-0.32939876076802865,0.045844932463986465,-0.33334798409107713,0.342480609031817,-0.2133372869834842,0.27939761515511674,-0.38088907178784204,0.2714413474460172,-0.2768334886962218,-0.37093524160574054,0.1772894374966384,-0.11842979417905908,-0.3524643047638438,0.34270001639952885,0.30317645171617935,0.29359700908485664,-0.4520343474588715,0.34687829425634076,-0.23457492335772578,-0.3278736224657528,-0.3023790195594117,0.2688708027170623,-0.18373677811549893,-0.0016405606096812075,-0.341722468730697,-0.1843521158754896,0.0031199597672699753,0.3680460903878736,-0.47460378271149184,-0.156054106683983,0.09933672909813018,-0.13647907451013996,-0.38752133780328313,-0.11263077554604428,0.40205309738690265,0.4723921957254644,-0.38544927482698943,-0.07106741566708741,-0.0213406218060479,-0.4167398702972873,-0.288298821670265,0.4690512696708816,-0.02091394609828623,0.22171799091173472,0.06514806301020326,-0.05380412106939558,-0.060016783250870676,-0.2438258946670504,0.15639092964151635,0.408650973753534,-0.02400621761980981,0.15516702095018087,-0.11032544589029203,-0.40035925093525204,-0.1899182865580169,0.028612713036910598,-0.248126510469045,0.10813174444866314,-0.0440125546755048,-0.1319950124566892,0.2050475604853984,0.18399744832512754,-0.30302355039961837,0.194441489756064,-0.334015792597641,-0.12445117603951572,0.3118294469513784,0.3654351193217855,0.032437396962680554,-0.2985272770496278,0.006176659448349442,-0.10943793609301355,0.045192103028437014,-0.314617318899446,0.17215458386545934,-0.42307075949400164,-0.3236219341693355,-0.28574579318729243,-0.4148276059818492,-0.4939161921938199,0.02733278712893905,0.2545979399048479,-0.25622890531359366,0.35197972019334633,-0.07064154578736215,-0.4553668109430685,-0.3285759755108445,0.43095810617703134,0.11327582894819932,-0.18455780453516024,0.4273050096294392,-0.2014602232877214,0.09255569435746702,0.3917352379319836,-0.14425112343892033,0.12213102089486594,0.3251242940011507,0.24199818369539106,-0.4464319801881378,-0.3173775769331191,0.20423400089041677,0.0876162632861256,-0.4665835345246121,-0.05969136282611287,0.4875701437123334,-0.03156027314397225,0.022697378224081466,-0.1050176190026837,-0.2830801079283778,-0.1894830594796839,-0.060364442465032364,-0.45985036386280653,-0.3373717099418827,-0.09118883979694414,0.3571175332169316,-0.443497408237698,-0.34531526245480193,0.4927191531558406,0.017442671762666007,-0.3158180021545971,-0.25493153388936196,-0.36460964219164715,-0.06260908827970924,-0.03488830475031812,0.3981850261976443,0.22507897385777775,0.26118363575396875,-0.35845392271192067,-0.3049919524154032,-0.12913872392883718,0.4910064073959345,0.32611440849905615,0.17734176096794863,-0.12646750435744558,-0.06467281099542699,0.35293360857301115,0.054875703092711836,-0.03201868939542629,0.4871501299543527,-0.44775434174685813,-0.39273672214491684,0.35285748912777326,0.09155585170416292,-0.3785318638634463,0.4596800416206409,0.13054686568056917,-0.21488051333628144,0.3090489981226715,-0.16817421703366353,-0.3242015171785594,-0.45535157076241317,-0.15264849420850402,-0.36554588761355333,-0.2444981967185389,-0.42699586456231564,-0.25471065913436763,0.34796698699052764,-0.23255531360445303,0.25932688081011834,0.4763345396005614,-0.1114604891082217,-0.271410397222423,0.39297487993516367,-0.08203848679076786,0.0981424896469818,-0.27550333117308856,-0.06533706674661022,0.37629032063895484,-0.13918633247220025,0.45463769156007305,-0.024074769060882795,0.2382783147316082,0.3425352997960964,0.42196216305770184,-0.24411009415211815,0.39271503070433256,-0.46895950603487835,0.26904515237446514,-0.44938288807668536,-0.03287687243346271,0.31887774067672825,0.35526178861752855,0.3913810449950794,0.14462166210040805,-0.2131551064385685,-0.10419382697640411,0.09194633313160372,0.44972787915087886,0.4860959038450835,0.35051623130194565,0.1501618367518197,0.37988463566586694,0.39227783175550535,0.07589858671819882,-0.4233180316915137,-0.2298535366342418,-0.20212489660668942,0.3744085940792129,-0.3785935708389827,-0.46571462220438853,0.45275337864474186,-0.36262439257246093,-0.46537496141428625,-0.43061369114119574,0.06883482773029037,0.0614265532761884,0.48181607068175714,-0.1656113739504782,0.1909486840904634,-0.2764643534662258,0.4037008877811056,-0.08993886876745139,-0.40446834773235807,0.15452343890620268,-0.14997507060383508,0.3255264016934355,0.15629890138825753,0.24505584973932948,-0.21912170705911593,0.25846474418365784,-0.14120848727932578,-0.3053213132384035,-0.14082104660162797,-0.49374191792730515,-0.28995112045433247,0.12919119956027125,-0.19132361563805078,-0.08269739943953713,-0.4286908161885732,0.4535264141807168,-0.29116400818660426,0.2894059958740417,0.026404563068525566,0.35555390840170353,-0.21927775559684137,-0.29465277917190225,0.04629279313227164,-0.3202578741219311,0.25632046471407377,0.2643066128113263,0.42577867045020756,-0.15646200537546573,-0.12410463982042341,0.4071402159535389,0.09759896947294489,0.19702952565344378,0.2749854586405043,-0.20058955855357408,0.39466094858950274,-0.3623629582226252,0.20625610784637582,0.0735191871782418,-0.19338108205096738,-0.05076406167457692,-0.3984336649041337,-0.2249288618766,-0.09982062808651981,-0.3179018033454223,0.092390543213278,-0.31468611002600977,0.2785311351320643,0.47885843492722524,-0.3310639318242804,-0.05894565047221123,0.4268322458013416,-0.015081100278471649,-0.23046087649017788,0.22386452832748616,-0.06832902213614656,0.4283473469466612,0.23607265510321662,-0.29297492635700817,-0.32359458550494424,-0.04381289283299816,-0.4807530909455482,0.21773536217977318,-0.4604404943899806,-0.4241063977196172,-0.09076478193831328,0.33320702305844063,-0.4946338730979326,0.038272988245756756,0.4781356867077685,0.14514451217113755,0.4968613745352588,0.3947380674999619,0.49878233928403926,-0.2622005281220985,-0.41183578298528734,0.060363103683024555,0.47906776960149844,-0.19437608425616038,-0.006430424450010075,0.27358645230758616,-0.42735372941753014,-0.2937890569436582,-0.3866891122054369,-0.2767914343098997,0.07754206922814966,-0.11951799401778507,-0.06363445333949402,-0.15952911612613885,0.0452729699344373,0.4099126281674109,0.3978913002723744,0.18372322913046268,-0.0664726794915772,0.29803131534351945,-0.018302409737393832,-0.09972608227932223,0.3123273946163969,-0.10844449651737642,-0.46396045233313277,0.3574173870085061,-0.05039736662120986,-0.3538758416542934,0.4453339001000215,-0.25708722888044766,-0.07813154468743966,0.11373458862091146,-0.18786430554415778,0.3729241201411635,-0.09127924766707274,0.06006290146729998,0.17936479290212914,0.34962569475398275,0.029846126690387997,-0.36274229130002744,-0.4683312445879245,-0.016149493767542267,-0.35532809614471983,0.24429163223141526,0.24614062060199504,-0.019068618455508002,-0.39035632508426843,-0.06038868536071418,-0.26882751669403715,-0.42896412847187526,0.3744554669779192,-0.17539871996183576,0.41508465820642326,0.2186029329030852,-0.16724739693817914,-0.048502063060077205,-0.01606139197764722,-0.16294254524814988,0.07295373053767518,-0.07833273377302652,-0.4705318330169742,-0.10295866987098223,0.011419207004815801,0.27897789990440625,0.09548640962126476,0.2577653591151008,0.34363848356138516,0.11609925533765264,0.22056326246177582,0.04335119025211598,-0.11623659437860978,0.1615188839757652,0.3188932991643929,0.1874210954175688,-0.13549279352596777,0.4223902243443436,-0.43239096821901646,0.18744435534571147,0.46031553352535504,0.18100323896075476,0.22131896892416092,0.1636069754010675,0.363187455332902,-0.2825301534473035,0.16617735809951495,0.2018814223127272,-0.336778104633908,0.44682474799476324,-0.21266603980011778,-0.42668358912012894,0.2764687054882501,-0.3841097546303305,0.43219210482012205,-0.09689937272401683,-0.18989203538466204,0.25614854635219075,0.373490016389177,-0.4976564154917906,0.3270239541325759,-0.05916433479086136,-0.10792653628652826,-0.08302045169463257,-0.14711344808860594,-0.07340024666318623,-0.02206210948721299,0.13262201191989653,0.3961512266570989,-0.07138720786385144,-0.33929770812941284,-0.18756210077620405,-0.3935764751415862,-0.36839176434387033,-0.0581539025288752,-0.28127460228100476,-0.06766939104886527,-0.08607953468057128,0.4960717895085449,0.2456635634769323,-0.2158735588793299,-0.334945280642567,0.040709237588654856,-0.451313758430519,0.023041942166176277,0.29622048330617246,-0.42900697965433543,0.334304747174756,0.07017896164726711,-0.26106197314147195,0.12646800853989393,0.2720154344212682,-0.35276213942198664,-0.3527177688608104,0.2745555547003532,0.08213772407516717,-0.4163972720709349,0.4539322343357419,0.051999292288371746,0.3480430572033544,-0.3660190414517135,0.2564825346392452,-0.2746783940579929,0.29115811836502603,0.48630998874411024,-0.2789683213305262,-0.08230332225441483,0.4595403838667733,-0.058023795814023615,0.4260008841601758,0.4088037137884124,0.024789427024032973,-0.32907601707701906,0.04430829364876088,0.3605614120667968,0.023059591637968002,-0.03854314890770183,-0.28481540130029237,-0.26066154925977714,-0.4395606531361016,-0.02921941792941729,0.32274986983354215,0.4415799356018383,-0.25154511537740953,0.2823611825396978,-0.015138097328327493,0.401208380787752,-0.08751390685771088,0.0966487482488757,0.22588260954381756,-0.37535539221648584,-0.048291095098432324,0.32895676555093134,0.2599506354846379,-0.18424275709026394,0.08905337187206064,-0.170497682097571,-0.002697593460657899,0.12757011970227572,-0.1849397709344045,-0.216638111357924,-0.36406634015450867,0.06740135351728427,-0.45642513989468225,-0.2332067417675021,0.2961763598997744,0.46644337054756857,-0.32771897141363326,0.1707511485344375,-0.1931891052712701,0.1082425885148075,0.28856100655491046,0.45763191024897343,-0.33950216423400725,-0.46297424466967463,0.1451200254254299,-0.3981186429635304,-0.33689579778825995,0.2204588750122698,-0.4745993391174602,-0.04692925748682708,0.296962138020362,-0.01972022612906954,0.3526405509752132,-0.3627108482311695,-0.48766695810314686,-0.0024234661320572393,-0.0016437247374619934,0.36862774319580105,-0.13982664850865212,-0.31352889736773215,0.3835244056634757,-0.07863486189051538,0.07039174614653099,0.18178355014743974,0.4852658820201937,-0.49717548587260074,-0.09673311764074344,0.35532324942533977,0.35644861713817544,0.35292493323837015,-0.0064778713628738105,-0.184050905239718,-0.3319647571655635,0.39725096797021275,0.46251034700262095,-0.0711207115163367,-0.4280312532838625,0.06440787996831754,0.1646011605725216,0.03059462644320632,0.4500090621292423,0.018288527786527453,-0.3423654466014281,0.05855275842035079,0.2229678079812374,-0.43018029612770936,-0.010007722798468288,0.3014313178801523,-0.11923728147341295,-0.1849441987936954,-0.1282244531936011,-0.06066315528554178,-0.10948402916585775,0.17645979730235684,-0.41760879204975676,-0.3084083903141073,0.49735547264277813,0.4088356163279383,0.15412519837910132,0.1969458608711796,-0.344215905456413,0.2797415685601131,-0.43606747097767307,0.013686242261148895,0.2477386902355836,0.28837779103675076,0.48546061234070703,0.1156709765770737,0.3763311899419409,0.22013733963829873,-0.15864284071491497,0.27347560969316764,-0.2757326363553324,0.2963562435281528,-0.15672783106449972,0.34502141483391136,0.11549847152071624,-0.12235995956193202,-0.01695290912982772,-0.3127982339351296,-0.3151585786666501,0.059269009452130095,-0.03662676387512864,-0.019064699470559776,-0.05839041838238479,-0.014147047695001969,-0.16388249932010102,-0.39240169435955696,-0.2072145279071994,0.4832388883703401,0.11279491357801619,0.17827464362007284,0.3829333613964,0.17135566942345082,-0.4890605465011927,0.28255616009543105,0.04060305003929665,-0.4933017094066894,0.2838733574001818,0.4444350250975926,0.25057002847477206,0.07603686007348431,0.4595396626567212,-0.2832385114905178,0.14421498660619336,-0.17321310683668334,-0.21123693631445162,-0.27383814939431184,0.35491307744467193,0.3103928612789951,0.054140307311270064,0.4152310420744596,0.12605227322975132,0.07427001052551874,0.09620820022261789,0.2762606083334036,0.2761064585608163,-0.41590948603674727,-0.22503028115553958,0.13570586965349474,0.3859700047629424,0.4452471037870306,-0.35532409825932876,-0.14425241508844633,0.3763946054767894,0.13587700829422933,0.3033607949697523,0.3421507657173636,-0.4267860612387029,0.39506171777616006,-0.16880840985919476,-0.10904763980257137,-0.44904431288743674,-0.35987374927410776,-0.06355931768856027,0.39606383592793937,0.42276773199864603,-0.041715139479684415,-0.1494951042958088,0.3950506343541266,-0.029552227583562796,0.19430592523474888,0.2627876067435655,-0.2632623051932418,0.49679758286266806,-0.08885542708175642,0.15946990703634734,-0.42902055014164686,0.08480253792143955,-0.49041890956415535,-0.022779442097555225,-0.24435030114554745,0.1528216132911484,-0.13283267294262624,0.48493625443635524,-0.34451007789132015,-0.0028586021625545133,0.06692150627703375,-0.11895525369119442,0.09090167790018155,0.4472799934695749,-0.45531888100904794,-0.19975220587862885,0.12013450962710537,0.24287861780762077,-0.05886053521837242,-0.17101539071579674,0.3259002840150158,0.4938602683282377,-0.1633452339696957,-0.4622679017785142,0.06890370766722964,0.1775911331242671,-0.16508803840606423,0.11101920338390658,0.05200819909535681,-0.4212704235821956,-0.4000302440662852,-0.007756840111326491,0.0029548864082995507,0.44607450046019703,-0.42210036786912863,-0.30079733801479025,-0.3526274373127617,0.17101966007356895,-0.42286857179798265,-0.020218137343716136,0.4334661207362004,-0.3383796810379709,0.23406194113243517,-0.2862431600247154,-0.06572109759023592,0.3589712058947122,-0.3808251255404912,0.42235128029227365,-0.3698546359963083,0.49683070912997174,-0.48475130639597575,0.4126409000136606,-0.20186273204061966,-0.34526320918724185,-0.1737598828059992,-0.20337256242946355,-0.003488705566541239,0.19322999841495225,0.44093340955742133,-0.341997854831094,-0.4437198269802961,0.48956369594761817,0.08088967330420505,-0.1475620856879306,-0.11050517484910138,0.01147746609010225,0.04201280180792377,0.2917981773953895,-0.34824014050547636,0.007247533726584265,-0.34875108074303773,-0.23221609467229276,0.030434866730784327,-0.3294867976499296,0.2464727287238423,-0.14497859438556826,-0.0863863945773864,-0.2952634233076096,-0.10695867941393078,0.11418970846112075,-0.2076709242828748,-0.02326443304632375,0.413399382014517,-0.26491779281247596,-0.04286653426923581,0.27614605233746403,0.07910319035498203,-0.06375514161997142,-0.23673900827891958,-0.0015484777285653673,0.38599008588797823,0.08938312337083254,0.15290875157207084,0.2613573696583751,0.1998642744685658,-0.0739868711120516,0.30373490700372086,0.04430951259129379,0.4555316793492522,0.44916192352965423,-0.1476958142597561,-0.025078363870950082,-0.4470354262805717,0.1151587416719203,-0.45747773183735496,0.2443765052948117,0.3184763515982425,0.4697900147613463,0.13660754820547383,0.3309515029060853,0.091320802111852,-0.4219688147629648,-0.020256896657081414,0.20779670462132382,-0.4512387494620318,-0.3906769972296582,-0.1104435177707882,0.4777736599066936,-0.23629597575967187,0.23233652274838823,-0.36519462201392394,0.45540054120718854,-0.43173960287391533,-0.2433778493671468,-0.10027066071662638,-0.09585771397968823,0.44757917261763747,0.3878673100652672,0.3870644996648429,0.055861461986274286,0.18126486042581091,0.3384904872418324,-0.02195467516321814,0.305104023830282,0.35216242659820773,0.4110832713053083,-0.18658114924237368,-0.17905169119227404,0.014492707680685557,0.2859290825749563,-0.48619290350115874,-0.4141831803351923,-0.42832054501699546,0.24813978203244258,0.4706836261917122,-0.2559559500131885,0.13865843761967644,-0.3519652958766355,0.44102695155752436,0.0006778583117540427,-0.2854019642715623,0.47381976812042914,0.3620383921965523,-0.4381424367079234,0.38812290355819834,-0.2420404475671295,0.14866714739343478,-0.35869846325762866,0.4410720062541317,-0.12943336786187487,0.3482525917203082,-0.061376063696338856,-0.11558370502784177,0.4134385854909082,0.44428769023413217,-0.1673427527619924,-0.0484751502016455,0.23150951462726754,-0.23608199516323158,-0.3925707624031768,0.127011647297548,0.4971801663614448,-0.48829660097065164,-0.43550000472155226,0.013122361279762407,-0.3820038987764157,0.4932359225612212,-0.09323172054653306,-0.47361977236655806,-0.05300312074852265,0.13492727300708918,0.09084731579283956,-0.20702432009185012,0.4451628256024007,-0.18823849700396988,-0.10480606392078484,0.22993911996673866,-0.4444031363522658,-0.07576783737545745,-0.032766670005489384,-0.4569759996772321,-0.21646589019185947,0.08907910860294854,0.2028511985098631,-0.22915039148632477,0.33247718646948876,0.2924301002770954,0.4449735769979388,-0.009341852111902416,-0.18008359400173923,-0.093856006973695,0.32996643742690945,-0.156591326027675,0.10337799536433823,0.28977734434437175,-0.25043935999098166,-0.36914091810924143,0.032190561294490716,-0.09328652207937149,0.4102004662444714,0.01642439933181128,-0.09304390483945513,-0.4138283255031655,-0.2713619121232682,0.02105434829610886,-0.4337689420821813,-0.3143872979299618,-0.2165634753502942,-0.13342224424112348,0.4042998419084711,0.1910116572742181,0.34575681639053824,-0.3743567979115042,-0.27763759265054766,0.32295783724675786,0.36593971177667417,-0.488786124105525,-0.1895415363274514,0.032570870393972995,-0.15543034252091026,-0.021857410806076283,0.08151840940571708,-0.0183142281410269,0.46833956954382217,-0.44016841533708273,0.1519272400072016,-0.2793498988563503,0.16729077013401328,0.2817076313740936,-0.3698188807370355,0.06132463355418327,0.47421555789321845,0.3546901633540981,-0.06336575363284458,-0.2864251188122854,0.317411741442299,-0.10172870067150475,0.11148056899328096,0.00945875873580837,0.4040819633973508,0.1889447319124714,-0.4921509505960445,0.3870557048891464,-0.24575690032035247,0.49876140061582164,-0.245268175404329,0.4284175335039493,-0.4940466662445736,0.47585274526972465,-0.2682992456664782,0.3455008040940477,0.2469646728855781,-0.21909239780569056,-0.022196447024045662,0.10525938737083229,-0.2634453492786215,0.478127905706887,0.11692088518608179,0.20492196271538954,-0.05858125697795069,0.24390491318199115,-0.13775538464970394,-0.11023656787019098,-0.33490516801889947,-0.05628307719355319,0.003779828728204704,-0.4832335897150013,-0.3227360473070615,0.2704937110402241,0.35191238536248226,0.22428763437205146,-0.04562408154720132,-0.12437018718525517,0.032267585309125546,-0.20472708079883906,-0.1802991963336481,-0.25341697713189415,-0.05537000039828255,-0.3310581958886498,-0.009283120231374675,0.29858771810549056,-0.4148274174911528,-0.0663313840014419,0.12111560363235463,-0.17547402758781638,0.19127476021985634,-0.16792164802984444,0.38217442325174833,0.09543402566578563,-0.28565846977061116,0.10358326039501498,-0.40305891153069073,-0.03399789089214866,0.12203461935012028,0.011095507399818572,0.2239344007709,-0.3771200768920595,-0.040131514776450494,-0.28902412102040576,-0.21242133995716195,-0.036889550442170016,0.31757948846378514,-0.060756594320582225,0.3604894149283292,0.33998538919185584,-0.36527829616178276,0.25871705405241197,0.0009776309111333426,0.05807778079995829,-0.1595540842833273,0.2549350595618597,0.46280601911197716,-0.27289221894579174,-0.03051241002855376,-0.17114434726278005,0.00534881606194515,0.07579920202009427,0.11666445642515466,-0.10312465762183198,0.44727206229706884,-0.1036099797153921,0.3622210423007328,0.08793570432971187,-0.4085400540576014,-0.30321074976889617,-0.2864378683864026,-0.34580489411624216,-0.1348161103784794,0.044097001648283896,-0.48591178122278034,0.07626176639664717,0.15902524658024075,0.4041087840457228,0.2678120262388878,0.47176438058652503,0.2544093920294689,0.39452257336964713,0.03745527996523401,-0.47449984893453667,0.15686657379716096,-0.2519279648223004,0.2693852220054037,0.28418499662871577,-0.12078759278640894,0.0725018171241294,0.11180157152490144,0.27964275399349536,0.25294628689066223,-0.030076100847824305,0.09174577145264307,0.05184497311521963,-0.46185473142119327,0.17699633023280825,-0.38847636806631736,0.27141236576068284,0.4945465165021735,0.07009008406056172,0.40318943887004033,0.3937897279940067,-0.23305577169663738,0.21345197648103365,0.18567050317972988,0.12671920811561044,-0.21409574703748147,0.03717613360731242,-0.2484214107377879,-0.1811153514314453,-0.48969507594294914,-0.4670548658264171,-0.18445359751213963,0.27526441790477085,0.2476820676866902,-0.2687109607572996,0.21455798170798368,0.41439972730751296,-0.28256156753076456,0.36193733541789075,0.22939206092664488,0.343139806096197,-0.12751557935351332,-0.33525753274307835,0.48809816431152386,-0.09214851876880636,-0.3796172436976024,0.4853141214916431,-0.07195126731693224,-0.3777295214825237,-0.38724334096454816,-0.23902391965380565,-0.2760429102187778,0.30620172196727125,0.06241041602739683,0.25222300899854533,-0.3179708548525798,-0.4803160917624121,-0.2731870899608799,-0.04268056547671906,-0.3025458398690657,0.2769759618968606,0.005306598604307933,-0.25473986815791605,-0.22227248017150103,-0.29175523483150023,0.2617891091366019,0.47270571435835995,-0.4061245894702231,-0.19270067687115755,-0.18860462343413964,-0.14337174971170008,-0.44108569976305223,-0.30174482168231864,0.25968099635175346,-0.3804857272267709,0.04195073693561169,0.02754611233460269,-0.4333209059071865,0.30358969845211026,-0.22635440340607116,-0.036769494295621485,0.1286652540444615,-0.4682324154972375,0.29429410087316676,0.1165962642553382,-0.4720087872189197,0.07851632562404698,-0.1340557519558907,-0.4273077769612206,0.11357133468611869,0.14298381904943258,0.23190844852923498,0.0847190780343765,-0.19411981103918607,0.13640048504426305,-0.42122127205664106,0.209729221309351,-0.4313340273765688,-0.22552217404271224,0.4379346569280239,-0.2785289669137053,0.261817697861932,0.29819703622734894,-0.2857054869781086,-0.23381140168332526,-0.3082920541096009,0.2916884920016938,0.4911835832059248,0.27179489090545617,0.13176051342200545,-0.25181451199960436,-0.1268062925287341,-0.418827883472369,0.1340325964060819,0.3097372466856184,0.19263733593542964,0.13333733020325844,0.4527008926499012,0.03837383369208969,0.17269729342052398,-0.30768007264687525,0.15015823712641163,-0.0954536840639485,-0.2276170014242117,-0.1365437295308164,0.4015379298515004,-0.20931596772512762,-0.3809142360963621,0.4157132555724051,0.32786150138141756,0.2630623184546914,0.06871634695185258,-0.46107210496895623,0.3788892228783436,-0.0703957867200492,0.0036567198199747297,0.11212907235474834,-0.3328160780320675,-0.08312051694849798,-0.4742585058839095,0.1648810859068407,0.2320124360116711,-0.1751658079185895,-0.3496940748696651,0.2705221451730816,0.43313248390171866,0.4056300799638728,-0.22508521982486396,-0.07273575891569128,-0.39729121783401644,0.4130322480494193,0.13411623038307885,-0.3098162918033359,0.03233484307988643,0.1286307487021776,0.3269003742463529,-0.209946558468889,0.21420859255936575,0.14047493851536885,0.3067764714769229,0.16841910541918637,0.41705550186486506,0.36065223794886814,0.4903862025538319,0.17980926375600248,-0.3884382067318557,-0.23964629721085673,-0.25407370895782866,0.3076294116732974,0.08349627414560312,0.4519276265726755,0.4565067044428194,0.28047472701297704,0.39009040775431614,-0.4169078574559347,0.2759033222111539,-0.38493108105340557,-0.04988939310469065,0.11739527813585238,0.4745584741587777,0.3310351024744016,0.15644554892226348,-0.037407249404893816,0.1755858709097562,0.47909764783549,-0.00526359271969612,-0.030479287941059252,0.4548600974054058,-0.19361384597535714,-0.3819712879464373,-0.07527189349691565,0.3211904132338519,0.18295234870652477,-0.35539030184032927,0.4744753022597449,-0.23153495846507588,-0.18517769076231472,-0.221355990482473,0.3955933150745431,0.1369543640832932,-0.37666322532456964,-0.3003319661985058,-0.03838413184305789,0.22888312032981306,0.46529020567804824,0.4462746922732941,0.11921327474768639,0.44446103348555577,-0.22777978227797657,-0.4077363854816425,0.03383161760801601,-0.0145854902042859,-0.3708271555390269,-0.27724564727955225,-0.28406204143593383,0.3388039560201169,-0.22645791091424505,0.0412715683074425,0.23393877778984096,0.2388684906353009,-0.29503708365040726,0.4988024811969817,0.2637745071095916,0.42929033410405104,-0.33999822832865534,-0.1937120730262576,-0.42555264656947955,-0.1391297117049186,-0.2866538961640501,0.31732350741576343,-0.384459021057309,0.4013782422874106,-0.23707451288827952,0.0025519033478837994,0.07373572390228056,-0.14751153279440554,0.39519822273629557,-0.284895028104749,0.0262905365973074,0.30994870252685514,-0.014212929113110007,-0.12938563879303544,-0.16086836508735736,-0.3871206442836743,0.31745397407908005,0.07125505976053637,0.39967273517409574,-0.08492413800726262,0.026083331583563796,-0.054400039314509874,0.12651882255469382,0.23449136560203132,0.2773429672435108,0.4696517517701533,0.08113099990649819,-0.3572656826597326,0.26321604905952356,0.15960096976551208,0.19388180758356066,-0.41306528897682326,0.14583693292480926,0.2301198281069986,-0.19429233013853198,0.27811817236900904,-0.4481446130431137,-0.10433419980719383,0.29128299373449895,0.02990731177315331,0.4446429241238309,-0.30710435325822605,0.34334294789061626,0.23186319295976476,0.3899242681140894,-0.1902340165651092,0.17840396074244802,-0.3722923953395336,-0.31099437014756215,-0.29240882632653586,0.4402186801106912,-0.45491652495828183,-0.3391372346847399,0.30927418368241566,-0.21082137938718293,-0.1793928161302787,0.2832891779239647,-0.4278208387161395,-0.1454110451049866,-0.3887824709624773,0.26628858168647185,0.29737291184487,-0.2502938539088526,-0.017100425970925537,-0.23060389969325024,-0.21547046363106226,-0.36189420138973705,-0.4422113938126433,-0.1642078644768814,0.29114184202410953,-0.44353119895032267,-0.08695396427873092,-0.33551968288978984,0.350443074907001,-0.43156290271624353,0.4285447697229685,0.12169569128020186,-0.1594681628416298,0.30102109709968716,0.03324200045037906,0.40498047458174335,0.21317018902267026,-0.10472019281085798,-0.13610976995992885,0.29603571696594844,0.08963945094743475,-0.40550329133250196,0.4649917968729088,0.1154020871257283,0.4900857942151571,0.24966281427595194,0.19094258475422576,-0.19722945054846364,0.12813093377436036,0.4206122394918642,-0.2721748649203961,0.06953727199373361,0.3761027249999688,-0.46301326162363676,-0.3073900102589463,-0.10942192077815882,-0.032557990775045176,0.07404053117195664,0.18704273570164553,0.32297217340726225,-0.3694398703411077,0.32595994775611115,0.3797434602351689,0.3867395860650997,0.14791796774488897,-0.17346482777539873,0.07954000118399718,-0.16306506024103795,0.25781141652567763,-0.20296732965109066,-0.37627109113218726,0.412431578449579,0.29746381241692155,-0.115543084887066,-0.14097205522169254,0.174784477419768,-0.24200497844240043,0.13110960902626456,0.02354376671570113,0.3909012399944587,-0.13048897693428718,-0.20852505539176736,-0.29552004040738356,0.3663474348291089,0.24804678375466804,0.024131169821408727,-0.4708817304608808,-0.2868174875934483,-0.3945457529213374,-0.48687480451390497,0.2529360656693076,0.01074786140229389,0.3172750595079642,0.16899391490926075,0.16413004409845633,0.435695544400722,0.033850510863415506,-0.0516794225071886,-0.33422256585652665,0.13085403046419863,0.1538944693772306,0.1415890699329494,0.06220472615837269,0.13093025427604432,0.3174843230266917,-0.43518293729399926,-0.15151960554194877,-0.37447866570003774,0.48627092257613247,0.20163619746528738,-0.22991428451058016,0.08640068980575,0.18266024512018064,-0.05283439100124243,-0.12320493482289485,-0.44010436120356666,0.43684831472745955,0.12773673810968955,0.07187418912015209,-0.12503419883179268,0.48229436762518874,0.17747721490669455,-0.11654647288989373,0.23009197700014528,0.4713043127158316,-0.42260319461241647,0.04785250299255117,0.2604409600335412,0.3447737132261749,0.10033455117598988,-0.21872187648260177,-0.20212036961834146,-0.10154436269139178,-0.005530901039650926,-0.30207043337780204,0.4767501916406518,-0.09993058709013758,-0.20056982646740518,0.0459198045246193,0.24174523181368057,0.4895829262107658,0.30144919497928824,-0.3056799192107289,0.12393244831689942,-0.09418687219504718,0.3986590532632772,0.34577747498866207,0.1855754968117963,0.49675192464194506,-0.4212843232666572,-0.3297272039445017,0.04593036606040024,0.003261156272754473,-0.2655976633418764,0.4882269117235165,-0.2508196129857134,-0.1676682392031289,0.4755196004243424,-0.30907872934186564,-0.3346607035332595,0.4831934419508883,-0.48328694518191073,-0.00031812507416928426,-0.37184560866564365,-0.47731726221629134,-0.489038267108831,0.4233054396519874,-0.28068634090777267,-0.4506269538923824,-0.07346863874125142,0.3642184079108949,-0.42217340255918545,-0.308086862423429,0.4875599966848939,-0.299449068639297,0.20509888163264212,0.4048854532917755,-0.14780195728317136,0.45939594986638355,-0.20948664585021448,0.0816937620160012,0.16589833019230837,0.03200234813364655,0.3530871535783261,0.3626352213854681,0.16130753257943475,0.22833424676659508,-0.15745153853884686,0.4165781763648606,-0.24587610073095523,0.05873827071379034,-0.29669579832179227,-0.45436567215135415,-0.4580674818390378,-0.4877180823606201,-0.3445701138494093,0.2582685346716467,-0.3457262303145924,0.3239650394850949,0.229777562997738,0.46796036046083966,-0.0422249176162085,-0.0775780597708291,0.2842104673348592,0.31808817002502854,-0.25418505272624126,0.2592027956630304,0.017452701660813807,0.4259294003717441,0.44735324189521364,-0.4693564242017465,-0.4938959024145052,-0.3796101514517559,0.03576191287136532,0.17104072796201208,0.14572369256923445,-0.4490588349667102,0.37548704486177,-0.4445583879954118,-0.4944075498295223,0.09034808607881106,0.05976888431343319,-0.09665028609418069,-0.08564028309080907,0.06152815640904408,0.025681442554599254,-0.37540484566063026,0.3816524655049849,-0.44802866963571963,-0.44955192675892575,-0.25205484328748085,0.16194526402916398,0.08160801350973779,-0.15224022413557847,0.007928109045285958,-0.048683934268206164,-0.42060457499712345,0.18857237528301485,-0.4000287077150435,0.18699782075518434,0.25911353126326153,-0.1560341728947413,0.04427842381171421,0.2183189375884368,-0.3861385263243111,0.08527189200765428,0.41397295464017514,0.06513921968242109,0.03594346203660059,0.14486543551179099,-0.22480992111909137,-0.04277619520225251,0.06571784988501861,0.4154518517909189,0.46121699438071984,-0.23036852090702464,0.19513819222358808,-0.03595903291929725,-0.4925470236149372,0.15137370892378588,0.21793250488517024,0.34333993911779515,0.09249376515599161,0.24412711080412075,0.25874457643739457,-0.06857480583924103,0.05970325908048235,0.0739669170496865,-0.4042920125680671,-0.1078697038425609,0.11948437338337725,0.46269589881715756,-0.46916751363147924,-0.14510487324317956,-0.11848923483076534,0.4907724152485299,-0.16001884073597195,0.2672103579373366,-0.2269565995451921,0.18267094545284912,-0.24587281632498192,-0.40347260920742734,-0.18238773851512857,-0.30226310095656017,-0.2613452120364034,-0.43268188875194,-0.2809882262492862,-0.3190213502531467,0.09133935117031788,0.11744818774170884,-0.10996923715139262,0.38584650982755964,-0.4118573214607174,-0.11971798258564637,-0.3783890282120026,-0.2851980065666949,-0.15626109140080546,-0.29130246621051836,0.28756090625876307,0.011395958068127321,-0.257864519578929,0.04240266606292131,-0.10924764145188681,0.10985218556075227,0.15049834929606876,-0.22880262556085607,-0.07888964613003713,0.34176670594189784,0.08030897850968943,0.3228844190489948,-0.3795134939178114,-0.3713687626614597,-0.28273980644570185,-0.30387257961181613,-0.414539543897929,0.14015158579180498,-0.04253044508431081,-0.4766415867448912,0.49833744497039534,0.251806487581384,-0.25516456205809657,-0.03909971946867796,0.020288863264568135,0.30651410823487746,0.4781147136553128,-0.016597785901707907,0.18024897582652966,-0.38923267908617365,0.03727454951315301,-0.10311238808276091,-0.2475790537264264,0.20104067445724705,0.19488610960226738,0.3127187193471891,0.28039804945377034,-0.20239179770298066,-0.15669412421470919,0.24630198271895842,-0.24637781542492554,0.1472385590993368,0.34319267350881033,-0.2907034503930195,0.11310252219517392,0.05534330261744713,0.3794476733959272,-0.15500418557838092,0.37263654986246364,-0.059948278550327805,-0.3725414573943565,0.42479456470150234,0.4411697494416874,0.33892277416925765,0.253522477702964,-0.09012319151455939,0.2396944678270816,0.11022243689412026,-0.4489795419023065,-0.11682110487786357,-0.20540755742807892,-0.29681437372102293,-0.3186663151328333,0.48858737995459334,-0.29508579940582313,-0.09990650281156965,0.07541089137117785,-0.1526108600651177,0.05819388421601612,0.24483321479161557,0.17675792371869126,-0.03544709679565461,0.35213175654107776,-0.35383143454194144,0.1831882128641963,-0.3591769779195425,0.37093417585730126,0.14498117664544907,-0.014653028942287372,-0.09280193215586519,-0.09882445263359785,0.39777656570777187,-0.06213327557062187,-0.3586590368586968,0.006252731240396714,0.0772178174016439,0.03628206792919009,0.2523772519849078,0.3847288373523774,0.36674631600161,0.167908715452033,0.045281696540677596,-0.49363036052686393,0.0950657504976492,-0.09169385686315179,-0.3992797449230119,-0.48045278239511857,0.07025194932684897,0.28863467030504164,-0.30681683172992913,0.3684735917706151,-0.35690284804428785,0.346136228577574,-0.41346224908678153,-0.42230708066191125,-0.08894358817682368,0.31022521901729794,-0.06255199296205993,-0.3180494633307296,-0.11984972172790898,0.2417747255589634,-0.34210284903065635,0.34726004073284145,0.017689842128360556,0.11509689339390694,-0.40285287100080147,-0.1142397917237925,-0.2634651570880988,-0.11687031021939276,-0.1733423778361054,-0.25005844017583145,-0.338652258297948,0.1401453708617868,0.38924092595046755,0.215588113854277,0.4603803234606324,0.15420541934546084,0.11618431390620076,0.4678364261408512,0.48672828078445995,-0.13467062124829332,-0.12272706266997102,-0.39456958391980135,-0.18367671838393473,0.19077648665323566,-0.24425789306002266,-0.10229258306081335,0.23801768494390318,0.14805651811518716,-0.4859325959139984,0.02330028010701124,-0.47258280043421363,0.32299097551392,-0.38285165657491016,0.3882894124972358,0.4157684092907953,-0.11114317254227835,0.19794388564135723,-0.3707088678317305,-0.3476233469040382,-0.1773074252608816,0.38664738470507953,0.13948474588985382,0.1631317601606116,0.0052399355939892756,0.24441968392960367,0.4656422500044699,0.19002424013257313,0.43518088281385314,-0.203069729933954,-0.3616696700025911,-0.34982446450883053,-0.15005730777334192,0.47602745070536123,-0.08115984037259183,-0.20970584462486785,-0.2899763943902153,-0.04255907303680173,0.13114992955325577,-0.009492769682256985,0.4397416727100454,0.47719543133168874,0.01795256396562006,-0.48954424979286604,0.29195020901099733,-0.1925284126099206,0.2839916586065081,-0.3874750130635324,-0.48357642763142383,-0.1866330183924414,0.3973910515118433,-0.18472804925564412,0.03354282835296085,-0.09272153782567516,0.01716470822616112,0.47104842193882557,0.48364095183182165,0.3184455214545614,-0.01668092048598402,-0.1928537379040518,0.4292694536889835,0.12300875505173281,0.16073872039522197,-0.24785303283575955,0.4038434852946433,0.47154935356259864,-0.307999910436639,-0.48675625546867896,0.438446841093142,-0.21909713207059234,0.04422599117569337,-0.06005121682405612,0.013531973072022585,-0.48444516270124705,0.4949030217569711,-0.45333399589228696,-0.1335645436252063,-0.48727306637539936,0.3462544450588436,0.2984666898691749,0.38372249883631226,0.08563017337055356,0.1295606934929372,-0.09108359622692053,-0.08923730003536334,-0.40227837011627754,-0.10464264564987547,-0.30750308815957916,-0.38400616810196975,0.3485024555884778,0.4167898282403901,-0.23404225508970122,-0.471982957453544,0.12392009983275776,0.19903381807951503,0.2190145266814113,0.1895968233060582,-0.24062239009388375,0.24942429323941961,0.26459803658183956,-0.13880922413251706,0.48214470445971125,-0.4601705801617354,-0.29297181153090435,0.08689983473842955,0.05848481280585793,-0.3848051321743686,0.38074427562015256,0.10766047563502978,0.19918361223398307,-0.3307389464248689,-0.1259371960018847,-0.19388121165169825,-0.08648526733915596,0.43085889898254026,-0.21145636835653125,-0.09567070739362904,0.43629235695650104,0.1312444462183051,0.05921511499662446,0.017620263550285675,-0.03447338886681761,0.06894404869568838,-0.3547848223439549,-0.0845927593941106,0.1340041873092297,0.2673697608981561,-0.16188128600144247,0.1961245717656509,0.1969606205697566,-0.2959887425259681,0.280776263997528,0.3505533906282381,-0.004870967241534019,-0.3147267093453975,-0.2502491733513392,-0.16983050678086775,-0.2525272589570381,-0.08591125179885073,0.002198924836159466,-0.37007640851255885,-0.22434370725843178,-0.34232954488703005,-0.28378726609627847,0.4053038680938158,-0.06369723429191887,0.3290429347494568,0.3744943841056467,0.24439096611960698,0.39926510183306807,0.36005073632176643,-0.15152765206056928,0.08584673068649828,-0.4972484977519577,0.18822114369435816,0.36882834298605394,-0.17934746696174664,0.15687854355056685,-0.30634667430338713,0.043794313194450485,-0.011370557536513282,0.4986344252687107,-0.12375702577299019,0.35729248643695155,0.38706590042471045,-0.49330121066820165,0.18412556266207525,-0.4201225474284115,0.1802617636127014,-0.04680675330746986,0.18357718999674943,0.24252457661264226,-0.17775713242945623,0.1897493276031641,-0.182832351338577,-0.2832695100357976,-0.3714160626883508,0.41676500976743025,0.014116745318335955,-0.19875428365591186,-0.20487002016370437,0.05724143616264954,0.3002961786204462,-0.09196103573767112,-0.06491020092212496,-0.17978861044532712,-0.327607713194337,-0.011506998938395796,0.19444245282492134,-0.4053969724352563,-0.021918623091874534,0.12658020043878937,0.47824050088919545,-0.3788860495797113,-0.09840930097711409,0.09276646968273705,0.46102005450063066,-0.37922793072829164,-0.4194604009757684,-0.07401078422996754,-0.005148164824064105,0.3277730323387402,0.2887923344442055,0.09063743325983409,-0.019090326264526225,0.42419672592839885,-0.06570240714439357,0.4200965280819755,-0.35364586720958835,-0.09632087267500489,-0.29670383858913507,0.07031273137309557,-0.374583286069459,-0.009068305796829712,-0.18370746920816694,0.4355748999622129,0.2500920336390652,-0.2657935752259204,-0.01113047202804951,0.33058274646856656,-0.3224028669426885,-0.2976694334373491,-0.4518721922149975,0.36340284134051437,-0.18952955969068486,0.4608955254717473,0.43450462347881247,-0.43971433086893896,-0.32951317048599105,0.470538557047643,-0.2764325662557858,0.2880396491070494,0.13380362819447433,-0.48110456114642597,-0.006142020692975314,-0.32047157613378063,0.068793803527749,-0.42749292049411913,-0.41206848408908625,0.11629152502593898,-0.06066443329647386,-0.46078282699537043,-0.20653706197264188,0.46667319848613387,0.1841909558417587,-0.007342548007888916,-0.2798172735210185,0.44447103300219637,0.2665087359895979,0.40399500906357644,0.019633965931483477,0.4296669975605856,-0.0631642561069019,-0.23533637309982514,-0.14323003624904962,0.3941205165765266,0.1472874129517947,0.41083662224567574,-0.44150614058734905,-0.07556638752586264,-0.17430954903152318,-0.34616893507331015,-0.44503072644370134,0.1576427106411309,0.15181334903834853,0.21122563305940412,0.4283454459319075,0.19229539642953208,0.016202853357622615,-0.07077867509992641,-0.2832055188476005,0.21923153513144067,-0.19174700413522383,0.21297171667529968,0.0035177194409189427,0.11683130037987166,-0.2761948708028207,-0.4846500309681222,0.021909724186221946,0.10412962377438628,-0.30190734379724593,-0.23973791783048126,-0.314260542548779,0.40414386131053204,-0.16297067885603878,0.22050082123766235,-0.3091249533468745,-0.29643131970927794,-0.12540212918463312,0.4803458938002967,-0.21995415489239312,0.10344812784570179,0.379686783954464,-0.1222267685926205,0.16608330613126188,-0.05701742671496235,-0.4703312959058248,-0.10978401920298853,-0.1984927157801757,-0.24780133244134883,-0.3855233754340732,0.22102260033524268,0.290549657693145,0.1135446953658864,0.18231196485571832,0.36387503119240594,0.27725691128971,-0.47162385733990253,-0.4165923560145215,-0.35075433920613264,-0.36491830991824303,0.3480995826591854,-0.17089740143838572,0.301473119813087,-0.039847982526871606,0.49180244137643403,0.1582983950183977,-0.2883063864216213,-0.033068165055943344,0.03564705469114293,0.13057306642233324,-0.3172262397217738,-0.05660419730539856,-0.022025043828455382,-0.39322066937490185,-0.02155235295125879,0.080361307398496,0.48702048591672187,0.0471913304484447,-0.11865344097091202,-0.4208055965397711,-0.39952814941536297,0.18246090475547405,-0.039501760491801874,0.23417152602785785,-0.29720219066464726,0.11731019937269771,0.22285340703551704,-0.026216864874962775,-0.23151731159221245,-0.2181868898301258,0.32269124722888953,-0.35700440768946506,-0.2709310443138563,-0.1989735881084299,0.4343280210400807,-0.2660514831354107,0.3520495813822271,0.08092547918376647,-0.0028157321802469992,0.02044137492353415,0.4832454445623071,-0.1704206858182774,0.25202268838776254,0.12307227329850634,-0.1895833969849241,-0.360211509095823,0.38594323652879614,0.496277724383691,-0.2032610825353668,0.14583199677942327,-0.17232613062986457,0.19787413850035285,-0.4045282692434067,0.25334893710942186,0.34447551667320675,0.3397617180081617,0.2843209219582439,-0.09331052240901128,0.24073343145187343,0.2681390209071206,0.18413719702831566,0.4114229713104467,0.29289269796454187,0.020138257867171383,0.023076678715309495,0.4164309879138567,-0.38854772071155586,0.4192805810491229,0.032370867548888516,0.34097552062798886,0.05568393513775427,0.0947927606036082,0.01721986182754609,-0.0023098211712768713,-0.24144265459281633,-0.08443366285983112,0.36995075824545787,-0.31477108025529243,0.4741966155923929,0.3559849526091676,-0.37832456827633554,-0.14324505480816319,0.25232393323450963,-0.1421526437701296,0.17331241229358785,0.003356576609263251,-0.46090714472169236,0.4319383022620793,0.407724522514761,0.07974406786372357,-0.03823997194352424,-0.10156906377986874,0.25925019209445166,-0.40184309064867507,0.009120613230086394,-0.2594225715378131,-0.22970576379951568,-0.174415421970461,-0.345545628783577,0.3518046060332437,-0.41749135023471984,0.08124671178867415,-0.4269678217884352,-0.48844478707432426,-0.385421645468779,0.3908008984057486,-0.1962971790125423,0.4194952919171788,0.4225423618479627,0.12217986903688138,0.2608456318400688,0.328161759783837,0.014347535854489779,0.4186788458697147,-0.48712725213182717,-0.27017978906698126,0.22515069515130448,-0.11018796037723044,0.44576114221168717,-0.38878319100783065,-0.11962641467629742,0.4903629642820825,0.4476151849632414,-0.3199182826218113,-0.19419610436172874,-0.2796209212887085,0.16400428726713712,0.2844033050293703,0.01953037891293985,0.2431913796131645,0.42377310935840307,0.4879560581807656,-0.016673735609117446,-0.10123659124878259,0.0004585373295091788,0.10179842077673362,-0.05593231482808292,0.10161268811584723,0.10227959592314595,-0.16809193204351536,0.4427816980700623,0.29392204481271034,-0.07152164087723212,-0.17865140620143372,0.4212682822284137,-0.304049586699248,-0.011442227023803153,-0.35261762006772035,0.37598684824721273,-0.356862943597016,0.02475678086286015,0.18871647126756097,-0.49864015056626854,-0.04104700135624151,-0.24946558515136252,0.4019217424901398,0.33083068896764123,0.3290538601419948,-0.12754749079933392,0.37846990044695583,-0.28668975677162667,-0.37494842015504726,-0.48382576314758685,0.4292636224288173,0.11674340837356989,0.23322635367059352,0.4992899822061102,0.15271384182893044,-0.49336772311312294,0.16450856316649165,0.06221587436854925,-0.2901989223867548,0.44124825736892803,0.32651154184660935,-0.25584499861043,0.3293378238392567,0.4808230294344904,0.1793298182663131,-0.2221483645955481,-0.036748649608226214,0.46513231125182697,0.3681062188366916,-0.15924027940374919,0.18575909821214953,-0.49814593196247825,0.005788875056232379,-0.15752759594160703,0.19405872853424033,0.021118416223169345,-0.03754503202611914,0.4312203955759044,0.00972248130511566,0.16268856041541357,-0.22536293124097884,-0.12464012771487087,-0.37001979637435745,0.27207579200745025,-0.017023980742084444,0.0028051704140870104,-0.12603935058129545,0.1923334997131131,-0.07329648172438208,0.08908496164232249,-0.45293397483660347,-0.14037908460902793,0.35668292777901345,0.2980088178282224,0.24266387347470209,-0.07195041205369823,-0.24639259371996636,0.4664166823619952,-0.01275849500926396,-0.1851354916341118,-0.3043414397476769,0.46666417317794884,-0.15000833021765902,0.21302388743441458,-0.061491171398288635,-0.05239454635455665,0.21537025877927574,0.36155422660140957,-0.36129433419010615,-0.44165982877890686,0.38571621796575106,-0.11934729821144385,-0.15286325454722316,0.01754497455266235,0.10335792615989114,-0.46022249939436277,-0.3192894443169937,-0.040296940884789856,0.4018761375770672,-0.33897250940924206,0.4390244532297326,0.35842239106524276,0.3793196212298148,0.33610657111264086,0.24840190525626804,-0.2157133945518257,-0.26239934008444954,0.2135385517861751,0.2354735119287089,0.32078705181395717,0.47839628186518723,-0.10941867148926976,-0.3021598463772843,0.4826644498171839,-0.19091596773913433,0.4900246624122119,-0.4227682362726085,-0.226522282894712,-0.21173705027023415,-0.1669090474456315,-0.18447622557100452,-0.0790427508146585,-0.1604946739229971,0.26185353451863236,-0.4794024601255342,0.16324705778150994,0.07541948136776966,0.13573534046376812,-0.18835491944387406,-0.24848451735696986,0.28684298050265433,-0.22591063329095729,-0.1930922177904123,0.17451240955214942,0.4778719742153489,-0.1918686331424433,0.29244105029630585,0.4024821665661653,-0.45460936682275055,0.17496958329391832,-0.2224972263581505,-0.22024931165080064,0.0694261170583873,0.22898229883568355,0.1629812137733071,-0.39328330927627664,-0.24056520687124805,0.3742302157248897,0.27948135452509115,0.15516837769906866,0.01041078482194946,0.0894309789652531,0.09367357379532304,0.04725856768371395,-0.22313129945628363,-0.23959343366316221,-0.12012478749770228,0.19525528333816589,-0.17353713860459175,0.31484624134694283,-0.1344984030832349,-0.08650880289797025,0.34012529374087563,0.3126950826012548,-0.3628146161339064,0.2923371711124275,-0.2458266895113137,-0.47834078447297124,-0.44718636359971675,-0.004133582407552239,0.3742030891468101,-0.2834815469766655,-0.4071693288064282,-0.3830028026925101,-0.44826401631655755,-0.15520089413039928,0.4446564440607734,-0.1700833261170196,0.34316445449223043,0.3196664103889095,-0.4668064445764457,-0.32484856503788706,-0.4220633837565225,-0.1589195721954224,0.22822671310292708,0.4729183948179976,0.06946235668948542,-0.22601905349874407,-0.20848995768950174,-0.29229355015900094,0.04940219086005504,-0.10657179251624582,0.1294464738265816,0.47262887985297874,-0.27071778627329157,-0.3492972747936194,0.038467590584092215,-0.23581301600280224,-0.034837867706815184,-0.3150431572074921,0.4140987089034519,0.27015704680304997,0.45288003077838823,-0.4283707773247285,0.26587773547867644,0.3977806115503465,-0.2629742814350646,-0.2254314046840964,-0.11900320261054576,0.27192608306237365,-0.14950628369487096,0.2012137998290734,0.44541278622090275,0.18231277733255358,-0.13495878102909864,-0.047243284230685356,0.00932377877319801,-0.09623185935473699,0.1251979163369481,0.323361656829106,-0.28389966659350885,-0.2432001515086789,0.4016787927106684,-0.2098552611343898,-0.021593661734174874,-0.09766407069628091,-0.3193420782734726,0.32223774692024465,-0.35890810632644554,-0.4701799457146991,-0.24927479630484295,-0.38028838062424175,0.10735595442150092,-0.22284960449571134,0.22587686545901264,0.3482023899579447,0.2844781210375452,-0.04265850645819813,-0.23091101828496408,-0.05917856438693425,0.09937033013396313,-0.4585068451410895,0.3165446587818238,0.3444519229276385,0.4808752386387406,0.24326463243377316,0.3924028795458929,-0.48178200986238917,0.3050597505713114,0.4509101313476934,0.3718698977539311,0.3111785916430644,0.10739374341214714,-0.21425398787166527,0.25319642248472907,0.11604945685843537,0.038011276551800366,-0.3417203664652364,-0.17930129385450633,-0.17453517075553782,0.270103948024496,-0.3867715437202359,-0.29928050212889823,0.15834872428212177,-0.2733983139652004,0.27891093041199977,0.33563866540596765,0.49972742318867025,-0.024785629390886688,0.09220917386874217,0.14319318988252017,-0.3382542391615525,0.04384841304149534,0.05107054211206741,0.12427077426854172,-0.20878064766152282,0.28280778331540024,0.4120210407120509,-0.22768423081662537,0.38120423800549097,0.37789257615853555,-0.29323724230770654,0.2528139150418014,0.473446189469111,-0.12318428515408686,0.4393523169571374,0.09228763169231724,0.2598429093548573,0.4364897043860956,-0.16070000287500996,-0.35042550487626756,-0.26802178730482074,0.15430928921882447,0.46873437141021934,-0.3983023769264262,0.25220655650357304,0.008582746357392979,-0.20283856636809183,-0.4843728738384747,-0.27958493846807286,0.06086566252234327,0.14619327703260887,0.021858176024439735,0.09259603567401664,-0.19464221584067076,-0.07488131614486926,0.1838249959659144,-0.06265390798722392,0.28407475858286346,0.03978719546386433,0.2119832404743821,0.3853124536407746,0.4556584598586233,-0.19901689423578528,-0.12251890099586837,0.4532159551976769,0.21060264480661195,0.48184901150291126,-0.1660478582721201,-0.46815765572795354,0.20936274861928472,-0.4560001769563342,-0.13296931695709047,0.43537596771635534,-0.05384584115351021,0.4965256816622441,0.40206313214188294,0.2954656719468648,0.07966252610722524,0.19088841841565574,-0.14746158175091628,-0.12006550431749285,0.09357265353093935,-0.23883556384835314,0.07376145707031634,0.4399365002405109,-0.4100804157058945,0.21883289442780873,-0.13411381059520577,0.3236383531834405,-0.3000803887878526,-0.35335965469655306,-0.3243125076407911,-0.4392265350003086,-0.3700008122585692,0.19342548073708266,0.19390025460773141,0.47969635974287117,-0.4367708937949546,0.44214820479427286,0.14004905868214013,-0.39867696523300267,0.15598475458967098,-0.43103517533311453,0.42962582154012197,0.4178873045462309,-0.0338614412556929,0.43708962927902617,0.10041589491035863,-0.3522997800644745,-0.1231249495512996,-0.14851802123652758,-0.3500117836841994,-0.4844312448974455,-0.18645531401769,-0.4466613961908984,-0.018743716149723588,-0.17638632728751324,0.3453357541678217,0.29935919344728945,-0.24772511217536908,-0.23785161803368293,-0.17965157449940117,0.07548593426316386,-0.4550168031036791,0.4294185554230584,0.1429047372966199,0.0021373229727809084,-0.3855400316479062,-0.43250039564162157,0.31494919004912325,-0.09849892737365673,-0.23374110163694561,0.16438073578277723,-0.21826729483693663,-0.3901430843955531,0.0379568071861226,0.3600874006077591,-0.08577438834336104,0.3379271962159043,0.1266992174039182,0.34900257160432124,-0.06521911640763678,0.4776012618618396,-0.3493100265316136,0.008217528529391616,-0.28930454571404207,-0.3660616456550926,0.25894095344868406,-0.41368328934299625,0.44760245974581303,-0.39916886685751474,0.08772281341524324,0.4869595282445395,-0.006546338529141327,-0.3771026905178557,0.41504467663752187,-0.3561499720721023,-0.2886061193228019,0.12695564838228235,-0.20253443387892422,0.3829904237170735,0.016157727105302166,0.13410976234479854,-0.3595445200658064,0.41856522146400366,0.19399138093801693,-0.06278083817728686,-0.18675336337368098,0.20927256026096175,0.37955361481440386,0.07977790233694426,0.4275885137902521,-0.4166959798409806,-0.0720952738552687,0.2864816492790653,0.46427165827504313,-0.29070476076416296,-0.31372950419234424,-0.25889292504843897,0.04872167722707499,0.1308600663104622,-0.4012576189736655,-0.145878403850068,0.11042091245603924,0.2823923131127982,-0.38547927735201315,-0.014835742742013491,0.22415659447947522,0.08890602111126666,0.14862923598346656,0.06500202756043694,0.06616833637096842,-0.25962876744669094,0.3553248420256079,-0.37219458340379685,-0.15820741461424714,-0.25140386970982875,0.2559327226675444,-0.33274264485641136,-0.4997618256811929,-0.2830520561720665,-0.34550554280180845,-0.12329164455515884,0.056340512153639,-0.18300610162372155,-0.10232574477911349,0.32346445960060755,-0.46089709092693876,-0.11426485879152681,-0.29069326854391986,0.25907774357271485,-0.3085356795882387,-0.49251391603092687,0.01075759978196944,0.4550730961461519,-0.46682151027655805,-0.08203857299324924,0.4830645375508974,-0.1767356430982736,-0.04160137874514602,-0.04055744603499134,-0.05599508006374698,0.4164891808591079,0.45458261329488703,-0.12761285015337698,-0.4061661125815984,-0.019075700393446082,0.08390713050775689,0.4380401957626907,-0.14895569199178427,0.3009857423255299,-0.42086692687306215,-0.4604025727898349,0.13703678660637686,0.03918316575015124,0.25567495358925474,0.37699651911337506,-0.07708359532841591,0.3488320345678618,0.02223328870751251,-0.22094590252777957,-0.27792244533054866,0.4627842961431009,-0.14271197916206058,-0.40091047584108386,-0.26713939675921494,0.4785332260669771,0.18982704530075734,0.4913203473547203,0.44174859564607694,-0.47428809370029823,0.19736271939880978,-0.3827081191570251,-0.3467832587043437,0.13718297680252423,0.11364803820283786,-0.06209125247897829,-0.05087551974193805,-0.2467409216538552,-0.24552475047061417,-0.455153311989584,0.11989947074511431,-0.4981859425770332,0.09736561662124377,-0.09952983733544596,0.20564774070056058,0.09643203198607897,-0.21811676601626773,-0.040499114540996195,0.25722649930861774,0.03602524967207987,0.4846241470454262,0.2157129813308747,-0.38913713081703805,0.32072152630468953,-0.46425013318565567,0.4876753226315087,0.3265214863037804,-0.08826147414013441,0.41293700908235087,0.07022214890695677,0.303685162275108,0.08433256582869286,-0.056587598891848834,-0.34217506490463256,0.2143658324537696,-0.014615260530782548,0.1873402440632841,0.08437110578073981,-0.36006285475213173,0.18067249522545348,0.2056055175177921,-0.2224291621672534,0.47388094708993755,0.31677245874146065,-0.27030940572316153,-0.4139690566469598,0.013406394516576547,0.23568185563198507,0.31535286145372243,0.23913737842236116,-0.14174724484364265,0.2507230475181419,0.4733261073544083,0.36329719059157894,-0.26841386666130895,0.39744031307102246,-0.10490068983867962,-0.2079043034018082,-0.38273721732711163,-0.29618910692939937,-0.21712968248909914,-0.1661442423042434,0.2974976989517435,0.44844648730159287,0.28483906972804407,0.1852120933378284,-0.03721451168920353,0.48968134185068135,-0.2758092679565626,-0.0944870338592162,0.4754003273237398,0.44597302936777905,0.2884521429404012,0.4783976277783685,0.12259641790699516,-0.1489735157029266,-0.24384761237084096,0.45967964303650155,-0.24481862570008006,0.048505431453334746,0.010343835836130855,0.2787099323696224,0.40174725853347637,0.11774893768942662,-0.43008509431500375,0.039667473224405336,-0.23746495856827632,-0.18384123055557722,-0.492820625866756,0.33418104033907337,0.1264177752979857,0.0905476145526719,-0.40683261682413463,-0.4410303403351019,-0.23357833089819746,-0.16646140364672501,-0.2774991997866395,0.23171567407432891,0.14257368133575987,0.3668432502095911,-0.1563989017126587,-0.04867718007253319,0.38988758237000387,-0.33155614256252663,-0.05048061053297359,0.24677651214518292,0.2417891806049527,-0.4123575135685307,-0.2261587542407406,-0.22516353568031533,0.2635968310742378,0.4599301788209088,0.1415743261985556,-0.4089420403484768,-0.3260909214329105,-0.2415350768225999,0.3366330666765962,0.37703456722978446,0.08943727411353641,-0.14470020239436254,0.17912828134313308,-0.19503895460391252,-0.423696952776916,-0.09148674026372727,0.43901752152860873,-0.3454177512969966,0.33255155303661554,0.21218449168342635,-0.313167082454357,-0.35437487898702,0.18176897868975728,0.48881817219961377,-0.1289968146408048,-0.024024715937568053,0.15380471562533282,-0.07296722956314672,0.42014392080598095,-0.33916180973764587,-0.461332172207072,0.2793182353438721,-0.12416972575436325,-0.0213640570281749,0.10951134384437966,-0.32961277133072087,0.49339914978494437,-0.41540549743368615,0.3199999727534587,0.278655639259904,0.011328638903819521,0.2036340722025347,0.12333116097445573,-0.28592065935583144,-0.22855158864263103,-0.22487971373239934,-0.27418179860801983,0.18711595380670853,0.40955962742849983,-0.38060774400966857,0.29696800498934384,-0.01960312142283782,0.4606229461042274,0.12602654916392264,0.39549904347058373,-0.09215655434755632,0.006759805806070829,0.358088717410353,-0.3341317432045492,0.19060524344921426,-0.3785967991960756,0.209022897264191,-0.005690406400736148,-0.08611889774130244,-0.38231893540966766,-0.25647150750943515,0.11602093590289941,0.2350927891269332,0.3185669165563182,0.3895379829782665,0.42391647737469607,-0.32513050469531934,0.4297538508582457,-0.10819091822672466,-0.35413285972259534,-0.09243138865826062,-0.2233138203460483,-0.1186149260989523,-0.29741680806310644,-0.4424452339762729,-0.07420026449739214,0.356049926713066,-0.21670349090467522,-0.09472503807060861,0.4129783582886817,0.2945512878658476,0.49146072237537675,0.14408426600360869,0.13530077842948618,0.49106468122377656,-0.3038945890158926,-0.26662011155575904,-0.20619276671180098,0.4468372303037137,-0.4495719069112152,-0.052955584496830355,-0.3890589074012223,-0.028739924494283753,0.35396142606254044,-0.37321589320126614,0.09621104212110387,0.11897016678422667,0.28975190666833106,-0.22534810426912844,0.2334227415323361,0.20930397709732362,-0.19236279117679,-0.33191631133243793,0.12111305995678823,0.38324966199965826,0.17268048891545407,-0.442723393161807,0.4845814886321991,0.14304148196333089,-0.060742614111503834,-0.10933048454344141,-0.485034286704505,-0.4440075080580116,-0.17056615829221244,-0.4206509260341229,0.13087811671377758,-0.48778126313806525,-0.12120364883613277,-0.3497702558693365,0.05943654286608402,-0.0162563156751816,0.06690993907778042,0.07187196409494978,0.17921757027995533,0.19989726529564822,-0.335818061354214,-0.26881581478662775,0.1490405475332196,0.4381114820350803,-0.44301936233389994,0.04835354391386837,-0.07524893479209982,0.15362116864592412,0.354520094552917,-0.4826917614960775,0.0020419285673032306,0.033371682314333295,0.4228633618641754,-0.33535362001463576,0.035517031908917196,0.2542728730030216,-0.28884500714369865,0.08052463767609253,0.03328605524348893,0.47990958500326175,-0.20999710428925533,0.15248389037843468,0.14369033776875018,-0.3445730233721097,0.1675859606090061,0.3320678828501987,0.25586525561039675,0.18533777772447402,0.15692771618628942,0.02592851326127943,-0.07960783831007834,0.31612783613854334,0.48953906447096407,0.24370393880826902,-0.4187090017724926,0.08806221798569558,0.401014597116223,-0.3387568947536854,-0.022617719999965313,-0.040762042159507295,0.3421744903686885,-0.4407614319352343,0.004760138784625778,-0.4598453122574353,-0.23318945609933572,0.4635896092410605,-0.15267189568176942,0.35864919889392044,-0.027922400545748127,0.40415790283846775,0.13211302865529317,-0.07210306715913561,-0.07700230087288062,0.41472396834031244,0.4387077869703866,-0.4868630652817565,0.4380146905104465,0.39677198020035953,0.2395883219556898,0.3304066474379427,0.3433544444133151,0.1834451147420405,0.22749180250943102,0.029242265864070638,0.15514911753233052,0.3028595806414808,-0.3409735570145117,-0.2765413666248355,-0.2057384509211806,0.05157009693001613,0.024253534697916912,0.38265939660408543,-0.24836122959008056,-0.04930842090299292,-0.10435164204175817,-0.3916018110806817,-0.1395450037937479,-0.37997791413179616,-0.03731839970206352,0.4102008176786952,0.2924247255722844,-0.02984269043990251,0.0004351084885160228,0.24051693243113703,-0.49447182605894147,-0.2557648738709122,-0.046808918894448714,-0.28676637473930633,-0.3123332987166273,-0.45714468104510075,-0.4833683714668292,0.050956573218026935,0.36912363458311637,0.20694279983763508,0.18388407172403098,-0.439950002749359,-0.3885433509823598,-0.24470652469393683,-0.1703863737373732,-0.03339468372880683,-0.30739899489530287,0.4902319516633371,0.0946926105957675,-0.45773210384608576,-0.013826199320146504,-0.31165109392745327,0.062361287238297036,-0.2703687122861156,-0.3235864559892193,-0.37730990596319014,0.405419795639662,-0.3232393219682045,-0.41454891577255026,0.349092370653333,0.420151516608523,0.14606475662208418,-0.1327688134653654,0.28380882568262533,-0.4212900884974655,-0.3516362185425058,-0.11034588254953781,-0.3906818927517842,-0.43127594581236994,-0.3763610620937222,-0.05457507389117344,0.3677870443491251,0.11888618813668173,0.20711387118863545,-0.22216807775581116,0.19157022178361371,0.36743087283687503,0.49767963187422914,-0.06725953676085794,-0.3918732347276124,-0.0822306587796795,0.19210237548264286,0.036775501233812014,0.1136890132668692,-0.2759525238205248,-0.023070555993586428,-0.16944668049044942,0.4321343106629352,0.011941485163325272,0.4292597809111991,-0.4633325684294449,-0.377220060016367,0.23550391330759457,-0.4323993693924467,0.13819151507241478,-0.4526622387626499,0.1985744993874754,0.2318275337432656,-0.46578680255863825,-0.39846951109958173,0.13007569971956068,0.3273741541398957,0.4526964184864125,0.40591807360964605,0.0950441537662019,0.44028426050029734,0.11738525472642536,-0.1627102894585779,0.36196769671386164,0.033774193168175315,0.053470893023333854,-0.08176230236374349,-0.015372459281305706,0.3888694161569458,-0.03805308144088704,-0.2447969161987552,0.10583455082310811,0.3700882452696196,0.18050445162039241,0.3006959715299672,0.4284284796652056,0.473108731327467,-0.014518312378077214,0.49973657573122465,-0.20748428407503083,-0.20886173508358263,0.31257752510008374,-0.1319997792007509,0.3671869257368371,-0.3748307189135619,0.2728785228813686,0.18188956635075293,-0.29629067174091517,-0.18985207558262207,-0.2753565273201396,-0.372277055132477,0.09979674038135611,0.4147780702534478,-0.13662151836900227,-0.3651798816474422,0.45092482019025115,-0.259204015087123,-0.4539306163695622,0.22551175398731116,-0.23257261232477888,0.16685471048704326,0.09060538794170625,0.45730418425279973,-0.2512528742592014,0.05806457355290706,0.20942795367610478,-0.15119077449042395,0.16386586664769076,-0.33621726960572285,0.1554809223517276,0.060889260320949545,0.29613068738355586,0.19955688555758067,0.2165576855486928,-0.01696461193491483,-0.2891907384671142,-0.148226298715888,-0.4845079373948823,0.17321705303604962,-0.01705249925598651,-0.035221555166333074,-0.26759838609475173,0.4155215461187406,-0.24539139608457672,-0.017054722748160334,-0.42391017178373613,0.4633982957399583,-0.04342406813331834,0.1208623577289738,0.17670897696820387,-0.36938253873626015,-0.43465134398463945,-0.47741377295481136,0.007564603951822679,-0.09729390479200117,-0.4809606125300081,-0.4809326043549472,-0.1004262746511485,-0.30719667021321573,0.40949953028346275,0.2260087361292923,-0.37489965261043523,-0.3598290874208221,0.2919383441110006,-0.19331806497744997,-0.26063146614241783,-0.3424997809175433,0.19650371375205988,-0.13100835087772322,-0.14472994454754962,-0.4686440444867742,0.37298527708217677,-0.42877209731802823,-0.18747008018897948,0.2765141060339117,-0.45857410788181274,0.009649654959026144,0.47400377141966377,-0.40583678013702806,-0.49925020694741085,0.067729017104595,0.306280662057137,-0.2869662049352566,0.24996994326768063,-0.35428341101477245,0.4998621692405728,-0.1252280047128862,-0.3070152355150836,0.44820547222499973,0.22670051767465405,0.11058963995372328,0.11493824498513117,0.4215226558277154,0.03843030498241329,-0.14947557014786428,-0.4768476723322076,0.3115660539526126,-0.11892613105150018,-0.0705312868490865,0.02428753996926103,0.371348221342103,-0.2327833942945693,-0.43533375451569867,0.409755479236525,-0.02863654210540456,0.39491832152278783,-0.405280727581375,-0.35674836804973964,0.1380990670253357,0.2822204251021643,-0.1183961131658805,0.3404295848591884,-0.03785926175078913,0.0669461614897422,0.2506319045535971,-0.28187562674256106,-0.03458598995796924,-0.015562851372223463,-0.41989532297377785,0.2588719758547564,0.15836029752405634,-0.236000092208844,-0.4005912685961096,-0.3432155986526938,0.2978048089234926,-0.1993315786960641,-0.13189612955363705,0.0853024129946558,-0.41995810398345457,-0.023626592835129134,0.08749642488165499,-0.13758242970261736,0.4727628106008367,-0.3460330733237438,0.2135565250338256,-0.33792524680927116,0.2505005965003254,0.2764286666028989,-0.12612358519772748,-0.18572627147654586,-0.2953566640036601,0.4192752319900045,0.44072083962455244,0.15349129209490375,0.43603435025518966,-0.04563091983988021,-0.43358450475494104,-0.30457191173593967,0.22436711629358452,0.13662616384935877,-0.4576786590056813,-0.31209607666169936,0.14526277710601243,0.35434473475779715,-0.4019790239901836,-0.26176157476782735,0.4381251688082719,0.1844526173615726,0.4720395540801675,-0.026190220723996793,-0.2806632496595969,-0.27497009365972025,0.34214251982341237,0.45585634449649126,-0.21058863346264844,-0.2723925384881897,-0.30284680947932197,0.08287243744556183,0.2543975599374899,0.4209562853818414,-0.04157410535912898,-0.4503306957499792,0.4388798730729271,-0.27675032540082756,0.006018403758824453,0.25863509157234377,0.19010544070305324,0.23451150785860886,-0.10476810903406031,0.41275075073732115,-0.3507830509186808,0.42407855487055657,0.10398014219119467,0.37541007783746383,0.02196286167782513,-0.4499494276249105,0.33650624987480604,-0.028487218234492184,0.1480818104507322,-0.4346418782212208,0.180049164069223,0.2086304979845668,0.21392008461705025,-0.022821827097352476,0.20000758812814856,-0.4788957911253586,-0.1404464264561197,-0.2801663353118269,-0.15521648762897233,0.2589408827248064,0.3936444678525446,0.045002285825042954,-0.1293500456935358,0.13514755708627801,-0.1710272733001743,-0.2870313067038667,0.23362798951178143,0.30912803177643,-0.1775837327098978,-0.17167956811291085,-0.309284129701366,-0.49705219798040656,0.05002176294617233,0.19438875586759874,-0.03171825631812919,-0.4547526368959066,0.10833565306530979,-0.46126775027771305,0.038376441458231714,-0.4156194906560038,0.07893880061559666,0.3750619852169117,-0.47178471217469065,-0.3217090624911506,0.4326787354639764,-0.36879849899644523,0.47787681849825436,0.2346725833366622,0.4989036866423543,-0.43142380132159297,0.23413176850121487,-0.2931426402498821,-0.030707690682515554,-0.3426053534855519,0.05189890495097471,-0.1913564882258334,0.4316727787010527,-0.33437597330099356,0.17466076891906301,-0.3869462760848361,-0.4891640539709139,0.19568183683456752,0.1977528130902646,0.4927096985424715,