-0.24671058240390276,-0.4011972988289746,0.2570780773982906,0.02135159555307753,-0.17301402074425276,0.06374189820439746,-0.20129251689930217,0.3725306669179044,0.0371421644943114,0.1182668701886711,-0.29258167366727716,0.39335744437185194,0.4039197795802144,-0.34833306415378473,-0.12020020129183262,0.36131705670222103,0.025081448128303374,-0.2168777958183724,-0.44213045956431796,-0.34890931570469985,-0.0050532938627285695,-0.27200904023298567,-0.29023001782503155,-0.08441727846239855,-0.33630441373483777,-0.3218620842442401,-0.46788721990738147,-0.4219759601129721,0.25058682782764097,-0.320089641331309,0.4797019666357818,0.23618028711600025,0.23338461218451034,0.11628461589428973,0.44656714801043207,-0.37413036520639387,-0.310900568765737,0.04052924756391918,0.455292436275901,-0.36858154555439315,-0.4415662446191039,-0.2393228143765046,-0.3334267582114723,0.12081026221477986,-0.07871964328495973,-0.4211689735614156,0.3385428949869841,-0.36996979601726643,0.3198527162910879,0.20137289144433057,-0.21377384571036495,0.08463284018279249,-0.44771259441115874,0.4825736826413186,0.08830614442652152,-0.3549947414145246,0.07929401351161669,-0.23140453677695538,-0.4198960443747891,0.4375512708234822,0.4283562016267626,-0.4459219341740781,0.1032053240713049,0.39544150665426825,0.4396891503657344,-0.09791246707146917,0.2659263114019783,-0.4077477095465971,0.06912636426562813,0.352673398287485,-0.45500757940783243,0.09268107148982807,0.13080925240232755,0.4331065472194163,-0.19792777502642556,-0.3381765823849048,0.4021409534354218,0.05028673654154492,0.06929874828908111,-0.003913214589229663,-0.32289455855334015,-0.013563222643914075,0.10274218947480296,-0.03608444054617188,-0.35574091456863466,-0.0905726966538487,-0.2189186386602383,-0.16642594438301372,0.12362117504651582,0.22563706929567406,0.31352870317229997,-0.4112827396092511,-0.42606874782736703,-0.28327451936828496,-0.47147121103046263,-0.26956788863896586,0.20686907187505255,-0.03213311288207843,0.49799862536376516,0.3086394519640844,0.20042851122746985,0.20691021480664606,0.323488776222429,0.1770882082574491,0.4155142815370789,-0.4453763441109857,-0.3009661036631053,-0.15271340496315566,-0.13495785237610913,-0.03884553767091803,-0.21621916848575706,0.3389268392039627,-0.028438788089078293,-0.3019412503812784,0.40110255384105953,0.25395466603745465,-0.23198448566199892,0.14753787448302824,-0.08724216613492974,0.23901619539221197,-0.17732577305839814,-0.07937579779355852,0.007359190512183478,0.14044732965186923,-0.08668607517024174,-0.11035796826567412,-0.4810899696162779,-0.15698043129009875,-0.16968798553337872,-0.3952791990638379,0.2122115226812099,-0.0649603445681236,-0.29333087970453686,0.3157388129746217,0.03646104841226805,0.29012766210964824,0.09764187634999477,0.037946595768064695,-0.40400725354576716,0.2696367924991284,0.48062405677329334,-0.45404987120153817,0.1201097723704827,-0.17752247824914758,-0.1968098257689037,0.17831487395803602,0.3796419133459592,-0.01926514505412935,0.09891120301792244,0.1889872521139896,-0.43755023621834765,0.31565282562450847,0.11009521684212598,0.19166833377599624,-0.3342251019673118,-0.34711286342623837,-0.05451434594255922,0.2757052264981933,-0.1961920476190282,-0.24889398582814337,-0.42451400228103087,0.4248700692947668,-0.2579024976491855,-0.0427563184036267,-0.18307509281538814,0.37051598804020924,-0.25958485942842324,-0.2874906431056793,0.34829589366617764,-0.056682399005170025,-0.32166675504192566,0.4265413833810624,0.0036448185902633323,0.18265093503638297,-0.1538301914072745,-0.047890929090965595,0.2674199200479416,0.20562076323943446,0.3380635513742859,-0.17699759722197805,0.44273793844721354,0.4938667170213564,0.3159877735334162,0.25889516939267465,-0.3090628647704128,0.26037868992605595,0.23379527292846336,0.4368444397588458,0.29963497245880777,0.18020665687371518,-0.15601016924474864,0.38904457849197704,0.1604790745469057,-0.18866561130659154,-0.4428339294154794,-0.44750469074132115,0.49237760211974124,0.004423248829133808,0.2833906827772452,0.029725989384412843,-0.458201225447316,0.3741312901567111,0.1537277870969378,-0.30897225185955357,0.14322348828431164,-0.43666554424653803,-0.04003471882432719,0.11087643798062663,0.08095596015743367,0.2483967382927318,0.36996100845126545,0.03876652401559111,0.39297036842135613,-0.07757274791470159,-0.19603753284233372,-0.11251197673167801,-0.33964096442297975,0.035151006504113624,0.3691003399162227,0.4734007602605026,-0.3183107546684646,0.41999300314207744,-0.19100768537109714,0.4972138354251636,0.19949264848384252,-0.44611527967502795,0.41728756953420676,0.1735199957228083,0.11381263274635511,0.24960917197564725,-0.3539659961559698,-0.2777046292939904,-0.3886479451827566,-0.1071343635123081,-0.4790506837812053,0.06789274000854872,0.06523522180420138,-0.2076348567644345,0.41452141193592174,0.1960602238764092,-0.10298665840775711,0.3374014945199245,0.3086091877508004,-0.2959795163375173,0.0928077700171237,-0.2989136975181754,-0.37888443940737315,-0.49057439659481694,0.3260702493710701,-0.2249636505948025,0.4389728211369033,-0.04340495122026222,0.028530668421108185,-0.08699697967614695,-0.19364342306110094,0.21791141766815803,-0.1715801111733013,-0.2666973504606651,0.41076035546262113,-0.3170850067790978,-0.2374927004869618,-0.3123960696704855,0.020452981536879133,0.44987571532638304,0.48317512265013773,-0.22727990745086302,-0.11695160969088447,-0.016633784996554546,-0.3209528810253399,-0.08133491602599707,-0.003561868027301851,0.3057638995154539,0.18312265069668265,-0.4888665285025867,0.06373581072209289,0.1574809315466852,-0.06290554033766949,0.1821362824263265,0.12864975506904652,-0.4864197261843335,0.30821756135187506,0.15207594947220482,-0.22387171531251693,0.11728474012222978,-0.32591582584544043,0.47776532457071086,0.09043952518725762,-0.31675643830981115,0.3659453836691443,0.1964553426208162,-0.47479511313751854,0.19883325242505,0.2455469249387633,-0.1603294374368015,-0.23902924234482859,0.2572225569705078,-0.32303974956683135,-0.1780256623716474,-0.4992455818439254,0.2478220426072294,-0.47894861392738275,0.147822843622039,-0.015419056191276037,0.16711972866561686,0.4943767895053487,-0.4691720344240434,0.2213345330498362,0.1507867932902318,-0.11229626945606852,0.3068954111331764,0.02060478513712194,-0.08078903393957593,0.25119262619110416,-0.3307276770318073,-0.048570076333932066,0.34095525587078546,0.16436087377667086,-0.21326655186867527,-0.23476910040477494,0.26644597595561914,-0.033130665763482336,-0.35366590845220347,0.28912062554322704,-0.300182715352281,0.3317830930288913,0.43919808456660747,-0.1409618157676935,-0.49804610039339015,0.10234240752299584,0.10024017625382886,0.29548246290942193,0.08761639714156877,0.13297011082348031,-0.11624228255003621,0.4635224326336582,-0.4881547156963838,-0.010823907984351289,0.20109970997737092,-0.3934039739596019,0.049275381914732685,0.19393027813952057,-0.3146362721173872,-0.09941141877227777,-0.14323009046144652,0.4099973463787906,0.23278389440373626,0.23710534213629597,0.30830330661633365,0.10286429257611507,-0.21448897055002436,0.4114674097833573,0.4437183363509061,0.29660871549273193,-0.007622999779671957,0.20206919617255237,0.46284020699782646,-0.18410771401276071,0.2355560966978979,-0.3274748022076427,0.22345191012694443,-0.259559598138724,0.46716738242871225,-0.09772266182121969,-0.10390662696784125,-0.37298342106778004,-0.47536237858099717,-0.029017781611583082,0.4656186484361977,0.35730725208996783,0.36268753097697437,-0.25827352586384833,-0.25216290742574743,-0.3451357243692985,-0.26878108875022033,0.4594607083281307,0.11538219569268127,0.48757814799913546,-0.37818428244568814,0.21615881873636722,0.27652741989437846,-0.26784677466880524,-0.13800362676795408,-0.3169960828341992,-0.1105502738703884,-0.3609380373796701,-0.16699129655809897,0.23054906661704744,-0.05671791028559592,-0.13259632864940096,0.31059683961469986,-0.1063399943215445,0.42506807597634655,-0.33795095791501295,-0.03695440753385737,0.40773149578491674,0.22182013030279013,-0.08196447419467268,-0.1909161998182951,-0.015042466443167868,0.23335359412863166,0.04981583764060449,0.45362892511880437,0.3596691643336636,0.019044041154816727,0.0027488390736241097,-0.17943439197334565,0.18612191935540479,-0.052362088740371515,0.22796311348466458,-0.17140074228431346,0.2552766167809585,0.38151095998091233,0.26750975130671717,-0.4898432322904922,0.12496186371110152,-0.41186403807286576,0.04431179269147767,-0.20584896889314874,0.18033031248221032,0.2439535626828776,0.03981287121820021,0.42056701986376877,-0.21197677623411915,0.37653948374162693,0.480106091544072,0.1773986499935224,-0.22216215871458367,-0.4413338266630459,0.23262500517218898,-0.047722176442347,0.08666865551560732,-0.15403761856007891,0.3930012933800916,0.21819820178776883,-0.36936798518859193,-0.20660205824987043,0.4070727455550447,0.21143879571026203,-0.10288002662134432,-0.2893404046627649,0.4307403469343909,-0.3613926365628779,-0.06303227228403596,0.1653902309191202,-0.13714045123104246,0.09235338174669971,0.47297363115694135,0.27047690387542245,0.37274263551067366,0.2523071184145145,-0.3418291842183798,0.3064876575750457,0.40492397342546926,0.26291357505757607,-0.11942035756141278,0.010375781753742541,-0.31994534692674625,-0.18475435592023326,0.3776492222410991,-0.4552893077714034,-0.4728223669249879,0.24492393717638994,0.07284797201229243,-0.1627204055179634,0.31303701558800123,0.39218940201349173,-0.4525055345019401,-0.4739951535503789,-0.35360121781053366,-0.1346843360654002,-0.009835328277633004,-0.38901375375248237,-0.19532264387901332,-0.010350848397689849,0.18458806917274406,-0.11217297002724813,0.08044742949573769,0.2241010994211432,0.3931929778865171,0.2504012185501092,0.036577562717513556,0.32883175465790926,-0.0523617211434213,0.4032312776415833,0.3479513167766265,0.2856442665337475,-0.260141961547221,-0.19125735125296994,0.040146532783494115,0.0011842742788162886,0.24247169542116676,-0.020631943133449404,-0.11870820832211726,0.258920037541582,-0.0738320357326464,0.46894978008898824,-0.22586152632101775,0.43717102686605935,0.24038574061643503,0.030819114241052326,-0.05669736598513586,0.3428541704353837,-0.32677221433259296,-0.3744890502780741,0.3351179325860596,-0.0658455431578363,-0.4127810036301315,-0.37309365056546817,0.11583970388227693,-0.3978940156836649,-0.06533474603690481,0.18599018538405232,-0.4461099347496922,-0.1901796816123793,-0.454080279633573,-0.0785984480069587,-0.43667218264740615,-0.21898542932527298,0.3305895068844772,-0.028426935832305378,-0.19883706207088903,0.3175120184596224,-0.3625358867852112,0.1391793300733386,0.3955365524781508,0.4786574372826259,-0.33009074429782237,0.229237082047125,0.35659540426548675,-0.3401166562145892,0.3132589533571668,0.4670400046495039,-0.271297428787699,-0.08616358644478972,0.39676495218352537,0.005726255024033011,0.34948608056316444,0.12137634976646983,0.3474235377864914,-0.06074155790598623,0.29921208105019614,0.2132500823049711,-0.25661635787402903,-0.39545302221061507,-0.34305649743040634,-0.2762737858856904,0.37963524135467774,-0.35390205047749923,0.46796195259428275,-0.13934112086152262,-0.049711997739381286,0.2645200015452255,0.25761057747581306,0.006687048071244761,0.4108214575297485,0.004981235924755634,-0.2069034476635363,-0.038059606706631666,-0.23822110360142235,0.05760899843210798,-0.07939500128532351,0.48702682167116473,-0.45704579863270556,0.2748830618596645,-0.3140958496815637,0.4254804666402604,0.28514909078438366,0.4890666310961993,-0.24599365194878842,0.4775110779515406,-0.15638192623448077,0.24410830352317603,-0.21353251087887004,-0.20826148060845318,0.2862200601745184,-0.1487975734326249,-0.1192971361268127,0.036866502062387285,-0.18311327851587245,0.2784343072726312,-0.28297989113336997,0.18697699833157544,-0.21390104261033016,-0.38522738405578516,-0.4069402648024616,0.006962338969923043,0.1909908246940103,-0.10472629171769998,-0.27219399116385024,0.10004960761007253,-0.4190694946814665,-0.3973506414616138,-0.07786360388654623,-0.122542839246775,-0.3438200458241142,0.40306408467154375,0.19128866326483662,0.24216276247761037,-0.4538773361939269,0.14379075820553855,0.043155916364873814,0.12498299947277014,-0.20544251478927666,-0.12800805082414024,-0.2684623297793566,-0.4079839384136237,-0.2709814899377786,-0.3401074998277325,-0.40392891738383296,0.03017272035914975,-0.4352564121137371,-0.150334980005851,0.06177999940722101,0.31573289571419483,0.002452238242195981,0.42533020341006855,-0.30655940480352784,0.19143296379033103,0.26744199753900477,0.1636032130230588,0.4664667759959864,-0.3391723026289877,0.33706122359662294,-0.22901040324336785,-0.2556896403449773,-0.14342018321409244,-0.49931364640145726,-0.4918129982281513,-0.40237081126105023,-0.21307403374059453,-0.18202760209776825,-0.07469449313064147,-0.22227135443456603,-0.4197838081577716,0.1229248759500855,0.366834399719829,-0.2607735995167656,0.24648555936809102,0.28356910573185246,-0.4467419484865651,0.4205577336656062,0.0520963890379641,0.40950434718068596,0.4073126278554382,-0.0453205794080751,-0.26873277975177046,-0.2476126476625744,-0.4666913234154503,-0.4009907309826295,-0.3381156169927957,0.05126048299860986,0.2664514734347947,-0.3445933109311644,0.38167484890546066,0.012710938280126927,0.289319756014226,-0.0874784675135295,0.43626751165460287,0.47045735606556416,0.16737054457649536,0.07605006637369194,0.015853719564682733,-0.35891295851925076,0.2691384841891007,0.2192222902819646,0.40978549569449496,0.4396805382935849,-0.4768130674635864,0.2762364053301305,0.28269357662368955,-0.28480392128605003,-0.24818982666775602,0.2620804520564688,0.27943810598591956,-0.41658247327568054,0.49716791877608324,0.3583963045821972,-0.05119782830986119,-0.21981758178998068,0.28002008133847023,0.29566541160782,-0.0015173582693855936,-0.22770148568966908,0.3227287147097877,0.33620868048171193,-0.2875050312017614,0.286772017609088,0.4478442177975548,0.178864872676205,0.2062302842139817,-0.00282638296493809,0.3912535386391892,0.4789924139684314,-0.37015321796122946,0.11614675555235665,-0.09805976736798616,0.28079067784378764,-0.07131849704626358,0.3728543049104114,-0.12595836620364576,-0.08419794159140215,0.3371933029969434,-0.1060284778425048,0.06250911485351107,-0.41814714968998323,0.006498326814362132,0.14113266088786802,0.42990456625881346,-0.3309869258977185,0.15082112737984843,-0.17446859916065482,-0.28833649211377865,0.23995108342350324,0.09012218236854452,-0.3416508707814524,-0.32554410438405845,0.4830710987427512,0.4750455905217532,0.13509843392968546,0.17658946891683913,-0.3996968582864935,-0.09626950792459865,-0.45439766146745386,-0.4599306968676037,-0.48674332685830557,0.04310426218482344,-0.4529367485958439,0.10775956272418741,0.3857980988891916,0.3328960332670192,-0.3738399797794182,-0.06798273299202251,-0.31850440297425175,0.3552012406848922,-0.08837014569368706,-0.0685033024367303,-0.025964639446752757,0.08206875867224461,-0.24635462500516547,-0.164625889644186,0.23494732957479958,0.19245648146256022,-0.21298601066555123,0.11778772773350865,0.4358131770952224,0.10767534560248548,-0.21868715093909663,-0.15930177889624408,0.31682597732674445,0.06921223635369189,-0.004567233935706239,0.3140410870142397,-0.3426246144611298,-0.38700167624186343,-0.34565972795918487,0.11795501794966401,0.4914495806758904,0.37976471902113007,-0.08564418772547333,0.4322532790219592,-0.2003019268223849,0.0858093479902402,0.4031356856637065,-0.04934667285712413,0.35043793574075777,-0.027423995774892296,-0.09545781048571678,0.09703526368092608,0.03455465329158702,-0.3534218276753519,-0.10091283127759232,-0.21576750845425308,0.22897710951729888,0.252658510838622,0.14797444276398686,0.30893131514080285,0.22578892297866826,-0.4594229051850758,0.08370134469850299,-0.35497783509322645,-0.419042232211145,-0.29357669160885125,-0.1471929081154958,0.007126409402017364,-0.21524522646844424,0.4022945051958433,0.03342084926515798,0.33633489897966307,0.35597723599286923,0.40214602188266024,-0.2076640136242699,-0.40479925030660646,-0.21058374273191116,0.4283499716486304,-0.2851616221909161,-0.43109530805145446,-0.18710151972982259,-0.25036046178307203,0.23350401781483,-0.4415343878955791,0.04619796529870257,-0.37078340330195847,0.011631268062954558,0.19873515146570364,-0.1827945010713582,0.360549228650781,0.23675543576978209,-0.3576525569806479,-0.14265662636082788,-0.036735313345737985,0.21950674618468358,0.22859745421879585,0.44909847385416934,0.18054441736950577,-0.06654522618679104,-0.3212095859559516,-0.03990389373654435,-0.3458851247955558,0.07118356951728588,0.23194687598614971,-0.44544403042414105,-0.29905704859276394,-0.4901223364995212,-0.38852373097132553,-0.12510950555146982,0.02107566823958651,-0.036234433427191126,-0.1736879182559864,0.2908222591519386,-0.3374387133308937,0.36323810072162643,0.1823013377566437,-0.023255385248439286,-0.17143081395154347,0.22421193109072968,0.37312448819900157,-0.1160530157295857,-0.2951492641247534,0.2937166944145212,-0.26599543026841954,0.4033049962298044,-0.3922878955598832,-0.4231469490865344,0.19319463114288893,0.3018101858869926,0.24578895461132366,-0.48179485126557664,-0.457500272359985,0.25187630420818374,-0.49132868134878016,-0.36083740329166036,0.3008517831730855,0.11067885443350678,-0.33195919097860116,0.49608881864563914,0.0006893325012637952,0.492896873484832,-0.31201052481862956,-0.45946040859538595,-0.4952210346551307,-0.35634460502730203,0.2733278499034554,0.16000384262346434,0.4688332458833774,0.30900661948931707,-0.07082998807950036,-0.2716108746525453,0.41527814959365283,-0.028658345708357458,-0.45718909442494415,0.20065781791952886,-0.2835069917963775,-0.1697131401302162,0.014879479633915782,-0.3743033985603369,0.15755304016797733,-0.40415307800731026,0.204642684084415,-0.3780005952909937,-0.20823830290011758,-0.17274493560620963,0.3438297215904246,-0.2842635139882088,0.39379654544909004,0.04676117480789388,-0.08200347412841202,0.26596172941911966,-0.3854497373717226,-0.20124223431804278,-0.28155375916889946,0.23314931070075517,0.48980306391591355,-0.48825233464970774,0.2389267899566534,0.2444165771791439,-0.46595726515887215,-0.008051819451334818,-0.2773058997659986,-0.1987876593044462,0.1523741567552872,-0.4016818518623225,-0.46247708821489986,0.34390738664572573,-0.244882445817874,-0.04400757417083534,-0.36826931639597316,-0.1760857495668361,-0.32008831772691115,-0.42046471685399667,0.46224844321192904,0.45675004914342143,-0.22480357458007016,0.32114806695343145,0.3240327570648045,0.2663583305989987,-0.38838364651713253,0.16289742095265225,-0.026223021467296825,-0.3151663780409907,0.3008556395663734,-0.31932781605972693,-0.1799974345940657,-0.47466522688578106,-0.05126626403755841,-0.3639793581324158,-0.12207710731534316,-0.27461740504206167,-0.4717060047891408,0.09837149353280361,-0.4375556458637829,0.06542166905913216,-0.34239740759947845,0.1251782271769455,0.08217762302682285,0.14817630470626997,0.248711301742777,-0.18690070526499003,-0.16481051706760952,0.3781637479243898,-0.44288029815139296,-0.25485562027791364,0.09127038162402623,-0.09483241694855327,0.3603153720255766,0.36497901792537324,0.023836942027153474,0.29410456948068453,-0.360026482086095,0.025482639016688458,-0.05380299930626009,0.03435256002136389,-0.48520633467532237,0.3043774052222157,0.11098653829440364,-0.47683329510056516,0.15314480728036295,-0.33841345530388034,0.17872907167780783,-0.06183293094710596,-0.01951185535915778,0.11991369331460022,-0.42838343969220716,0.1571186629763882,-0.005203290843415198,0.17438543375677606,0.04067051885148798,0.1552690880416916,0.08755444629207665,-0.16267767749922024,-0.33865608593549446,0.17259510060614536,0.2929632790444622,0.3065623315660231,-0.1864749472752525,0.1620434837460989,-0.3880074346091147,0.09854399129005764,0.17012296848977804,0.3082695330046644,-0.40680520052025715,-0.07619154477246248,0.48263962762923973,-0.37689657143056376,-0.166825972624971,0.17966619412865115,-0.10946130340108318,0.29424193906708296,0.02825493516804589,0.00916109621234229,0.1820470161330594,0.3263377429618809,0.49733890649017654,0.21049158411381153,0.1455241250219812,-0.021333195817130113,0.09877580950031306,-0.2768143069565834,-0.007099076177096819,-0.3957630000507474,0.15472865446195994,-0.21646098798901992,-0.08437606821715316,-0.06232395045282446,-0.016316979751117344,0.2208216181427276,0.13715349058406145,-0.17677959172464974,0.14603006351580172,-0.3147813664925776,0.17258733107589763,0.33791325511479586,-0.43262261987746375,0.14043458302951606,-0.39065442349759727,0.4419484671746573,0.11512461745596447,-0.33016307888262786,0.33722298023808417,-0.2911595187922774,-0.3841552992785181,-0.3948034916144523,0.037968070454932557,0.4057481536244091,0.35564043643044363,0.19796072234141415,0.4563966445680857,0.12140580961524983,-0.006450038973932148,-0.16611625136617703,-0.21556776198701755,-0.3008629277219219,-0.21215772722388038,-0.19661540368284303,-0.38049985303065226,0.10932895648375263,0.1987777139388377,-0.031056849522896446,-0.32198592948256066,-0.4599397787435332,0.3732456101582148,-0.07488849710484258,0.4166951878108589,0.13969402283588672,0.21166463496866095,-0.09497776491662535,0.355199851582801,-0.1251858534308311,0.2561664401859479,-0.12380416950376871,-0.12654698547108978,-0.14989044696761356,-0.05683750231594442,-0.1056854086371567,0.1578829905480078,-0.272070655898628,0.2655165456958053,0.3265575983760116,-0.09495135058440096,0.37963901624411756,-0.011873836824190964,-0.040966966244417646,-0.42605758075374056,0.08893521510595714,-0.10315456076995477,0.19680469340508067,-0.04018806260313712,-0.06565247215745429,-0.17534882587566047,-0.1299955924327364,-0.0873745445539088,-0.410385666377742,0.0917194420978561,-0.2172525058346767,-0.213272273288448,0.27473834979520895,-0.24063387664353708,0.44477829270362246,0.166074997999356,-0.4642371108059721,-0.18566729024917106,0.00857759965199778,-0.1651806675009414,-0.40706551819961057,-0.17793237858846844,-0.4681048572254606,0.3421971632025178,0.14250503537891324,0.326243596325681,0.29491344554425436,-0.23759795513154536,0.263942618907386,-0.10896309585245656,0.3849701396151063,0.21617241869234727,0.2280287408175934,0.4845458797071466,0.15183069078198708,-0.3317580440845609,-0.09876322698977869,0.05699951367148126,-0.23059857487242275,-0.10813662124501311,0.30542958134293874,0.28382496322465134,0.24394198142346923,0.011191811361439097,-0.4520729505156932,-0.26093804471525284,-0.10701144676532437,0.36899530003637704,-0.007422848813426586,-0.01522599191005325,0.1187631099591796,0.3728047061829075,-0.4909083882208396,0.30676373966764114,0.02938578654214863,0.3293028953371263,-0.3761591864315392,0.47738622319571433,0.21065574788693553,0.20597827234798016,0.0793053852316874,0.3120981055476897,0.3231550724564419,-0.20845181228328225,-0.06115952565353633,-0.024692700395600897,-0.06972212864521454,0.15268564768653325,0.387679288216107,-0.2669813874013294,0.1434566842834707,-0.41659818285587935,-0.15661626679223695,0.2719251042661882,-0.29704255426859216,0.1594320309264834,0.17115880739537193,-0.3167919468206374,-0.08533722065246985,0.4722279659697979,-0.016541331370884538,0.06082146744108852,-0.2408235633799818,-0.17873014428757272,-0.24498357052044917,0.14476442960513958,-0.22187131071992183,0.3282012119448081,-0.1306433205912878,0.10609053047007622,-0.47244591516564416,-0.3135407254081538,-0.05012625962629158,0.4395790321451738,-0.3895971034439719,-0.10622378840775726,0.3292779629251089,-0.11219024926264431,0.34234428643847326,0.14720175061126084,-0.08123188065199205,-0.40298794706048835,-0.08152203948399928,-0.23833467391261787,-0.27837673364639703,-0.35930907757740527,-0.3789205766879623,-0.058839447296040404,-0.30970142090446395,-0.05308314084512944,-0.21657155311074416,0.025050903452141116,-0.42631301967598756,0.4715979739724545,0.14647858532697355,-0.008341907851280417,0.4779236789481034,-0.05039169707023028,0.024477348483301187,0.2760562310167838,0.4003735994587099,-0.3271405597002972,0.280007717175107,-0.1539649979167449,-0.2286237035557228,0.397742880383839,0.11326662019282763,-0.3278521401765805,-0.24442361555568048,-0.22174324905795983,-0.3704970717361836,0.38714430794329857,-0.3472875879277514,0.28174291075194735,0.2650253536556909,0.24534680076297477,-0.1973264675112789,0.42748098174757687,-0.41109863783666545,-0.2875208446162787,-0.08042427895091209,0.26252931067028795,0.13391179224933025,0.3137496018132775,-0.33050619422937666,-0.43062499319266867,-0.4387568081411475,-0.35740190127592775,-0.03967961978918555,-0.3264352669690611,-0.12033164492064197,-0.1876420646946969,-0.12540032870462958,0.24600810664065254,-0.24176238530451133,-0.4411812984490534,-0.046105450461271014,0.4652876460561023,-0.4646427944184376,0.12678025947564553,-0.057972700937615085,0.44912504464718495,0.012547401611372244,0.020425816740553215,0.19329765528304954,0.49321697650081575,-0.2877832473279135,0.34788575133981614,-0.17687153477927275,-0.137204780272009,-0.19755047944001947,0.08392684798579564,-0.0631767149154786,0.24368123355723526,0.2429171131986636,0.43396493809440995,0.3321233136243006,-0.410142480024531,0.23793120523418732,0.4837509347846223,0.25026162522967643,-0.37525977904204366,0.4504124496355628,0.46663012429259454,0.19219416840590053,-0.015657332910027577,-0.40142778477299457,-0.1385648349046894,-0.2907676105094047,0.3366180790751,-0.3324670270707645,0.2947280118388246,0.13997805931919005,-0.18988503916413912,0.1968711983514837,-0.4661375378003877,0.39124077860793094,-0.2883352820781633,0.05882376076922757,-0.4345680810047544,0.2870260517174843,-0.324854585688383,-0.1904850300203076,-0.38525495156879264,0.3951448247446676,0.1808593591913359,-0.20808085692609113,-0.33519688326462815,0.34910611802938407,-0.47399703903183266,0.2957375151638769,-0.05954329375755496,0.22962232227083412,-0.11790968545909242,-0.10812975680760506,0.013434710821833784,0.09486411714552223,-0.26875236027750005,-0.2520184365059883,-0.416230402923646,0.4111139128878005,-0.41412126164172225,-0.42728477004370147,0.01522528254714417,-0.12845524405422082,-0.04352017252794571,0.0952565580796988,-0.24567597663775986,-0.024836905592148684,0.16725661273499082,-0.21473167380564817,0.467640477265894,-0.23208013105447367,-0.434067636135526,0.35598305219440085,-0.007319601818937538,0.11864785484844653,0.45437518963699297,-0.23728553217919945,0.16475792729265426,-0.06316620874299705,0.20061507153896707,-0.0990995434340578,0.4646408830294786,0.31577951415647443,0.4927946129348205,0.31905921374651525,0.4731423362273752,0.03707191390143516,-0.11180006666855302,0.40302081589886984,-0.0660642805737971,0.04022978697860269,-0.22870077141342338,0.393884542715371,0.24185308466920907,0.42612659756807325,-0.4958611310589559,0.05755660101040183,0.31338255692900185,0.49922536169064324,0.2825570798855914,0.12476364431286802,0.47976771571586974,-0.3029919934380765,-0.46943055695474467,-0.2394135271796376,0.2236624201300066,-0.2889764085528329,-0.01499055039284436,-0.03206106975404166,0.2882968182634702,-0.3625356742773115,-0.2244697378157431,-0.3076040481361385,0.1607146521068492,0.20295519745396773,-0.2184089234816179,-0.27917637983016386,-0.14851386412852674,-0.019076658865565532,0.2702235151873179,0.1740498345190925,0.06847454374296336,0.4745067513378718,0.1048087612091213,0.3427590819643913,-0.0950668306315623,0.10082921548685819,0.41494947032664586,0.43072884825518165,0.2124214102553409,0.3036637252031609,0.3937049713749735,0.47579859730670304,-0.0384844458217487,-0.03458928048943688,-0.46603019040203963,0.1898602384175867,-0.10870592034960358,-0.025771961721435144,0.2583355100368242,0.23061348109585977,0.2730434541569937,-0.04200055285648219,0.028949705167682804,-0.2738469408659172,0.17307706198363393,0.2888883824834396,-0.010688571624247967,-0.029142395455559078,-0.39248769250673676,0.38399342225690747,-0.34794488986772587,-0.08076394199314674,0.18455464828044776,-0.32947047498591775,0.36434718053422466,-0.49082846707560823,-0.2951357875426137,-0.17014875827711484,0.03104706200501417,-0.34617402387300333,0.11447140026888392,-0.26208938218114997,-0.4988386619939267,-0.031325593871400104,0.2331138976097583,0.3651218767606519,0.21042358270538453,0.28310159983424643,-0.20394518501576975,0.17516176203769607,-0.30924097104838455,-0.3165361076487624,0.209574371868134,0.06469492135272048,-0.10104238946576294,-0.17673795191549768,-0.1767863153161886,-0.48359622361574617,-0.18380553139143185,0.24628763630811001,0.4473504177327794,-0.2227883391083868,-0.008050364113492692,-0.420962365751241,-0.025672450463348095,0.08716809822822835,0.42022434875455417,-0.19116692737420682,0.4063147485902292,-0.05882252743586425,0.16927382591244944,0.08486567963196567,-0.23844344735317025,-0.33233810932480523,0.47100412013578985,0.45227683224402015,-0.3494368602364515,-0.2232304769273391,-0.2162910145149851,0.4019623043545618,0.00062798116073981,0.46916164442843966,0.0698511461223783,0.04780274888328229,-0.45166262180318173,-0.10103070909800782,-0.2923458023659513,-0.18767329984856806,-0.07476657147580401,-0.059650112241201425,-0.3699778723103956,0.34380216692646337,0.01420227592379475,-0.3757148580219044,-0.028926559555765174,-0.09882446952131929,0.19465574894784754,0.3230524849895078,0.11776973645639077,-0.22996417363492372,-0.1696594305566398,0.33444502882015037,0.3823109951860455,-0.3391138333831645,-0.4088419315739312,-0.10548960255177797,-0.45593375806323,-0.3061494554881793,-0.20261640273927362,-0.4169876339332852,0.3695643182168177,-0.3920267563862998,0.1544271462883633,-0.09739092400237559,0.12143166472732714,-0.17331191582076577,-0.3035102102757443,0.4828843103403665,-0.2744750609155713,-0.10095297631552624,-0.38579061213689314,0.06075737726881769,-0.39103784027129995,-0.30762131288258654,-0.1357150330096396,-0.4688241915638194,0.4503864419649227,0.3062721095440438,-0.2875668789814628,-0.09955975716844012,0.0404874616657559,0.39915228845428286,0.03172369038088374,0.13740194132854888,0.345062681816545,-0.24141419644585216,-0.019522528785573257,-0.0397274776780131,-0.2476438671432033,0.38861407585467556,0.24668609194013535,0.4948428067702012,0.3294962691984701,0.36545255379358155,0.2827439031521598,-0.03436296045950582,-0.23587217025147933,0.129973461146077,-0.4492186461429949,0.43062593722984277,0.047346565851908884,0.13059221469019855,0.18944446958788907,0.05138821341559108,0.42033261356806806,0.3411473731410749,-0.3507091519561002,-0.033843545052992474,0.01054455845642388,0.41371806531187316,-0.1348096637998908,-0.1370354276673973,-0.48140651707927595,-0.3253155167680464,0.13147447012609248,0.46222455030275955,0.22569348956438717,0.1632474962694781,0.15604195873025906,0.3744401092175885,-0.058141583629624294,0.0064715286898642255,0.3937779162552718,0.24497661025165018,0.29392078713661174,0.42312729357728374,-0.3014581642017452,0.1851043679607518,0.16993549125988694,-0.3274029177303196,-0.37491973358949093,-0.033378326362608846,-0.23890817409937293,0.3292513817289563,-0.10534620698781183,0.12280519979069127,-0.08080447443363947,0.18757742465794625,0.06709430469145217,-0.2296040934197897,-0.022601593659973718,-0.32346691800725813,0.131375868746895,0.08303075644285962,0.10658476606869338,0.04646099961957728,0.4338405594301691,0.08764672580126986,-0.3199563273014798,-0.48214281648043855,-0.196517325567788,-0.3812653621548924,-0.4685906141602689,-0.31405887213464334,0.2849278839114274,0.42518605448918767,-0.31362358026709536,0.015851089938712648,-0.044395210782159245,-0.1422293932463916,-0.01672365690918798,0.1425034643458698,0.0023301527477820327,-0.020607057578598265,0.151518078500123,0.3977529512989575,0.42040907542188055,0.21300126405023767,-0.4160583134411111,0.450649437979322,-0.3583759823496948,-0.331147504776903,0.1797680751461046,-0.3582277844422924,-0.33169907117838304,0.27876368969728527,-0.47267604093014515,-0.23444970781129637,-0.4867073622023518,0.46107132692754904,-0.07510186936943497,-0.46956515609263483,-0.3856008183167349,0.1292266483131692,-0.006444060277805641,-0.06284690686961325,0.34491078470124104,0.027692158217857976,-0.11640937127768558,0.028984802682535116,-0.3436035815378923,-0.3957962684416044,0.0787507822892285,-0.13973928018743098,-0.2536288011398088,-0.14125701795913193,0.10061285774323547,0.44116221484701035,-0.47882994833538484,0.1737293766978013,0.21607422888877503,-0.16375900177524572,0.05492313666938775,0.1278054281291886,-0.26854687071012795,0.044832026622907306,0.28408486035700875,-0.2299473580948822,-0.39054585229366734,-0.1512831129810316,0.09478107238658995,-0.0920823588103421,0.0010115183034372643,-0.12894961259873927,-0.44623343373031243,-0.39930425565078176,-0.34399804751217955,-0.03657660035022514,-0.2995208034508181,0.34690101859665823,-0.3065691339625418,0.28701055114711627,-0.43929764725184084,-0.08544334039120483,-0.27242166690547154,-0.19744382463388943,-0.3906401548143382,-0.16298916850803669,-0.24653680210048623,-0.16473689297024163,-0.12788621530624877,-0.34073258133633133,0.13164570987348312,0.4280219250332784,0.07660006475549042,-0.47589729759067423,-0.41924891779828577,-0.4593845188810085,0.3632840648025061,-0.4689975912305132,-0.3346265168464678,-0.2156974918049016,-0.450325431642404,0.06186927420087429,0.20468558442416174,0.13910243828785918,0.045705322258364656,0.48226750788792716,-0.06223837127027665,-0.4971335637909283,0.4314663484303157,0.09611038939703287,-0.08048793784180386,0.4819522658518218,-0.45932365040053824,-0.4813388409846826,0.16834800974221942,-0.17670869018450808,-0.2089578647829623,-0.34134369867363656,0.3642262807229152,0.28749119601521766,-0.497453494449818,0.3707725303499074,0.33974034050460167,0.07314675555283645,0.016948011855400624,0.3952261970029016,-0.4321197670457666,-0.39728119279983953,-0.1279014115424877,-0.4273727834463902,0.2501250929189577,0.1318198119663918,-0.44462455126611167,0.37414534528901433,-0.02808252438748937,-0.2524281127945439,-0.47915808482017896,0.10584100755247272,-0.35243335468202286,0.2278683359557766,0.1440880544370643,-0.38718998145260275,0.07815668321499902,0.4493397137804416,0.15637038877051823,0.24289972249856018,0.22404234888341257,-0.1257005543958214,-0.16069204316439256,0.21704222151931063,-0.2209252209660394,-0.46483795387026905,0.48064918300125903,0.19403692127771088,-0.05053964804681721,0.2251986177806924,-0.42840779429592346,0.3299738046239691,-0.33680881014428776,-0.36337085318846474,-0.19774725378174118,0.031001215848773356,-0.07032759106204578,0.16661480767803083,-0.17708681818953598,-0.46834418903632535,0.32522362360350265,0.43356532755346244,0.29616905630722723,0.0408529054588993,0.030201153303793027,0.4689050869934005,0.25655125334358675,-0.08978647133596807,-0.39302822028854867,-0.1892189881955164,-0.24924035478481454,-0.10969858564475288,0.19799179406582457,-0.38444082875015495,-0.29864179688765724,-0.10867763242443718,-0.4215911255206821,-0.3786557268403802,0.40363384756360055,-0.3937354510305192,0.38782009792701067,0.12520463300123574,-0.30684908186353355,0.06244819542438029,-0.3185045374323675,0.25672311254718516,-0.11575775199335081,-0.36758461266421527,0.2560738452429763,0.24400158043128395,-0.1484640173682803,-0.4462643259020649,0.12848200824572098,0.43869445299252885,0.4061378312807792,-0.3540661125388661,-0.4485496918877069,-0.3255698760373291,-0.4672977475717507,0.03797463960419534,-0.11484743537820885,-0.2582974902230599,-0.49460283467216615,-0.23663763488262157,-0.009964148713932475,-0.3754271081498569,0.1379280124162846,-0.3779761342353116,0.4260958081081605,-0.45068266563265746,0.2530265783431723,-0.4231844155481197,0.1729464185446291,0.1875316570112121,0.18016095866752813,0.05362619635977661,-0.009682310250248238,-0.1622414135745942,-0.3445557818272543,0.30865648764984965,0.4200019085126383,0.394377379611316,-0.09832351857853228,0.43603968064736476,0.15689135712860758,-0.10144171720100836,0.2601797763636263,-0.17743564136595324,0.36816767840364806,0.18897814453769846,0.20149312436856814,0.30721508161408817,-0.43147677931255013,0.00382862555500596,-0.018513567405759046,-0.15568821158842716,0.0650380713062294,-0.40213543135460295,-0.25298035005171005,-0.10353913830037342,-0.3250457034697397,-0.4601199685755375,-0.24334521112108098,0.0678760686411859,0.014224242282644295,-0.05547609402609033,0.36969490027003793,-0.46051885904087453,-0.056275005407667056,0.42251139327342,-0.33190164823362467,-0.2439767328386876,0.34203700383643987,-0.16979349054102777,0.31208096222151716,-0.04586760952797553,0.45024238625381063,0.2812895544569901,-0.09785249800876561,-0.19745643670598456,0.2060610852891549,-0.13177598134963386,-0.37494817583692475,0.4914506343927335,-0.14249963457034864,-0.4326395640358308,-0.4341302666329083,-0.04429384441795381,0.13734566004759774,0.26242520076894815,-0.4057151374714234,0.20135462656638936,-0.010145367329366772,-0.1282646254198403,0.014421756606613267,0.037335741405346234,0.11737271350769707,-0.04018414918064195,0.33500705915651996,0.4857807794710364,-0.491731517244983,0.49266333721104094,-0.17950120759048283,0.19726166501006648,-0.21175094967056474,-0.07877588880591802,-0.35547623517105076,-0.25778091280481763,-0.3837783107624487,0.3917788328321681,0.1682452172759782,0.04790798353029346,0.20406250519626634,-0.12675008515562836,-0.3905552429332104,0.39821359362130204,-0.3849892374102454,-0.1376576717437591,-0.10737627158430274,-0.01212478433002584,0.373974373007228,-0.358820356254109,-0.45172472359298876,0.09754202036797688,-0.029010112084749462,0.4023519458721311,0.44752145690247613,0.3392144622488952,-0.2483794852687098,0.17873299569722778,0.04834584671810016,0.3987248394868895,-0.06892536220887246,0.3827871410575997,-0.22131882692017613,-0.09211528393663326,0.22978370974046713,0.24593546365696528,-0.21013243298818463,0.3424370620669327,-0.2672333476575107,0.3492488671359081,-0.3210330083672184,0.38099246506735185,0.21457538625824446,0.2523933535531917,0.30468767978895694,0.43448127232998046,0.06288526286780838,0.01678182926786609,-0.25024678482152396,-0.20045399930522023,0.05359998159407209,0.1506757346739841,0.193728266940855,0.006044580713239878,0.33732769007801755,0.25764571382474577,0.4384236016460471,0.1833314330892305,0.39800334975450324,0.33644174622897893,0.46864823053800664,0.20029350538311352,0.09683428974516484,-0.0356499052862882,0.17633446569448452,0.2881317659146315,-0.12125600921554425,-0.373314723694254,-0.2636303385411265,0.223589298223701,-0.323562392665076,0.18737514278884215,-0.3804330787911483,-0.07735537736709186,-0.20965250138333535,-0.15877554417508122,0.4483509744515929,0.22478927398490323,-0.08631128942066602,0.09949612825655951,0.13337104258126564,0.35919286605730283,-0.4044337011085223,0.16625724283901988,0.08048333740361435,0.30134474118727383,0.34709238714228496,0.43789422572334435,0.4807476772162659,0.23128606760386416,0.005779615139470007,0.11713483153897875,-0.12041467524310767,0.48813661264236063,0.367801632291771,0.36950183478188436,0.029198450780186236,0.03400736542159255,-0.23492489322475252,-0.06946121405173089,-0.46323271743373784,0.09368604849519147,0.28092592016047335,0.2193781658945203,-0.38398135667419186,-0.01505579055110895,0.2943355575976643,0.4628763695112482,-0.4537883430002393,0.01870097700774953,-0.4267332184849518,0.05720983623718279,0.45153289138176345,-0.009755549280160425,-0.28451962963987276,-0.32032288107087037,0.11000103763569569,-0.10539281164677472,0.07238670614070286,0.4906371161145813,-0.11526582844921585,0.07209493818881807,0.39910727613577546,-0.34763474507047865,-0.1850625093233801,-0.23223851353008362,-0.023969282368968226,-0.045177460698152205,0.0390687044545911,-0.3105566575214933,0.021719077949602705,-0.25288658770149997,0.36973477944092537,-0.18599083691386809,-0.2931231873744232,-0.49126849017038143,0.42952867981110643,0.1805338041133936,-0.13407889979631593,0.44920745979037435,-0.4513349519549943,0.4269352406542747,0.44106104951641223,0.15666478204967127,-0.13560685059421207,0.4277730596383226,-0.054379244755393796,-0.3053584004509178,-0.16734892854420624,0.23011948505561342,-0.4734372961785872,0.3452233774558945,-0.029921747936394905,-0.4047201993315823,0.4735417440299754,0.45337923250077017,-0.03717830205462491,0.4348129682555819,-0.48347790478002006,0.13808714504045794,-0.24370848629147324,-0.4530721820371485,0.19100834122308907,-0.305614700287121,0.13449908714875902,-0.17981333201317673,0.017146005233323436,0.29633719039277684,-0.003806596261319184,-0.3441111989005884,0.43459499984084704,0.09635598274079571,-0.1538651587076827,0.25980750366679906,0.19364556289267154,-0.4049563669173739,0.3794151592228644,0.37289377823319736,-0.42982439082426416,-0.04774469508540591,-0.04500051587977272,0.4291646151972003,-0.3651590977387055,0.12156524049882966,0.30797440933616094,0.2537486420276095,-0.07790630955025912,-0.04766597905839065,-0.2499387961525178,0.11588957208242667,-0.3765394076007096,0.00032938078295241535,-0.02585670364613868,0.09848780866891615,-0.170181018138167,-0.14068451847358376,0.304052448788417,0.2021125181731923,-0.4819005317911923,-0.1375010683179826,0.2729948887550637,-0.29083644523520935,-0.1353554303150275,0.3563367366150738,0.261742968017343,0.1836507645188754,0.3368937395520506,-0.2502995678204387,-0.35352767024105924,0.1161406006951825,-0.11972922225314397,0.20968159647091344,-0.30529160121238386,0.1331007551224226,0.037380054028634646,0.2161664377573035,0.49338702760993747,0.4892237728673374,-0.3001425952735425,0.026500075732229122,-0.021737860042976176,-0.20541259257359756,-0.031597286452234585,0.42374138016744034,-0.418679522680937,0.4623374442608129,-0.30744248126608076,0.03301197630619146,-0.0019989122322567887,-0.06137035103960353,0.010274442413452212,0.1290151321229901,-0.19092288588750306,-0.4125565080861917,-0.4697006569487455,-0.31501203510724707,0.3923361289466143,-0.43685395576231645,0.252555061674014,0.48563052986124267,-0.2069767966339241,-0.11502811674592184,-0.17590127520420962,0.008477687835372172,0.057252647000070045,-0.34935000230242896,-0.2369930422053057,-0.048235730407026445,-0.1472201814354407,-0.2587934384435041,0.3977057110503177,0.3648266082951954,0.46075132950390696,0.4280798485381827,0.08885901403346008,0.3679479791619511,-0.08210378264069229,0.1339126116619599,-0.45699204785086056,-0.3386171979195858,0.09244999929522635,0.0828021690598435,0.293594834941565,0.08810962570032443,0.04181746744285064,0.14266975290882422,-0.06449088797568503,0.18501339537409534,0.19845423787995586,0.2024171651645389,0.09424419692305996,-0.3015762734790879,-0.39450059472037324,0.09788841404733706,-0.43625117251676515,-0.08581027809804087,-0.24102792300972786,0.2711866495015589,-0.20793582613380857,-0.0363976479838648,-0.05785620852837203,-0.23412123672540175,-0.48177025492525394,0.3325446162158251,0.31366763114126295,0.14668139734433805,-0.1418130964588682,0.3722023579881908,-0.20985187998010357,-0.3968545698585776,0.1648696627640861,-0.38311800142421537,0.11373860093715371,0.39051581679024816,0.2398927063353572,0.17768641014621278,-0.4167651150522794,-0.04909197571175061,0.007951291743936384,-0.06591268580306375,0.01929633393162855,-0.4450649141872315,0.2662095625168486,-0.31453193062039664,0.45100833787132844,-0.09686714717728862,0.25076475992267466,0.484475678094032,0.12975822911859713,-0.4306703879041548,-0.47682836736649326,0.38720790202936695,-0.3344684352413383,0.0761254849374563,0.1269005341152606,0.06784752238436764,-0.4233931324806408,-0.2890740983104394,-0.36919146883555143,0.007593066202333576,-0.060565636388765554,0.36269071025924293,-0.3225384733941291,-0.4729477949453532,0.2285364348583908,0.20303681594594747,-0.19452090133984912,-0.11564841760515188,0.30333407708735327,0.013111839550826176,0.361575919879083,0.36744829472539575,-0.11384344397271495,0.3062742497958634,0.15699168481088133,-0.031369827632887426,0.1472119469940032,-0.3379625796919774,0.4461231459181879,0.0007308570955040228,-0.16575396215723337,0.35363131559606253,-0.157493192089746,-0.051396506043033474,-0.26872732340134875,-0.19340843718454637,-0.33836146702844316,0.09479223757501376,-0.1791675591894052,0.4457888263117742,0.0708980724565168,0.004058197267242103,0.05607273132342061,0.20988729352374347,0.1975480310080313,-0.22381669794142323,0.014795334764710955,-0.14430696739657978,0.1401517486111078,-0.05254461681542111,0.41570073029326027,0.32455192335808536,-0.3947669096822869,-0.05874750814882279,-0.17679355335177493,-0.034125160393469134,-0.3383955648578685,0.07796205626328179,0.009162294970375684,0.4939892707399569,0.026107671038010816,0.17649383155838816,-0.281542824672558,-0.15202131532094454,0.2742121962864249,-0.09203642440129167,0.30953946533055143,0.09125662927959877,0.37754829801052103,-0.06793583191764407,0.10060603536819002,-0.32643010795780514,0.3068787434008817,0.28151992343124865,-0.015471965130865795,0.4853576895255699,0.266490856567257,0.24002310487005207,-0.15225451911109222,-0.15480457274837967,-0.457820908264685,-0.3400590298638002,-0.23082021112675644,-0.05479451540929903,-0.46250779234957473,0.1879687539729301,0.26408419163520147,-0.01721061123552281,-0.06428969090050807,0.026566389460593753,0.3935766154833602,0.25146267964668856,-0.12098387188001858,-0.07679353871998706,-0.4113178436836752,0.3507760813371077,-0.3625816628794505,0.2527663282228533,0.16112016923220374,-0.35420135173253,-0.37323422067490764,-0.15229156765679064,-0.18607815764656688,-0.056081744167903236,0.11846763487490275,-0.30701263055973105,0.4010460092566178,-0.4660775043222166,-0.07077431245025745,-0.454940948034117,-0.12041744438954671,0.0039641057664818735,0.3380051701716219,0.05710243062088716,0.20228364421274558,0.3668347982841389,-0.3179582960148385,-0.010859564808922695,0.28048250205569514,0.27351652315336994,0.02172117807975593,0.08015850354692489,0.3692975519816304,0.4882748181632217,-0.366297692401906,0.0901690610807988,-0.20027226615850724,0.08511458759788548,-0.230109742261985,0.048921242118380115,-0.3293388226813946,-0.36640146922254024,-0.2363371176352218,-0.47095059304798925,0.4374490545131664,-0.08867246889152847,-0.20102649850651788,0.32859230060789735,-0.03332285514932287,-0.443355258308639,0.4257104125526764,0.34387826872320126,0.3049511058272204,-0.30172629354790725,-0.16503139445811055,-0.2953641677206291,-0.2715272063806109,0.3774871876564653,-0.13498737818567208,0.002563121246325628,-0.1472578179225129,-0.4201732624333194,0.1470615871602271,-0.4096953462701668,0.10593052419715077,-0.38580285339262455,-0.2766951975029739,-0.4078056383475489,-0.07915161990888187,-0.4570792266422644,0.23736522908732005,0.3188125480145182,0.4790244919661618,0.47589812101744633,-0.18313403128074213,-0.056973030781149125,-0.4290826390635828,-0.1622062055714769,-0.33617307734239,-0.04817012085019323,0.4787063783508215,-0.055039926761538016,0.025123826789235304,0.2676689446390228,-0.25280543078098194,-0.194735671690642,-0.39117916940470865,0.10180247484713734,0.029504730011318037,0.3524009440103356,0.4820386841447587,-0.25490935204084053,0.3398744150772528,0.2954140798232404,-0.470395801524754,-0.3733326810219333,-0.2600890640560696,0.37490797138956433,-0.05341371920917193,-0.2177581153341338,0.0542228408108717,-0.4748232044455094,-0.2401999502340465,0.19695241177061484,0.35927843758334055,-0.1842168147911989,0.29159566780235047,-0.46184807787882354,0.13636680786484612,0.005069434759059743,-0.4430694110856259,0.12905314271646262,-0.42352454199400924,0.18562996237783824,0.30960767837933945,-0.2514773823045313,0.22876719639996523,0.49364860849057357,0.04416725614576256,-0.10025486549586637,0.24485194161682033,-0.03096503588433197,-0.4165956524816359,0.3972210653286756,-0.4335166753216939,-0.34029808087829205,0.17490151063564285,0.13197659616823953,-0.29696215401155446,0.2721840322487017,0.04893134514947928,-0.07898498646926488,0.04697340316134102,0.3291719571874546,-0.18581504414585737,0.16791826418088718,0.4265215971808659,0.06400809463071866,0.18512093297633614,-0.17150839524991335,-0.23167161195984842,-0.35476764180680953,0.007891150437524308,0.36723500022988875,0.35273938831627294,-0.019537810873913264,0.3856128570171097,-0.39961823158506604,0.39906170093189397,-0.12651217458565756,-0.23921008080281203,-0.4408502073430093,-0.33911511210712786,0.05035903504771044,0.004877399624306777,-0.4482547322741175,-0.0987476199422247,0.1449153928557001,0.2952244917757614,-0.49350371087565115,0.46472117137693203,0.013039258138580201,0.1905994776570512,0.41417946186266197,-0.13752186655650978,-0.38732078128320313,-0.1937905764678679,-0.2320106045720689,0.2738876067402052,0.4020178703020555,0.0527073122304067,-0.21080130904637795,-0.2590149839826845,-0.10703499494827118,-0.3303637203642684,0.006161575547780962,0.2698679415713998,-0.37054786057980305,-0.14962913752109652,0.18922381482684902,0.31659131047638567,0.35733030610447136,0.15375071769558601,0.036517557853124605,0.030754136360511164,-0.32966982430639147,-0.19419175561161184,-0.3938414352839753,0.1124999217184347,-0.10701449428708121,-0.2637169468619385,0.18580273501765487,0.25455246734127823,0.17420496317807665,-0.00027193822614568486,0.4003155864156088,0.08134118449941352,-0.34822818189425875,-0.16128931838230398,0.2936044243447702,-0.23763347807254454,-0.28250216625084257,0.10051360078391958,-0.46385782706000933,-0.022143021997093504,0.3471307345225709,-0.2932445028137425,-0.14528950768163584,-0.24069531113305764,-0.051153048554222647,0.18052260528048547,-0.2655409679532268,0.38344718746045103,0.29230733211404736,-0.37715793537078623,0.45799252676316005,0.36160966997818567,0.26650373715726416,0.44126544820725655,0.24536957003859206,-0.36763494979501876,0.322770806391111,-0.22740025111623086,-0.18672183410684318,0.2782527821279245,-0.3832014923543473,-0.21463196353461567,0.2979513117215572,-0.42998659628385194,-0.49546765986596997,0.22510567291965622,0.2822218711598464,-0.2727669278858217,0.06444374925353935,0.14156028870737491,0.1950267619810393,0.34897212583320625,-0.008558234122494457,-0.2571843545525987,0.1639161681265756,0.39595918883783443,-0.39466666923085214,0.34642706270864476,0.1501055530804053,0.23551521157497068,-0.0156387984255133,-0.4013885092005388,-0.1980522295497431,0.26132955827492754,0.45138333882868586,-0.46234200545947435,0.39759468190511216,0.4720195455287157,-0.07544399430335058,-0.4067793720469719,-0.3135159631872124,-0.42846284501797693,0.07013059378691244,0.04845640052828093,0.23112859599586966,0.2224187563922001,-0.013313888622965231,0.08343617867373287,0.370166134518488,0.3758420743386449,-0.04384972470588788,-0.1100944511841695,-0.4324201319059928,0.013316612001902706,-0.488377993444957,0.04482777888988099,-0.1608278395822641,0.2758358724265788,0.030256163592442986,0.03363186882911773,0.3557257723956758,0.184634133141096,-0.3364875307410041,0.20351368226717015,-0.41417136710367586,0.4864616768149681,-0.1851355220042541,0.49638626922399565,-0.05332288183677658,-0.21878483085547573,-0.017799380630048156,0.2186294064354115,-0.05895203106932012,-0.3044494041401118,0.37980799494349027,0.1978660575123028,0.03386227182138546,0.0862489685062594,0.37104629848071335,0.019596148886177,0.05364149750731695,-0.009616351197953232,-0.26591004379388994,-0.17390763316699476,-0.2583851449545328,-0.29701376756186815,-0.16599546443688284,0.2879555654461221,-0.06014476069259955,-0.28148761568757086,-0.016173545961462144,0.2861870641269324,0.17628333330309498,-0.4798682628484465,-0.4276365817879364,0.1922456767740206,0.03459314794521351,-0.24389698984727493,0.3500632448322526,-0.2630810749079874,-0.02587830263545776,-0.33043707839164405,0.25464133751236884,0.17527911597467738,-0.39993902539288806,0.1119955787062229,0.19514709289886267,-0.43373879680070837,-0.4577766188814274,-0.25991104940770693,-0.12113870851923958,0.3336134583871141,0.4608312174542435,-0.04536919203700274,-0.07234683562786437,-0.1851834586787492,-0.05058855533526019,0.46235086943117765,0.13328781537161838,-0.2670002597676331,0.011147439331080977,0.10759037159790041,0.2615664167069378,0.4060426873190002,-0.46038064756861685,0.4473347466216512,-0.07219855534835873,-0.4303451413402175,-0.06342330853854328,-0.41333705221247363,0.28750193779272126,0.39364414498797784,-0.46142431980964593,0.4238142597154899,0.179951325457544,0.35137342906447655,-0.0010358170518758314,0.16058364714955753,-0.4579243830430195,-0.4966203095868338,0.4027864125383953,0.3141551687763079,-0.2849760752031292,0.12821750314801694,0.09909228283225269,0.46411636874670736,-0.0861442996838293,-0.19946527513256296,0.3302425524378859,0.4597243881779397,0.29003296417549274,0.16649941879507313,0.40789393462245127,0.2276912885342025,-0.4514990481180715,-0.0530260447107177,0.49041410757802584,-0.24675303293388928,-0.07119959104566975,0.4743769443330127,-0.19606677854843046,-0.44877669596141134,-0.2698415176143185,-0.23028393889912024,0.3945387286738302,0.11368866734538852,-0.45889734132452,0.1700132229300092,0.39399777420068316,0.428416084018577,-0.430723299754174,-0.08589327476414588,0.45970969191508393,0.19271014963988775,0.36706554019122306,-0.18664999574877061,-0.17554901830578007,-0.43219949659398893,-0.4571254433902474,-0.04891400554210046,-0.06924656531949724,0.05347939410200275,0.047417909662545776,-0.29316959061809056,0.2276134259342243,0.3532535450504021,0.13280785668535078,-0.020200697416106195,0.1034654425610666,-0.4151091265692224,-0.04074739365033597,-0.1376122428193275,-0.45727460468471304,0.11325945408654903,0.010458193240378,0.36532870798939,-0.3811077519597611,0.3862958096536896,0.466184322849887,0.034693158990732,0.316926348419899,0.4560242159005996,0.4164040440271157,-0.26568636167294934,-0.12142576571961028,-0.27245066738993307,-0.19918218311252966,-0.48395365308641924,0.024269071695049105,-0.10391342973587347,0.33828868175336824,-0.47385521774832573,-0.4576982133150137,-0.025855762226804635,0.46245945319031356,0.09756282397184923,-0.32945087026969766,-0.39421868842700425,0.17062071401096046,0.4508606847973847,0.029544226488689707,0.10421742163458791,-0.01813256219385273,-0.24019641564610927,0.19131850009157803,-0.3569571928670173,-0.262531705069908,-0.2033885374052098,0.4509733282587126,0.27139666132427165,-0.3074624449919513,0.34107698247117746,0.24455312300883536,-0.264533845251962,-0.16946021720720172,0.03242530968709412,-0.40249201485141206,-0.4611395618205938,-0.2747042818430626,0.40808118404918936,0.43340260453662804,0.4823964802076427,-0.018489096106276803,-0.4767485365278096,0.24351276637092223,0.029230456903485358,-0.4077190468001086,0.06633057757630301,-0.29294287396959495,0.4460322829264194,0.4709371684120388,0.050221838862038126,0.29645606028766314,0.4534552172910904,0.2752900732074419,-0.481149791041095,-0.210263686379918,-0.4406976034531842,-0.4002137177499123,-0.05532509443030875,0.4666902999215802,0.006194531195371833,-0.04358419749364406,-0.3174778322663886,0.37583223068555827,0.15963877484246658,-0.04153566429579003,-0.18988932291505034,0.28425987425081356,0.41764276014715873,0.4296979000978952,0.4632479661779446,-0.346604013326161,-0.2683352655488699,-0.15706899779347494,0.3959984274573507,0.04325201722975991,0.2886856987985521,-0.3068257903848136,0.25633988872447944,-0.17512369657566762,-0.06539956853208884,0.07636517351177985,0.49943654190552444,-0.23985026513065655,0.47567776952116947,0.40204924419516663,0.08629823492285427,0.41398504236722655,0.1936021024298482,0.492306744576279,0.15636911269049136,-0.40689697125099344,-0.1509914438341694,-0.38986106901662143,-0.061240566246427375,-0.20063426665041117,0.11308543776480684,-0.49751231299369936,-0.3494616830509719,-0.4753725555555949,-0.10187457293920932,0.3245273536819834,-0.13592559584768105,0.0982570012209325,0.259190477059969,0.1437319102193083,0.2193509787818705,0.045995304327657194,0.23300149734367293,0.2389064116403975,-0.34059838559622724,0.07226979627266983,0.45595342293203045,0.037550125019960356,0.2539145326931871,-0.18858955697349578,-0.37484141737797505,0.2668790818512007,0.04470007560227807,0.39980957427990693,-0.389205536286363,0.23031154230084483,-0.16893864611548537,-0.08895007308662184,-0.07016954188749791,-0.026506818219660833,-0.2442131044266288,-0.10134824750629323,0.49137868137024576,-0.4982386528442023,-0.24399251463106153,-0.3784866216479231,-0.47587418841908546,-0.23347726706684346,-0.2313608715397003,-0.14699318727253696,-0.015521656374121062,0.07923721580157406,0.0761694311079425,-0.13470478474858394,0.08024526640900054,-0.2622757233009412,0.41765385073964467,0.22534221724638326,0.43692394363124654,0.16188268269999495,-0.4540157334731819,0.3078541682575918,0.18317619513886008,-0.22328200696053302,-0.037023932929718284,0.10610148516477802,-0.4371897389465055,-0.3912740729955788,-0.03111692861489168,-0.14273055402993717,-0.08048572409892685,0.03407371690653238,-0.41088643311263384,0.2184862369410877,0.10265783137121676,-0.013064469518569877,0.013367992347510183,-0.006446824885924851,-0.3003116503328608,0.03160399536533676,-0.25244656377903807,0.015601132695179709,-0.23226305911600098,0.10374049200550306,0.08084377505362272,-0.3008190292925663,-0.013636819148224899,0.055649437439740046,-0.1392032214943154,-0.3058495725140127,0.19284969002223817,-0.20231309983304724,0.1982778897972518,0.3369298351945682,-0.1312329796498416,-0.47193005470717386,-0.3869108697008876,0.3667759231678255,-0.32945437385996,0.24858994505521592,0.4334451984973361,0.09464780224154179,0.3297241882830766,-0.23813738376838045,0.42214992402488194,-0.21993106381160688,-0.3913433761695253,0.3289414392546325,-0.10775844945534307,0.14198316590964843,-0.4016500698478228,-0.2694219523865149,0.31471072522954024,0.17738434360293354,-0.4022847676385385,0.05193503000314725,-0.048918208875228686,-0.15563059040301963,0.41224903600576324,-0.34098460233900785,0.45731705175413884,-0.018994568198511863,0.3822438510965006,0.2735469745521799,0.12201459795378256,0.1404332826125485,-0.3177360221334057,-0.24770265798349977,0.05456493817530361,-0.26926899186623865,-0.05207703648520834,0.1553531016574391,0.09131064868368455,0.33214723520644707,-0.12414214832695614,-0.4283427897493167,0.3515264478892469,-0.14722688517791194,0.31636954765112946,0.2952823459491042,-0.33010353356296385,0.25263401260273455,0.17662099733752024,-0.07959977590727119,0.05691965990623382,0.19933944352352717,-0.04398995651521931,0.41047236461372916,-0.26274042762050054,-0.26196127193664764,-0.34629888425858635,-0.397441756397363,-0.030788399782338494,-0.18365063799634762,0.29839074276126076,0.13274286318978756,0.2004808742330597,0.4125925220493025,-0.1075402000161283,0.08259181864861997,-0.39629312247622905,0.25295223851417037,0.1556117271084586,0.3539935234473244,-0.08277192130286803,-0.023498120518038235,0.1746239330820567,-0.22032814744564744,0.27077616600043886,0.14566567536805264,0.4419757686730733,0.24587301850705323,0.4536142001210052,0.48551826446229385,0.35826032043109424,0.44579957606963616,-0.061217176218840486,0.19134351426420704,-0.20478214288257945,0.40586980710563725,0.18916018484692743,0.3336644916655289,0.30372372168336004,-0.02735572024792088,-0.325868045782883,0.007307589547368987,0.3443851243694509,0.4876784833608778,0.15816280325668364,0.011175113127638747,0.09011348430286703,-0.11233880932875151,-0.4609057772682442,-0.38294114169809923,0.24642171523563305,0.2526960076980319,0.18298496951561372,-0.30482464267287557,0.0029034451651498427,-0.42672579774497543,0.38675351042304595,0.2976587091692292,0.2061789233754936,0.44635400895001887,0.15260543568925133,0.37363053806418633,-0.21431321964718508,0.34532841247489277,0.053411511425298874,0.13755220768510878,-0.3177839187994729,0.2972037256260829,-0.3201996295972719,0.03376127777386162,0.3583011716918617,0.3296541824941468,0.2757193344039126,-0.09237515419638842,-0.18713426654536436,-0.26816538379552257,-0.2589715910753331,0.3122547861709365,-0.3637587665730446,-0.043904098638077316,-0.12206811027264863,0.1845891371842262,-0.3824835900114145,0.39480541472882735,0.2580056307355022,-0.4248163359151599,-0.2378977025306933,0.30343007165313507,0.2894834346452747,0.010925919564708897,-0.27674710479043263,-0.22670360937622203,-0.06250485358463087,0.39398773431917034,-0.19904490744145664,-0.4133625035001235,0.4709041470567169,0.20946524108026787,-0.048318512703048655,0.39566261830015215,0.002091552088466453,0.40931815175154784,-0.4407938985907157,-0.131487101797359,0.09461291418441509,-0.2201762593621276,0.2241606927417864,0.11044794235622946,0.18673577859668145,0.4413494942274283,0.2676522654156128,-0.19347043482890502,-0.05923615138868188,0.3138645128043628,-0.14634470475368133,-0.0936836424729931,0.07646171598337304,0.25061706124053373,0.2674334304814965,-0.020718988469977884,-0.19205786830955607,-0.16811243005247978,0.2636084931356939,0.4455398509101196,0.18356892507612077,-0.46299808411759125,-0.45439735259250535,0.21830426549473003,0.30018149818568685,0.16995748350999407,-0.06011896428698771,-0.38547272335973337,0.2869699441917801,0.17423095775997777,-0.3846842295765295,-0.12528956823281945,-0.13069364300898523,-0.3128175344177627,-0.08014135735783634,0.46408087759888217,-0.0017993719142338493,0.3380656170839039,0.034142918215066986,0.4947183397753462,-0.2950666668834173,0.4864105395009868,0.27462345323087556,-0.4668265105373368,0.3997703727155659,0.24848009735281973,-0.2844164974919857,0.35670245849003224,0.4846655739060325,0.2271227859536714,0.47077379579754797,-0.10813844614817358,0.05141140789271115,0.40553390970558567,0.12742728387981794,-0.464184568315383,0.24358253871982605,-0.32058838839577863,0.15779543971845011,-0.17036896717167582,0.0981658655740747,0.08499400007987057,-0.22163841481922308,-0.39945848268710915,0.3120018456057303,0.18845966138033776,0.17588290904132897,-0.10649146537764453,-0.057979401912948814,-0.23536643630459808,-0.2732075777799885,-0.13500547878857294,0.17036049709159218,-0.3584284099780929,0.09113788469343953,-0.33857879216399,0.4472341559668742,-0.02318546496677354,0.3000175899430618,-0.13318234225446646,-0.4247531078110154,0.14863506759507328,0.37423545240197964,-0.12834777507890283,0.20336194930153173,-0.4767865304829797,-0.20938740949272705,-0.38434102223385813,-0.22244200262241853,-0.30685860681031796,-0.2533941910120967,0.39374582576464745,0.41738477313161504,0.461513562962378,0.27389208210758764,-0.1537344136843697,0.04009018074934123,-0.4028221025424026,0.08164564019465337,0.3989143932481132,0.39941319951526855,-0.018889786326263702,-0.3469454770906182,0.44331653208331157,-0.4633187857857124,0.40589295415099136,-0.34970056335212807,-0.4342939634326052,-0.31783039442068073,-0.011844575062979756,-0.3654439771809691,0.45304324258989526,0.30049968846414277,-0.14172953496765606,-0.22273033063450132,0.3504142426231397,0.46240429511843084,-0.1914124420219251,-0.316251329619364,0.35247879146376304,-0.23827511417117897,0.3021661060996793,0.1332517412161066,-0.42426127061325036,0.16818306682019613,-0.05306858732216513,0.2472273199743079,0.0923564296232865,-0.3338841383157469,-0.35659418831992495,0.394808408053019,-0.23964799657555447,-0.07529056060116912,0.3548400778902706,-0.21951901726496315,-0.24285331651884656,-0.18243687686513566,0.224389676442607,-0.22189233968592603,-0.387891674532322,-0.2250911649332662,-0.4176187940940196,0.18303224964192222,0.08191272083783385,0.30313151930052773,-0.29964020872883945,0.48646945775825623,0.12411661384121464,0.1989046116705201,-0.11397603750510732,0.39095193499902414,0.24818859107835645,0.1069490328218905,-0.012523817901844203,-0.1686633090477141,0.2139955191579802,-0.4551461365236902,-0.3141897773872001,-0.15513339855047692,0.40983202262445007,-0.43278703746601954,-0.1677696645448724,0.3310485896551725,0.10666789838153656,0.11932616020472064,-0.37014152153196667,-0.13005890112740703,0.3332002530815309,0.05590551498974605,-0.22110778403233922,-0.1063561633290151,-0.20092856449085195,-0.03919481136104186,-0.2999241893006451,0.2077825007079115,0.09555119089330699,9.402756703791315e-05,-0.24596430680467762,-0.21284831041851793,-0.1777032095514579,-0.0022237545365654254,0.08666923707612151,-0.4902229694046082,0.3984896915936682,0.3352852907056435,-0.24767324730308693,-0.3920752487638455,0.4314507530913002,-0.16978090688179925,0.02991573308034179,0.05158734128560727,0.08764454641559616,-0.017954337850612512,0.40958085806560485,-0.08180223075160264,-0.20728092675545873,-0.2992496999361859,-0.3578345140741066,0.14496567074487476,0.07868350949660752,-0.4334323291264417,-0.1503174655484637,0.22574505370779185,-0.26322465197860234,-0.3902140025774584,-0.2567300838008264,-0.024110869538978452,0.3431863261630731,0.0156020342204789,0.170476811339497,0.31926449885921604,-0.46229250588670223,0.3277215616098246,0.05640115862216544,-0.2929484685432475,0.46495278721435696,-0.3070945695606503,0.4627135488538515,-0.010975761048442223,0.29438909957249837,-0.38947475584218416,-0.013554010694876606,0.4428326749610759,0.12384275464298167,-0.37506895813566943,-0.05852546361512789,-0.4143742324978723,0.2321816150873668,-0.1573851731253999,0.06326452135940719,-0.4560617566395586,0.14462359078200493,-0.3071610935707738,0.450608043391431,-0.320099196153103,0.1395641796782331,-0.14001603547436525,0.06753718226351502,-0.1359956148272179,-0.24492299793499728,0.08234895128887187,-0.2784026305641374,0.3891888606632946,-0.1878290988309924,-0.4330377894773131,-0.46418208532250294,0.24579300629944745,-0.2925638312820549,0.17957605294255963,-0.3147935585797933,-0.054812403130926834,-0.001216278079723132,-0.05066387296009367,-0.13181001773814827,-0.422751966022325,-0.1497635076315198,-0.2198900366325015,0.21965099459029824,0.09265118352858037,-0.143688896267556,0.31181192010887504,0.431707567390733,-0.46793148690313835,-0.05527294836132968,0.08057362537085411,0.10240199419110174,0.09447075371171931,-0.2431244213176601,0.2993099747510467,0.34656262466752097,0.27544846878023554,-0.3297228185761847,0.25872141467642795,-0.23105064544295717,-0.22265879448355275,-0.15265382902021196,0.08276752509687901,-0.200960618004296,-0.30943010986544006,-0.08347433532460191,-0.029092626908931773,-0.3869813253600669,-0.39825532399710084,-0.13193337914105507,0.2742842671158321,-0.11954900231889998,0.23063567008611463,0.10364335407100966,0.13983362468666327,0.2931641527340433,-0.042173486202910615,0.3156809770248844,-0.33791677009020293,0.2173251125399176,0.05386853167740435,0.09556698781777195,-0.29890276691203577,0.0894358399970161,0.15040445421306048,-0.2883439892994597,-0.3073445863045312,0.04129603556620676,-0.18895240371470634,-0.46136235899491274,0.08576928733064793,-0.49170955085167345,-0.05258682164362116,-0.4442932023216243,0.45336114790638793,-0.20588098117226483,0.17226595277611823,0.05614652626417793,-0.33010296995927046,-0.14177177039438027,0.029691384160902334,-0.4054305171104907,-0.19749756195686885,0.30829443795850353,0.22923796158578302,0.4731387291921231,0.004245872857213784,0.3375493465896904,-0.49923603316139875,-0.1286862790854042,0.07519301641978415,0.1323893797860659,0.14705932481045236,-0.09328737529016184,0.2002554852957097,0.02711473355639471,-0.4419745375794428,-0.12318678312959985,-0.1831074164057377,-0.27563904347965296,0.10353201497676279,-0.18718492160039402,-0.20935129465597013,-0.2894617898724846,-0.16543055088051384,-0.3377470922564699,0.023556367085145857,-0.3445764438940724,0.18632019993874882,-0.026892383311585277,-0.22208007781707706,-0.3914203180428927,0.10083206732382699,-0.21577141723959048,-0.248678068880534,0.1578927018655636,-0.23787005955038887,-0.13839997676203575,0.31538188356140884,-0.08113192421086224,-0.040264771882872474,-0.06586014990725153,0.14775208916422555,0.1611105032112854,0.418593369871333,0.29313514910372174,0.3305229840641407,0.4909466663644624,0.25729310566260255,0.11725527568157357,-0.14419540443200618,0.3402771275751303,0.26697822093745116,-0.2372679403736555,-0.0671630372821671,-0.13208190621570437,-0.20256908939389573,0.2621651624902124,0.400477141119303,-0.3031845672115787,0.3843139861625312,-0.151059462428902,-0.17364374708561858,0.2018589664264986,0.0014898992810044032,0.25503805754744846,0.4250245972784531,-0.2553467961440272,-0.3174051783376417,-0.16564600411500285,-0.49740445408591716,-0.22081007791168206,0.4756716426059382,-0.36615042701749145,0.322842072570533,-0.45922816475453254,-0.09392176500603855,-0.4062172619217206,-0.18775588618776418,-0.27204522279740273,-0.19315326032543412,-0.41397605651696623,0.12189527690509527,0.3624549202310857,-0.4034192198902138,0.4916474675328901,0.29757474507475123,-0.10835109745793214,0.18680002425182707,0.09105805910812159,0.2992855409954439,-0.213495257809876,-0.49098109547880964,0.03327924658416437,-0.06732318843939777,0.21152548953423278,-0.43230973506018466,0.07894600937879859,0.47003415170120055,-0.2623107062320066,-0.05185315796037249,-0.21485922591623352,0.4352271303631031,-0.18702928048348266,0.31253560701466754,0.09770990707276894,-0.49600117319560144,-0.05772655380073444,0.16222304822270495,0.09046242423253958,-0.4915945258623584,0.2253994530242398,0.38234280928214526,0.31263102819942423,-0.4482396738304911,0.17738760965690104,-0.23056275857602737,0.00480837023399272,0.2986996492204871,-0.2107067741231352,0.11846185704302192,-0.27906488108505556,-0.05575138516912914,-0.010420346582411533,-0.19610121537594805,0.024234480511312717,-0.014813921625200344,-0.22200986489237984,0.485834895382218,-0.33618194463193396,-0.4534322376148757,-0.37159363633091647,0.4774594978757848,0.2397854800953716,0.07476674114373594,0.20496790938598553,-0.26021298477003585,0.2420512712069458,0.03577009610077975,0.3072294368869991,-0.0399631017294112,0.43688764278534753,-0.4819887908116103,0.13004601109813307,-0.38741621876988674,-0.13406862418537124,-0.00994362654986869,-0.1678475950242202,0.0867079153170186,0.0009085504300211378,-0.22522324150742357,0.40154249819273646,-0.4193971129802744,-0.25538004291170946,0.42118346370365656,0.03598819874447501,0.3930199566664333,-0.4561807137484508,0.37540045904790476,-0.29332669362085917,-0.30210497982331663,-0.32747902983765254,0.05393078052200562,0.07992303996739947,0.4818028014553024,0.02146276755492582,0.2556642409147858,0.30701505619794445,0.4292310943880412,-0.2613223392617553,0.057327767358073434,0.41957397884756586,-0.3722743166961723,-0.3538255193542593,-0.197012231534049,0.34897479174366464,0.3048663990613195,-0.4888722017995547,0.4974238368136791,-0.030425139662982104,-0.3530680174229649,-0.49974391000611995,-0.06114346256551928,-0.4511551794918923,-0.20960104342899588,-0.2950722938079611,0.13299446575977614,-0.4159175687048797,0.2576824636435987,0.06677146823256319,0.3104133274466555,-0.04661731912797484,0.44506092139518805,0.19901696087846943,0.4603898448266488,0.24653669640033238,0.3878320361219455,-0.20543840071775965,-0.3734482273811506,0.24372611616620254,-0.24419277113073123,-0.07556428421351546,0.4574049987802644,0.2676526387943924,0.393748461169259,-0.4330935947176655,-0.2088878738394362,-0.3714190051678945,0.30335230512278333,0.08520493221014147,0.2805684237531064,-0.01879951424461257,-0.33744267864170463,0.17751622273727818,-0.24153456922079541,0.27480686549867483,-0.011326698813851399,0.3877770411854742,-0.2216417203846236,0.3884403288583612,0.26355134269378133,-0.41357208262959066,0.2630664597554514,0.11831342836490855,-0.2672662088594584,-0.40616159645261385,-0.29953352376090525,-0.3591538910394909,-0.11709537187113883,-0.08944107330823714,-0.2499421280404489,0.1911584371273296,0.20109096432522644,-0.11221100678698404,-0.19919679047490335,-0.16897697433334502,-0.002008721611198472,-0.27012645870906915,-0.4462007469003997,-0.16871949684597143,0.11784610153019182,0.45007478860678996,-0.4796696440661793,0.24552551550668067,0.08114450031262066,-0.36504469003126194,-0.38359738713611125,-0.3797561035993364,0.18821025193364604,0.047615863585279916,0.1596395402355626,-0.291478966640351,-0.3365090098256238,0.03902196378447387,0.34520873632671,-0.49424698225120367,0.4255614685742892,-0.3324724696556314,0.029988307034345962,0.07229568455663438,-0.4525911846096051,0.14606141515517734,-0.3372022257458648,0.11110751000777996,0.24176345020562806,-0.140232880686891,-0.08455841777057593,0.3773714588487398,0.3521481121865161,0.4728014486986857,0.45989983454290273,0.4364022415518082,-0.04610525968452517,-0.12100433443235592,-0.358574203753937,-0.2350631788606079,0.2418283145993635,-0.3868562247742908,0.2795278949665402,0.13084800581815248,-0.3299092088021187,-0.251473716420608,-0.12922282553817876,-0.4609406527980173,0.3264039143069519,0.3102634614211204,0.32909157161019276,-0.44301389101715327,0.11936094194492053,0.4833260588565169,0.1674323238920179,-0.054556530694063965,0.14574115038680757,0.00676871654884581,0.2590504901976406,0.10318257845291967,-0.15644705066209952,-0.1267362885389628,-0.2656940173862753,0.4505921343557169,-0.03884420919478748,0.21069481892674025,-0.2838413399868429,-0.24690254476121798,-0.42856272610380275,0.10175477158430368,0.2181373364357645,0.42788906907501734,-0.10136614259051313,0.1052316505842551,-0.2566903337874581,0.42049169053759883,0.4163376198042904,-0.07055578669376594,-0.1483528945473982,0.33705308105743503,0.31314056505733323,0.2305733173264759,-0.2434674198447656,-0.22148492511475792,0.22351783244856338,-0.1999922567059752,0.432999982284454,-0.46042552041980855,0.23378801215635958,0.04002645336006483,0.1529800494381418,-0.27571562116160275,-0.2166851676739645,0.4931303385292295,0.027784286642173694,-0.06371267167410388,0.38869739678435955,-0.44162897953324,-0.42421225655891137,-0.19924544781060516,-0.338964837601042,-0.24064684010036397,0.43610143377334865,0.35542188480132175,-0.25553254205172615,-0.4446944687901433,0.4425816958341269,0.3863350395098165,-0.15756355422301827,-0.21932665616977376,-0.4146834752175834,-0.3320652674089011,-0.3742849510549512,0.12945363334842686,-0.3096880990992261,0.19118179530225754,0.47282268507277203,-0.4451122240673082,-0.25807532602912464,0.11488319610331943,0.340308419512767,0.17670770391959534,0.4281232823037173,-0.1341016158184445,0.3897974671036245,0.2473215287512165,0.09088307366358717,-0.4095390359338652,-0.16534516531605148,-0.4870754275892323,0.20125940333506942,0.42203582584263044,0.09509654773635368,0.2523243670788611,-0.1441139537356121,0.08888715527436164,-0.005757394864521648,-0.3360785798344543,0.31016908594035686,0.37660613059153125,0.28346964949666165,-0.3075141514706189,-0.2130045518572946,-0.24046383296368723,-0.1829198298203819,-0.4702618596449293,-0.4859506104253143,-0.2724497553267945,0.2660023497678041,-0.18641394041494597,-0.20645298340578133,0.25306558980381877,0.326458427359132,-0.47431154831208844,0.14957399367294744,0.08714813302634306,-0.3997187809168107,-0.1544626334331679,0.1945611279233027,-0.06328830136904806,-0.1684486213626467,-0.4747090771676554,0.1949398364621946,0.17067163518229633,-0.08718781886228044,0.16803115018787862,-0.39448250402543084,0.264481156425447,0.1542173623650176,0.3912950745706044,-0.25553570323101793,0.19168593834601488,-0.04571745820127793,-0.11943019698778468,-0.4740162877338666,0.13809704566420788,-0.2860107838622822,0.0632226945214236,0.27081554274990316,-0.24307925393014174,0.418681612497388,0.08131552106533146,-0.3738057807716688,-0.20598224665137943,-0.2850747303635426,-0.14350477165507203,-0.29490176390377465,-0.3908647684336841,0.3285661713394076,0.3691499689146456,0.0028833961946701514,0.24148075102734712,-0.3604376554853824,0.2572049415908495,0.3597871469416585,-0.22629953268590786,-0.2957046658601383,0.19307182347321594,0.1685310917461923,0.1600906563271427,-0.05701607169449896,0.11022942255655743,0.4450240148269875,-0.12084805004033272,0.013217309063794369,-0.20651390232729994,-0.4836327200093914,0.23868141077014993,-0.13485728843665068,-0.3534011570742218,-0.2011893886563404,-0.4262927969748389,0.19115189973702373,0.4378365163451855,-0.4466467243014377,0.2925235999977379,0.3643636958174361,0.31010704289410773,0.200969565847117,0.3410863621887059,-0.25608491237872366,-0.0038398004720744394,0.204834747711107,0.08811924860905096,-0.4013381171179293,-0.3762557239159322,-0.4658295436854085,0.18434495491058012,0.15369519968693268,0.209375230816504,0.45794239786826374,0.046042242543053,0.1275697518298795,0.28519194615327015,-0.10477837423611869,0.16480043719430082,-0.44296097415344104,0.10864154617530364,0.4522725892102042,0.33071270578160883,0.22502777128533702,-0.4019294182790598,-0.280292809927991,0.20342053978889452,-0.3149525499732102,-0.06780019717562824,0.4241277859550302,0.1797265173866759,0.07852540857854795,0.14505899265920663,0.10394629191564808,-0.34830305935737993,0.14330839475250412,-0.256514171181624,-0.13498594494806537,0.005142971301981714,0.127744377759912,-0.052720222459633925,-0.4731931024358349,-0.11587672394190651,-0.12608246081096597,0.05969075901901577,0.37667387323766277,0.3274066144745551,-0.4174692184119061,-0.11909212319588591,-0.062469958241664236,-0.06456193210455896,0.0029623341843297846,0.3732896973958527,-0.42082150002436025,0.4416147350377533,-0.10581932655746829,0.046628229843048374,0.43817265462655264,-0.010096108019367889,-0.053492809422202026,0.12459027481209906,0.09926416188568055,-0.1125809048556915,0.47009790358741177,0.42134958581465076,0.4824508263744577,0.09235180356406869,0.1258475250263804,0.09676122106740781,-0.31219417353067525,0.05513279788919945,0.16892701226763918,0.10274670718690093,0.07325527953185562,0.27144650620949895,-0.2792906743488087,0.29404864547120735,-0.1064480758942592,-0.45346167484967936,-0.24826990633683665,-0.4741528380277096,0.04974176054585522,-0.023938548120445158,-0.1380223660578297,0.2393809053363004,0.27080983872957887,0.3508398128096475,-0.01882042472513512,-0.0675820675098252,-0.032349689918533375,-0.23214459309217828,-0.21394041931493524,0.2671407027469628,-0.07146727129469332,-0.22888544537422773,-0.01015212514630115,-0.17808034888372237,-0.4557622221819917,0.0878024640381394,-0.3125525659778031,-0.21166948531509489,0.09120269134896608,-0.013701803644177724,-0.4990945632330156,0.1585525306390202,0.25721509080065963,0.055187870960623164,-0.12317660233053751,-0.10110857202325918,-0.1732797796995036,0.47986386125111335,0.33075770398044235,-0.25532336435791436,-0.20257877824238146,-0.3359626582294175,-0.04885018959961307,-0.16296238571977195,0.2306641621036466,-0.4758979657147493,0.1752926733246286,0.37473667478034856,-0.013914707870982701,0.10091609434683879,-0.21459782118569404,-0.04345720764738714,-0.19023165562215405,-0.4165921511526599,-0.16592158603457863,0.13462514784372903,-0.15264254511228348,0.018853549990508478,0.06398924262063277,-0.09344432333923258,0.27035703995894655,-0.2872330585361007,0.3393096104195019,0.18725213119215456,0.37651048302905454,-0.20766775892393208,0.06451878452730664,0.47214104864181783,-0.4167838935927818,-0.31425243409955395,-0.29737971032536514,-0.28955759452811236,0.3656979730769413,0.20860086559416735,0.2696823055163948,0.23126852435377254,0.06376507708886525,-0.14557187677663364,0.4807421602736076,0.14451410226021022,0.13715121003226227,-0.2665662823092313,-0.3809784371459056,-0.25414603264171887,-0.3305408751503679,0.25877865746132556,0.189679337956407,-0.40933929558922333,-0.024137717475392617,0.12813901978585507,0.20299621861352024,0.15783309722315486,-0.018215239518013737,-0.006478899817687012,0.22212885070947685,-0.4495471026241672,-0.3406146392301359,0.3665240361738501,-0.4938155747944398,0.371569192788358,-0.3612426494455757,-0.3036100715550403,-0.21014757795815986,-0.1230704018680332,0.4677449799447818,-0.1691716006034566,-0.3179432058317957,0.20627085319513094,0.04579240084833058,0.2828684220253721,-0.2728377326145228,-0.2360475944315109,-0.3383442497051329,-0.4827715745160135,-0.39254236915598906,-0.3405845165202158,0.2980889423316633,-0.36394457926530854,0.1606629776352173,-0.029465123965843887,-0.4203098397727746,0.13241135239279989,-0.13183861225800408,-0.101472289949318,-0.29114945932054836,-0.1190125003216228,0.004604265388757911,-0.43182516267733095,-0.3016018946493223,0.1942469291874065,-0.41909613031591264,-0.09149417784105818,0.4133901862306909,0.32591494174833147,-0.4679264739204716,-0.14151666538700858,0.2814145556495613,-0.020825573122749796,-0.29122605303939086,-0.24414885202514336,-0.37612581018438895,-0.29365640389606273,0.3862218179808993,-0.36294639365844583,0.4686597430821201,0.2774763598186828,0.06320888372617284,0.47312788164233,0.1672104565794068,0.1265850273929886,0.4623188448766741,-0.02944179697377225,-0.37536479054573746,0.3401559759376357,-0.2163036175356029,-0.22299741606316648,0.3065256009531856,-0.19119780778603934,-0.2959894761908639,-0.4267586830996286,-0.4495390313592257,-0.38211721162189594,0.05584035891456385,0.05968579390667961,0.10752676062503774,0.37852747513271845,0.32401368150994514,0.4947698336674401,-0.4981548470417291,0.04065059328312737,0.25707883134574616,0.4116192085568644,0.32589113117143587,-0.23104259840214214,-0.20158669226366555,0.3272007820594256,-0.4587635660084961,-0.30449742207967667,0.20463175413052048,-0.12109205536774692,-0.14625519702368472,0.11596713641713408,0.4237081054992903,-0.3597234147698273,-0.41529202172930313,-0.4750277119586349,-0.07585037918808624,0.24737326536855175,0.3996758416643218,-0.2331824324272359,-0.44945968215438237,-0.0780805194106956,0.41300569933060205,0.2950145394881798,-0.07974210143294924,0.1748039557246417,0.06856689215167633,-0.4263435814706975,0.4249616344107985,-0.05079641049727035,0.38131793426459326,-0.4533434001139205,-0.3428306574456569,0.14621800245809158,0.3081136970002495,0.04347540255053661,-0.44133827362752875,-0.07725553794809692,-0.4648101072771119,0.21938195440575836,0.0790507657912235,0.08210862065535374,0.3127085559799052,0.07971584644176666,-0.08865645654343157,0.1603793139030324,0.06608973617121772,0.4760474286920341,-0.1892717489353266,0.029337021819199727,-0.06919650369679764,0.28114111034173694,-0.21814853269592804,-0.1323728044804816,0.4552333725172649,-0.4675933518794996,-0.44491059771788033,0.12963310170584297,-0.2617916376941122,-0.15802380093203072,-0.35347687953978646,-0.12324691067111715,0.4998192682544128,-0.44253139810816544,0.4725197502639511,0.38836661279063833,-0.3946380293893925,-0.3877986019509677,-0.05939466352052192,0.2683681317467439,-0.07311379951609254,-0.17211819796467676,-0.33260720039363423,-0.19057548113104528,-0.3900970411137218,0.38645264565892157,-0.10679081930785972,0.4193957258241974,0.21571311852173736,-0.13896205978327203,0.43880725347937943,-0.042135469151334815,0.47953480880152677,0.3033490122391288,0.4508368717847614,-0.12351365275644521,-0.10890258160850741,0.10199985662044464,-0.29303591324818035,-0.43185893815796617,-0.10752780947422114,0.12448662793014575,-0.009043890977495805,-0.178642675440442,-0.4319479638609579,0.19042667698425075,0.021219622769308333,0.27915173743889665,-0.02764745426856452,-0.32392251736010313,0.12129240115260143,-0.16660545028506646,-0.314203997403223,-0.10094588512831593,-0.1162634070168006,-0.11881877913442684,0.08969755702232429,-0.35568435085899563,-0.490455011110261,-0.14558702351881891,0.46572560299254506,0.1687299869621851,-0.44493507541741606,0.1310982277633327,-0.4432162552355986,0.24394227629551024,0.1694073900426296,0.31008252246330215,0.27414995945873266,-0.42311655795911673,0.1586185205281202,-0.4336734624616012,-0.06471571829644807,0.47913271879850083,0.4119597695062527,-0.2266141693767686,0.011325732797905497,-0.03490730890039184,-0.3828204543376791,-0.19704659950610992,0.43205186390352257,-0.2873236027613636,0.019097823043617845,0.4372556243207869,0.18118435142838119,0.27805909017490815,0.39147600126465876,-0.48298033649202665,0.3881849774672831,0.4292309461270839,-0.39499439186741614,0.4002634699818868,0.06780998256311821,0.4327602710996993,0.25024280172462343,0.08506624859474665,-0.35258168917984645,-0.22483874570557483,-0.33673764726224464,-0.02213374548796676,0.10532682394590487,0.2213807433178996,-0.04353929639176135,-0.265276333007303,0.030595374907396278,0.4508381969257358,0.26608656105180106,-0.1929523796703313,-0.07699368069390777,0.38326297408543386,0.3738229263439835,-0.42008950206658313,0.02278840272861371,-0.1982329073244442,-0.011554764989913924,0.03511424968176591,0.28374707456347836,0.2237231782895549,0.46355163195262394,0.4510917518520925,0.4210639142891598,0.4604045169933907,-0.35005221261524844,0.29321221180926005,0.21892409339614904,0.41925051777479294,-0.018592452184010733,-0.4311936524813307,0.2452519123410808,-0.3595171462261014,0.09403646081740724,0.25332968415673607,-0.4256633639196664,0.42535528834642533,0.30262921027659784,-0.35286360238978354,0.36056310962710203,0.41720246193761745,-0.37373943536473087,-0.4032817792914972,0.17313864170990056,0.29748156005176485,0.23790438783660017,-0.3921901298328494,0.192578344730866,-0.4013572016280256,-0.31606669610273497,-0.1521972143010063,0.21643919790201172,-0.44927521319110286,0.4168311104836314,-0.11207756024109283,0.32001547938714336,-0.04055692578777825,0.23484222350695472,0.2960329148434466,-0.29757283636458787,0.11665730393058282,0.05336981774678673,-0.2472259285178824,-0.18707022991943156,0.3397923541561588,-0.33118979262036063,-0.4503231696451263,-0.30329331149799466,0.37874210634288674,0.4374663267927831,0.3810962672191518,0.43241635474438145,-0.42564472576802614,0.34021741798515703,-0.46864866446831477,0.13770130936093505,0.14642783150266636,0.14058965528035838,-0.11212683330964901,0.3424952318863056,0.23215050564981377,0.45882640432679533,0.47903957944578424,0.04106342452580414,-0.2901844033038855,0.20672769036311633,-0.10586518447464877,-0.36148245584954264,-0.26751748677136167,0.21061691123186,-0.13627025935539716,0.10119362910489627,-0.17645595637682698,-0.07414705834499591,-0.08257207401156863,-0.3481165752823657,-0.2658060796751551,0.034884548633197565,0.4597277580224035,0.16098313508003648,0.05373528148755857,-0.13225248443742654,-0.29302447897146877,-0.19570112106665083,-0.3561256784517751,0.37098503758843726,0.3944341807588342,-0.18649658514575473,-0.4157189639732084,-0.3994834744229647,-0.27962395201283596,0.13961230145411863,0.27674216842511357,-0.29421673272295523,0.4186695388491497,-0.07799407693095428,0.20420314039741605,-0.29037764817035594,-0.39992684461091565,0.41797679154017753,-0.14558272564070496,0.17803879998581273,-0.21509165192580326,-0.296968508936828,0.4952178562855073,-0.04466737832300982,0.34461347511116114,0.354668323938098,-0.2521503499766189,-0.48836286108547666,0.30370733405300077,0.3170623905935701,0.4058298791047201,-0.39281428869228485,-0.3081439197911815,-0.3865020692251432,0.13582957772966842,0.27916398376537466,-0.21819406414316445,0.058369057505821664,0.36495321596962094,-0.20912637451593874,-0.2622215745036731,-0.3670874631540767,0.15447945851854183,-0.38624060241862357,-0.23315055837156962,-0.23886854917141187,-0.1610717379940234,-0.3841949227490361,-0.14839359649661876,-0.47510755490092227,-0.3767363135129266,0.37783048115845597,0.09835385734486513,-0.19947486580127072,0.26137435976444023,-0.4234804751949677,0.07127882714957878,-0.22771346492680633,0.4083998508390456,0.0029081378000508362,0.04790078507254747,0.32002455500762705,0.2179974930328512,-0.04962266243346514,0.4490311422966893,-0.14018036907085363,-0.4486161565259422,-0.3614688942387001,-0.09097509743602095,0.2480019050506257,-0.04711440381402909,0.12695489694563766,0.4538804714154825,0.45666649637962553,0.47152755332736374,0.2438041916347955,0.12139283611489027,0.03923161722523327,0.002189961462160661,-0.39705612237678567,0.38389559832486086,0.11470190622202925,-0.29676098981977295,-0.23083621938885102,-0.04762092738970558,-0.06051490390344272,0.42859772047448463,0.42777884715548864,0.18263932226942736,0.008662783096758164,-0.09434348775437795,-0.21107081290834406,0.20204334841352545,-0.08164541060397179,-0.44425506104403,-0.22920235095942754,0.022821690787421245,-0.49402923343227156,0.25524021523763896,-0.21807383441985229,0.4489247298092952,-0.4982638277268955,0.15041435358383626,0.22580375313887535,-0.1939246552618349,-0.08219584603563435,0.0475709713768383,0.19525089382950722,-0.029333769904932416,0.022404333464285497,-0.17649720395135404,-0.301253583087967,-0.4395735306198718,-0.25629600118938756,-0.3761452114312085,0.032824050283899786,0.26410001273624006,-0.21114482961627823,0.031041934440574015,-0.1870325364479527,-0.278767506422688,-0.30955095079536765,-0.014768176564375679,0.45193549263643984,0.3439403113040701,0.0888448334156745,0.33563178933473314,-0.09731353677970189,0.47651772706788753,0.299945917784153,-0.3159066576808275,-0.32099447973129336,0.14405385047210828,0.1585255643972887,-0.1161949324627699,0.3737266326649826,0.4459958976837186,-0.1401322600943934,0.11022093362508789,0.19328753181477876,0.02226139067656585,0.0763001198527804,0.057978501316706677,-0.4732678529961021,0.1047749732631057,0.024798588055852,-0.0072878182573397066,0.1977152935322639,-0.43543652409450784,-0.40198202717561826,-0.06364155365172308,-0.37886197249658227,0.11277006495771924,-0.18011752626479116,0.22953249932284692,0.39382159124564364,0.334224090495591,-0.26323807286920486,0.18365220898916046,0.07734808091295531,-0.4402716820797751,-0.48771864552138244,0.26281772810380233,0.2010536095979275,-0.4583757549993899,0.3136439222808469,-0.006962283358933008,0.01670676872351351,0.323772346537357,0.1867609379851447,-0.4044711443997806,-0.14531692968454202,0.4620159455212771,0.014345599187518543,-0.3456454997293833,-0.3018736449538638,-0.00729344981807345,-0.4143956615765234,0.3989833616758697,-0.07221406811581166,0.24128596917360934,-0.2682398032300771,-0.00834005105741964,-0.013033713606573794,-0.2581360407279183,0.08785116368484625,0.2642554778963143,0.10703447070051253,0.13982118820294542,-0.3801102648256036,0.29119937832762244,-0.289061833482252,0.3998293698853135,-0.2769901196006449,-0.23061862165816294,0.4082062355071179,-0.23343926590173125,-0.2677919647813177,0.4916514442737653,0.3163887939727471,0.1462934818289744,-0.29348054075753494,0.006894260694679466,0.1732020666774332,-0.19045081254370466,-0.17932239093248104,0.04679461243564009,-0.23310445404280067,0.11451477696335732,0.06626349796747388,-0.18726850832262976,0.20466400452339772,-0.4471350320629952,-0.15391707731606774,0.4788259663044204,0.35799506479359156,0.15774424360414196,0.24374859423295991,-0.4477688849072887,0.14740862087552165,-0.3589070157142519,-0.2878588782617578,0.1723815130828592,0.3412123424817243,0.30579703379413303,-0.2452413505215304,0.43150550126312426,0.013106020982805888,-0.12079565848518814,0.37778589623760506,-0.3648278295037075,0.40123669831409303,0.3375422081723024,-0.28355105734799824,-0.04978958753195273,-0.29293615188951105,0.3367243885302982,0.373090957488042,0.3827407770060738,-0.12809137325387476,0.4089209626295581,0.23049388984065378,0.36863422100545096,-0.07413115338004761,-0.15413111860367656,0.3033170897237306,0.02236225237054068,-0.36986006199884147,-0.2667970359925137,-0.2737675093457693,-0.2958939893400002,-0.3681598284194697,-0.24201698965300855,0.4865964551462072,-0.1574447914250675,-0.007143595584850226,-0.3858904862780401,0.21448488505606078,0.2971827637188298,-0.37612475763845654,-0.27633373313469756,0.35971562453933126,-0.43215005588599253,-0.06053939547796716,-0.19648523829589348,0.0010406671204324924,0.22789680249561028,-0.32464241822524453,0.14249866730160343,-0.28258340166819274,-0.2100550027015714,0.02068075549294912,-0.3507398442138605,0.2522495448883937,-0.047159333988156305,0.1653010193916108,0.0686934639763539,0.009974366578663574,-0.3101212025444777,0.3824864477576675,0.037664592693757215,0.4349070512753228,-0.14863373122605705,-0.14068596507227604,-0.28740627895054494,0.18869724932295007,-0.33377988072556153,-0.18733562762639988,-0.329461160677504,0.34649981700086974,0.16426315819487158,0.09623039048427551,0.024865632877163923,-0.1791252799835259,-0.47536178310161803,0.1511353132885701,0.18570091119592547,-0.27063736362632296,-0.4284030222065838,-0.4317831726078938,0.1941415852689029,0.2229750012116425,-0.11289584763652982,0.13255871060238134,0.040453961523000515,-0.22084622291305156,-0.10250268606281254,0.3682576746632864,0.34927766089502243,0.10334439563154019,0.11983499189997382,-0.3930151172121603,0.38889275818304103,0.477380442921973,0.040519251950998925,-0.21532301351194372,0.17170991258058776,0.3116329969896092,-0.32922275842964865,0.39818709396841134,-0.13975226519062378,-0.08073609296406503,-0.14713689633287408,0.3140532933981254,-0.3654910850677977,0.36649445344214415,-0.3682077819116706,-0.4511575772733436,-0.23369964698756562,0.45002930587682266,0.12581470613114887,-0.0473357927133089,-0.05868651885918019,-0.2569098076698564,0.45402417751797464,-0.13264643138332788,-0.4395933629212765,0.3278909689284817,0.11309166014649141,-0.27884790829637873,0.3120684151162304,-0.1879616166203737,0.25950185487392874,0.2542852291126353,0.49549908832643597,-0.3747932034504218,-0.0361138146855593,0.464849890569179,0.3275708407485236,0.33703580744952943,0.02927940142526464,-0.48863272155716164,-0.4582155173776288,0.250859899036843,0.41015442684793046,-0.43221535225685703,-0.33623640006086664,-0.10598754904783236,-0.3563913038450698,-0.4838499952741223,-0.30466306714748503,-0.051736258622769316,0.19837582980968693,0.4493429571912153,-0.3964333504871893,0.238190791067878,0.08134436917963872,-0.4471632344912948,0.12665264716156643,0.10800837788678619,-0.21724607640202487,0.08915740256901716,-0.06483855246636272,-0.021473186716727155,-0.12420373625887726,-0.1866666779043724,0.10484560186672631,-0.19012139742547052,-0.05424494127788204,-0.26037959731296945,0.4921021733110531,0.15811463392760527,0.18821469957923098,-0.04791540793675264,0.3760229389925147,0.34271630164851696,-0.28857978708908416,-0.24636756406637872,0.23723840255094475,-0.038928228926060515,0.21294622320729983,0.2898739406511871,0.38416516819851954,0.18445597060966723,-0.06838581517542874,-0.4245123880125583,-0.0816268068896171,0.39809685043797227,0.4901258888552753,0.2004782046381972,0.3583798122648927,0.30250859956467413,0.4368643231355257,-0.42814129758763453,0.19223948352255482,-0.10676953812341239,-0.14118698224548343,0.16059519748782247,0.35094774040982746,0.41385417613315467,0.27956202965189025,-0.33451112383161663,-0.040740587996258903,-0.04941801059052964,-0.10458360173127756,0.19945291450809588,0.08707925078716505,-0.06667129933354965,-0.37769113220696937,-0.402435434514687,0.10001024132607939,-0.45223764523781274,0.06569820608504162,-0.24771212559202316,0.2717637983230876,0.18453906922289554,0.0681664900780784,-0.18846318575305365,-0.394703519715794,0.4381401333664765,-0.27837692959969296,0.3541756035217615,0.46958953975250717,0.044285544578438696,-0.22586179017053387,-0.4699698479466914,-0.45315878090216744,-0.0743299200412394,0.28615650934311654,0.4221246833016602,0.25306733570092144,-0.3200655142180462,-0.40598622510674576,-0.4366158596154315,0.004457334714189853,-0.2115436128435053,-0.4635742637185777,-0.058343427566253436,0.3209791380198168,-0.21728909931073348,-0.12057854501702048,0.2958465881179816,-0.2289695903881287,-0.3272105795439657,-0.14464667017211463,0.12155611399829591,-0.03943079746209455,0.19761384280725658,0.23863980744464652,0.1903097342240253,0.4583303244944965,0.17820576076461492,-0.03294250460762904,-0.4762036101186333,-0.19452961748281217,-0.43164513706599117,-0.15923320745811942,-0.2975434331102651,-0.13219543960637892,0.25093366005616513,0.12356136167419407,0.30088659204077906,-0.014277770574360305,-0.2328076077035136,0.41381339085352187,-0.2939419047933246,0.35919567454128687,0.25623582799994593,-0.0068140684028943355,-0.4584936953608958,0.1904733056437451,-0.32229595250364307,-0.301934573811971,0.31948253313985386,-0.31968790234867484,-0.09174060038547094,-0.09180508938873644,-0.36909411149481364,0.25980088405796964,0.20231867562726602,0.38901271552365546,-0.20908616941721947,-0.42664136909020967,-0.1620753631398123,0.3676653582563605,-0.3467673493115966,0.04839506717897746,0.13704221700489927,-0.062055065056157765,-0.23449139460628088,0.19520126480296962,-0.3647527832238969,-0.44357498187606126,0.07893338863869193,0.1957480761359991,-0.3666593305734619,0.13821516644107812,0.13786473037080205,-0.2790726826160772,-0.05641132019589912,-0.4540865207120083,-0.4983388942915128,0.15278184558833363,-0.3608377691978323,0.0801135230423019,0.22489096405409925,-0.4386912120305384,0.09607552680421172,-0.1178570995179068,-0.4083544375656044,0.07855824260593047,0.4474317133331901,-0.40537477398490285,0.38921024500458445,-0.30321522710407034,0.1059123096295217,0.453811473035184,-0.14374380490567318,-0.1658553645329438,0.023986634037994503,0.12850246631689333,0.4030092187579377,0.49497902898409496,0.47954046663495664,-0.29359170735549633,-0.3827865940178843,-0.08851295258319003,-0.11192223775577126,0.20821405469602106,0.4368994444698576,-0.2101841794561775,-0.15228035483551594,0.39073541772766995,0.2404486041419217,-0.31146701459311643,0.14940515175451918,-0.3264807661213419,-0.4963859836534764,-0.07068347774470063,0.11635337640149346,-0.2093386758826682,-0.22553382916302056,-0.2744138210500573,0.4925331690565641,-0.3452713821062863,0.38970433188227727,0.2882949435274512,-0.06452149025295262,-0.1359709432816315,-0.11371540488536058,-0.4177994191155947,-0.2184538411775,0.12232405106406785,-0.3786507066545821,0.42325293922255136,0.30787090237921244,0.4593021738297114,-0.15077555672607224,-0.10331682360848082,-0.38040943924080606,0.2375566054911572,0.11606591124277377,-0.3657807059554029,-0.303159326159851,0.05823764309157409,-0.07346806228644398,0.22352743312899281,-0.12655262670084966,0.49183900817488213,0.24002729509816523,0.007531604191473029,-0.15848375108125434,-0.4604423823342738,0.16554856386977312,0.0922135460136595,0.24833781774699037,-0.311043372681307,-0.04089141371193561,-0.08152502509321691,0.04074485296499186,0.29359121191026105,0.27544788809619125,-0.4428661534611965,-0.30342504905992174,0.19855554168286338,-0.4624326440902373,-0.49684401332836137,0.31362524940555425,0.05312305244565019,0.10527307653539308,-0.21381720347258604,-0.14570628450168166,0.38100837962412715,0.2787310802012708,0.46648500790981184,0.4948945951569621,0.03180525506130083,0.12123829647977191,0.005173969227898367,-0.15573322990362048,-0.16255251532852233,0.3770002077234258,-0.465648069899121,-0.14150090661205406,-0.17250248068316554,0.1191615474238692,0.24958896995049173,-0.21320537414645147,0.41107389499267755,-0.4368289565975475,-0.06440449086311884,-0.31134419524499923,0.3058765498362186,-0.15264358036557957,-0.2056544182971648,0.012116994287697969,-0.07412916067902886,0.0717277525916511,-0.28408936383886163,0.09607457307381395,0.40994617921863774,-0.4154624518763531,-0.14830889119888546,-0.42846889123917364,0.2456285828125826,0.33153675585223796,0.10360573846555887,0.4691392483657829,0.11542813030582655,0.3206249256256066,-0.38673446572997694,-0.09638834749093284,0.020388398147325182,0.12448805466907975,0.1713821800280254,-0.46920764275440385,0.0785354224821182,-0.08448369561009006,0.05702452332757679,-0.24000323194709416,0.06174376862341935,0.3593857652348984,0.49832415223936455,-0.3169677368654257,-0.3507294091265799,-0.009617590810574228,-0.19684044276988766,-0.43970554359163416,0.21993048437691176,-0.02024865404612064,-0.20915007566594856,0.33553548904257824,0.14838043925515432,0.1680814332229713,-0.012015198031180452,0.17620659697539265,0.12696084982860556,0.36265218737182525,0.19447225151457181,-0.10388496087807997,0.39188017753415283,-0.4033384273915688,0.3637425745990296,0.2976967630592714,0.4019708944333539,-0.15336277275594035,0.15095648684414753,-0.10837842898720984,0.21485724045045385,-0.30742001750152537,-0.3104588974033955,-0.2979995019710324,0.13541749192617725,-0.05254580182838886,0.44133493837132065,0.04261055777232059,-0.4823964739661858,-0.4396148571353842,-0.06708021396688058,-0.47126999914662404,0.27590626672552554,-0.3477213259433878,-0.31247391113717615,0.15894836882161567,-0.30447389758554544,0.42272102381148435,-0.03938548608092307,-0.2047488065396974,0.01968459947759138,-0.07572206638458157,0.3907099459747768,0.030133483038905173,0.2220021788725175,-0.4712338073439628,0.2901184099938148,0.06406829683360915,-0.1662436967339349,-0.28234593966697097,-0.12068836671841121,0.21404238096639328,0.39594967997914543,0.43337437388189415,0.27477252303911015,-0.4780925536953953,0.09514502342866604,-0.0986725047711422,-0.28145569029196393,0.22564029813707887,-0.15495816397425388,-0.3376030922165081,0.18901995357934853,-0.10816660818058077,-0.20894597489613986,0.3810195415483655,-0.23656578611952572,-0.36909028068462846,-0.44437260673700674,