-0.15504478642217745,-0.4972529279006641,0.4370550302880496,-0.06476887116192942,-0.20818383753770775,-0.253663787637475,-0.20938830950884812,-0.4434873889325591,0.47953637232536905,-0.055013044110193365,-0.4364151012209069,0.10373392126669567,-0.10952641916948982,-0.1306398750011287,-0.20914328115589262,0.2658104275272203,-0.04955981629412731,-0.03620735515615037,0.13636050513931752,0.1777238134774155,0.42988700648782496,0.042896955876017384,-0.4460598166014863,0.38451562236017967,-0.10000752247401723,0.1854181002355123,0.2539502646057765,-0.4449247516050263,0.4825581544570112,-0.12289896153993973,0.47198791539688256,0.41456851457588373,0.3899495788840086,-0.44348840245119847,-0.05446678676900072,-0.1815410739381844,0.2638687220616368,0.3833594391273762,-0.3332869943573264,-0.35768722533665886,-0.33620686127737365,-0.18724130759160176,-0.14919065203360543,0.1585346604788543,-0.4647348831423839,0.08685740456092901,-0.1592650356876001,0.3542309173521671,-0.02384487847422352,0.143471349775476,-0.3685196890966011,-0.34655937706227274,-0.30072879772154903,0.49947888546797525,-0.3487127839502321,0.0351385310599982,-0.49149655714125184,-0.11490115333379602,0.3969266130477797,-0.3176151559380403,-0.022310549530699903,0.11665064097316871,0.2124099075509751,0.2561079522562158,-0.05983639394624466,-0.458619513647747,-0.3725215987852965,-0.12706210717594799,0.1965842415951807,0.1908930276574731,-0.0070164743638039696,0.039653727037447226,0.3888667727931454,0.14690827241190116,-0.25805419396593193,0.009812335815518845,0.11550937859198918,-0.1741005122438131,-0.30408419262052117,0.19526050352089902,-0.3658420498133423,-0.24624010116756165,-0.24978849272599657,-0.29363339247350984,0.002225641655042354,-0.31847564777195003,-0.47199953475976963,-0.1843103056847051,-0.3040944886929516,-0.26482898649782355,-0.1484324646457204,0.32968453085145216,0.2640034676034412,-0.2565638751302472,-0.4604800350537585,-0.06790867167645764,-0.4433781024651283,-0.0987336973956251,-0.08626577533445191,-0.5149107630207994,-0.03513044318498897,0.1307144776710615,0.19909823650068914,-0.389767478425858,-0.16588919015757497,0.4536223122715185,-0.35702210309924703,-0.23378272432831748,0.4596305458832683,-0.30840910291180534,-0.47064842855001665,0.4430083765050361,-0.15526078748590233,0.21256557379393146,0.016711846554832183,0.1570334044638823,-0.24209822125640607,0.4826473149866559,-0.4046026597061273,-0.21845361567296404,0.24689542270727283,-0.12722561086303005,0.18337460352550825,-0.20187845450606723,-0.3598050639455683,0.05514257238274139,-0.23672844369413798,-0.5092787670602792,-0.5224943707922823,0.13944846056920251,-0.47588667335104734,-0.07031294205244874,-0.23432615173177102,-0.2204970615522836,0.08758139556465501,0.3333694423289123,-0.2674278264730606,-0.17242575127265522,-0.21492484588309532,0.2757122520337223,-0.4150346081554859,0.23530147961524062,-0.31870106091383654,-0.3777478200675527,0.4546589955804542,-0.01924752427397403,0.05718875518441813,-0.19744702644341597,0.2473265491727384,-0.4023146717298925,-0.15020051731388362,-0.0684367020136322,-0.19893350997062628,0.2586180494469708,0.005748989513312346,-0.37678670738160114,-0.5511713196263142,0.12633129744755361,-0.12661454685268647,0.17146085024017899,-0.18689316742650464,-0.21011899215483298,0.40962943305329713,0.004097745536860268,0.014162503358398838,0.4881907513496452,0.3757447428468103,-0.057666074995854966,-0.2375225404709984,-0.03746022434957197,-0.25764674041560126,0.3705284496249263,0.15407440301969894,0.15613891285941917,-0.24157574618838967,0.22209267293153845,-0.1891712748700296,-0.19453242866472634,-0.053769757934205686,-0.0408197134773645,-0.03771188603816729,-0.39225367706142583,-0.4999749226276394,0.15177750423051062,-0.039045043130017595,0.1346592756420613,0.22034697579804774,-0.1412142295156182,0.4391908448219088,-0.08007188917099597,0.33526907574902837,-0.2579660702628241,0.12041662559579189,-0.18538401641813756,-0.25652309225942654,0.3272712325279751,-0.013545669425224172,-0.20358861983668555,0.4622561076865973,0.14129866406179895,-0.04794116358341764,-0.5192669657375255,0.15182081755106486,0.006302266576965917,-0.4889499586359774,-0.13296344838608534,0.004362415362263233,-0.41410379580743123,-0.5541968846237106,0.301355168290935,-0.08912117539153362,0.002834590965700261,0.07128763178197367,-0.4940173507687104,0.2826969729553733,0.1009195312898598,-0.17565313189700024,0.48590799160514797,0.3892713530395327,0.16034138788184885,-0.23533708916048704,0.16081056826145548,-0.2650026011344511,-0.18096192469596134,-0.40810635425603753,-0.43248524914123654,0.29874460077329135,-0.10347518902442691,0.21562836990351972,0.042376756262074454,-0.5477214081191807,-0.19049167418616128,0.24433932580965856,-0.43010383213136694,-0.19654474210340647,0.33793488806245187,-0.6271359410187761,0.09439333176120006,0.20947108986399687,-0.5380846237642292,0.23254613561100795,0.2402891662635988,-0.011100045702537992,0.20200986087626008,-0.029117019371010185,0.06312272969179147,0.259746255778205,0.2320938168706108,0.5339354227722801,-0.0997864852861215,-0.3604861071988034,-0.1222376678923123,-0.0818172489870964,-0.048487438357548644,0.03560925214289896,-0.1353700656117707,0.25892792933316666,0.1858111452902444,0.23852636234076574,-0.4965678804138716,0.42700124525610056,0.339586439164242,-0.20673142844934078,0.269828268233541,0.40490232915424457,-0.5844616373905789,0.2868172529818363,-0.05928774736508985,0.25743609622906993,-0.2920396630924019,0.34734776758274516,0.3143210759855006,0.17747715121682106,0.03590027430200147,-0.056464432340135366,-0.26933758027004373,0.3878722328455753,-0.36884527865732336,-0.31364637299768733,-0.03787826448210061,0.28652940550187955,0.11606853597866293,0.2770667549039436,-0.20076035256419603,-0.49812412288854035,0.38813364059586875,0.15838150908998094,-0.4077192228830611,-0.19904588618605312,0.4115739234245168,-0.011060980686436548,0.30192507469045815,-0.13090725536348924,0.21297371190733846,-0.17253967070756515,-0.25885721407651974,0.111001277532134,-0.487738639362287,0.40376141518909353,-0.013607051932992045,-0.1531490835535077,0.019556874875989852,0.055724262215559796,-0.38571413499576795,0.026656841982892938,-0.09793218468724299,0.07418324924135626,-0.20398156582696117,0.4473451815293952,0.4588333215454429,0.45945772061845613,-0.2718157493698425,-0.07456224039626812,-0.19517890165557192,-0.118271190670594,-0.30518513668208924,0.3533232934106579,0.6618931381434331,-0.1435291418079903,0.22598902081797453,0.2605720957896381,-0.24865771189683664,0.3344027537546368,0.2156442065705482,0.26902684831359586,-0.4274496767307855,0.12142299193107642,0.13410187746874017,0.023780085981474876,0.20262396924151127,-0.46769905986391475,0.442877855042901,0.20429015387461535,0.48803407187787184,0.09004003444619779,0.006174629822174688,-0.3187477765748319,-0.3389654951207827,0.0502607475124092,0.33992449536537694,0.07719671489769421,0.1317958698859505,0.6458564650739584,0.22411822326757153,0.6003824290662012,0.2874332939568304,0.12157209455720842,0.5357422538797812,-0.15404699233050304,-0.2926760445351944,0.3598546032016841,0.2779408678269101,-0.31413184891056917,0.04534348153493315,-0.2763728604429435,0.1605967936949903,-0.36945663282148444,-0.20491759827960931,-0.5043280717607319,-0.3184848653327241,-0.029762747977609666,0.45770484287489444,-0.3631182000361564,0.4005482291349734,0.12563734873554927,-0.09210709847225347,-0.4104624929440133,-0.059209750643417686,0.1432725248728404,0.2603913161999627,0.24836255886210776,0.27338709058999733,-0.080751277382449,0.262920548870973,0.030083459228865322,-0.08959161645017828,-0.35701173334404745,0.35554800528793423,0.26548538834447355,-0.03203942493922463,-0.13425130890220432,0.07828976082358403,-0.282809836219648,0.2509647897492106,0.21151957511106723,-0.21646436194723673,0.15641582081683883,0.0130364849380423,-0.0825861853450941,-0.13924019083332453,0.16183087370839333,0.2562303401250612,-0.054451915413633256,0.15857806781809777,-0.14047907975054635,-0.07147877253006397,0.49852534072253557,0.3241256427514929,0.5109697189215665,0.7322057160834339,0.07617376193806352,0.4502113527298521,-0.022348240338126418,-0.2607683428157652,0.18426607756793903,0.15906655348610862,0.42942337643634587,0.3554996918417089,0.019814474140363497,-0.31724582869086776,-0.010035851137227547,-0.12959647705087682,-0.3467862429453819,-0.48064143569811313,0.3041431755634126,0.0995684256135946,-0.4224279158094536,0.2385514132702822,0.37252789929262986,0.18772349580890837,0.031841892551016215,-0.08994355054787473,-0.06212977971893883,-0.48826212708880873,-0.3087968877011922,0.4899294856721424,0.424626288963325,0.48806271196211765,-0.1807051820824888,0.5465313503036904,-0.0011316956470479034,-0.3566159263646402,0.6145052219850281,0.1116820509685016,0.6709036437838892,0.2728864511725785,-0.35230527229596414,0.3860448244428281,-0.3656969990763074,0.20705923471335627,-0.06511205012481837,0.02459085815733567,-0.34772151680021557,0.022324201117992677,-0.4717445929120572,0.40874555562420567,0.10283323366146538,-0.3060596312720769,0.19861574033489693,0.4165668730762392,-0.16020689357014356,-0.4859070931289613,-0.05141774730779964,-0.24103180306888652,0.010387465186200043,0.23735899589551407,0.2964161124831372,-0.1732885754397432,0.36834547737388706,0.255033414083619,0.37910977686320424,0.343284716679767,0.20727231716012287,0.4344280460639061,0.5971236044260344,0.5595652141074238,0.03863872270539423,-0.036258139823678065,-0.11176625605405892,-0.2886910995889955,-0.48479117421910844,-0.17970369020136948,-0.02809438414798507,0.21683788073100102,-0.17441924208119422,0.41804334184219877,0.12605808223270776,-0.13405977723094556,0.48527645239787653,0.18379000427305212,0.43410366243484444,-0.20632105520242205,0.19999033940000746,-0.095579045886614,0.41389002474725367,0.18516433267452143,-0.08214518913528765,0.19256234195486419,0.11556989723245695,-0.059460633519388024,0.0370701696827336,-0.013054674255280948,-0.2421521862900832,-0.16186936993977985,-0.4662680431141886,-0.571776024028525,-0.5094289801071636,0.2251658880452804,-0.022931618663301224,-0.5560268331769352,-0.3719029357029073,0.3076370393821764,0.15490908448377144,-0.28817038550343793,-0.05914102225261142,-0.3400277251464912,0.2475218683842138,-0.3805679278382534,-0.07409020809979107,-0.0103422981019757,-0.34722391274218195,0.2077679277650279,-0.391823125143169,-0.3332644615397325,-0.30063074260198985,0.29639417919485983,0.46784510077067065,0.4946246987660993,-0.2250720161005013,0.5055316366351456,-0.11716975897523323,-0.3409082387493424,-0.048935809446368675,0.16034654689273,-0.5981313994443422,-0.016072296880504853,0.1337362139903622,-0.030437760043719682,-0.269131220328547,0.32089850408444237,0.4106148953366551,-0.35620716940292935,0.35980793625643914,0.4018167640477974,-0.4756193475542405,0.31389938694358344,-0.40155479855380016,0.19677134287022788,-0.5447714244404196,-0.40415747709442573,-0.33006256161759606,-0.44409359098381845,-0.24987732679371383,-0.32166425634219203,-0.6577510157487158,-0.13079818077048921,0.11347101497612476,0.16719308952945292,-0.13257387777401147,0.06197544208914994,-0.2774078747832539,-0.5044728366509669,-0.44581521848794753,-0.5187644139609467,-0.45235794625484704,0.12415910822263788,-0.4227772723243798,-0.10945213346806565,0.492476088402008,0.2949308177732036,0.2471629038537695,-0.1843195481824877,0.2096013079595627,-0.08021844864267288,-0.0326226429549757,-0.559113769016528,0.21735753291781776,-0.3342063276705526,-0.30368420819815983,0.13578265530829325,-0.05924454411611068,-0.36571240042893516,0.06548145158431667,0.05256563619673739,-0.5357270341423558,-0.43910341392619806,-0.15133981806998,-0.3231410166697288,0.014339238048587775,-0.3974439444060447,-0.16671164631556343,0.3643452318351621,0.24864457260029152,0.10284429094678425,-0.4403105906769057,-0.18268405875299493,-0.3782482578185656,0.20715644844559122,-0.4340666876264865,-0.3091147092458659,0.022551981590379546,0.2891617196061164,-0.0013125193097164578,-0.6243027982815708,-0.4532975709868317,-0.044459749231388276,-0.0581712288337926,-0.29097678685341705,0.22051916015984696,-0.18570821549570626,0.022647937103676397,-0.6940526567213866,0.09978059230655012,-0.04987173752590712,0.14678884461424752,-0.017018793963643607,-0.28831712438283785,-0.21580999683956187,-0.49309102042220315,0.037967911756847064,0.1148390092773672,-0.44694012599649624,-0.23914746403347018,-0.0838700358745008,0.2692527558999121,-0.1916895604916433,-0.06388060862813565,-0.08302692792975037,-0.019447378764382774,0.4321261777108759,0.17219497014518914,0.13348964387646298,0.16511731201856908,-0.4941661667586768,-0.04276007777872008,-0.2000690592041834,-0.08196030995127249,-0.24120268186291324,-0.05822248313550527,0.18906542124106968,-0.19419766405420152,0.41893538507785616,0.40191549710808355,-0.3453614356932272,0.06842343462778705,0.10535604281463662,0.17413531955623401,0.28938955501296487,-0.23819648293266807,-0.016273129925872425,0.4619957230557898,-0.3408849890050306,0.28834426972049887,-0.07285453619436437,-0.12789962594096238,0.04309411165369459,-0.3577305443623454,0.024142779487730893,0.06270019775676623,0.09424471519400507,-0.323702939166076,0.25701988940017156,-0.4102634086052777,-0.19887991269478378,-0.2349939317096596,-0.2807162706368283,0.2274933807069052,-0.2922321834208187,-0.1642373439865298,-0.332094375395334,-0.20138426896942596,0.570791037216938,0.5505261632570856,0.08791389079257143,-0.36793832909392504,-0.19626370617274694,-0.18343301392378294,-0.19660261959674688,0.30803179818695964,-0.16781744737380178,0.3681064513939255,0.31285254286724573,-0.34892112304202016,0.14860877648281234,0.10506970438860917,-0.42007977161149757,0.13883043617192528,-0.1603696569021751,-0.4529247520396121,0.251294402517591,-0.05095546725103397,0.10318193950083056,-0.6141394717338015,-0.15757699715872422,-0.47450378257394044,-0.16198201733275458,-0.04539940331979782,-0.41865014022736696,-0.06667790051741489,0.23532805431191048,0.052520860414861426,-0.2781069159910456,0.5409391998176841,-0.26571390651122095,0.26956599159358074,-0.306392947061082,0.05991348878037335,-0.2426119519375794,-0.36504273942262294,0.36983936360509684,0.18046320388491188,0.15278768741390558,-0.3946253716498873,0.4594912640610384,0.2954958410498433,0.1698505299754348,0.20449831244042221,-0.41839471463716443,-0.27002280029597636,0.062440773737719606,-0.3424026321293072,-0.27125428917972394,-0.12458705174912943,-0.087175590265806,-0.4484926423987183,-0.09732842565235718,-0.26181594068784336,-0.22997954671584334,0.056672472329903106,0.262638526487139,-0.19545071277118442,-0.4671193186769026,0.05113343304329212,0.16010938053159388,-0.2775027833321223,-0.06050384260871917,-0.05470552288887057,0.23326480558377594,0.42362005828592,0.003378573480724456,-0.2557811659906737,-0.16811999994846216,0.22421025560299354,-0.23080772711566205,0.05670344891688756,-0.18963578267521508,0.3993360215374555,-0.02858007856520964,0.23951636917096963,-0.4221817949376749,0.17238514603686256,-0.41912216720856904,-0.19165083843545108,-0.09601080899938731,-0.0748331543354185,0.45274115507138774,-0.41627525615013666,-0.3977980179966668,0.2602978219184696,-0.16184977675225012,0.44583169085129193,-0.07630625506756007,0.29327631615813404,0.4767259571507562,-0.10612791062049465,0.46144581184350597,0.30505354538507234,-0.12727410004342832,-0.06720922625619874,0.2020717323324266,-0.2222267725039131,0.3157354834955247,-0.11473029091511562,0.21644696163219002,-0.36447207075240934,-0.05677360146486669,-0.2894299988568797,0.11901531390500913,-0.42397488027338337,-0.25031097441864375,-0.19362810872808184,0.09007950805373204,-0.057973446439547556,-0.24652318050788058,0.18590320904056112,0.1464613899363585,-0.4799408167409006,0.05175476883920914,-0.015699317426642403,0.14872249988759378,-0.44863765043450465,0.13064163254666317,0.2918092603068574,-0.09927597259293253,-0.2631920922478523,-0.4554434281081102,0.47589783891812554,0.27053184576369027,0.07634750972623583,0.27294528292352915,0.13724959602714826,0.17844244883291627,0.21532417662800474,0.06611056861719444,-0.31713176266153287,0.4362925358542591,-0.19754643158372898,-0.13830939328455694,0.42629483403678115,0.09046501853098654,0.4070463490058641,0.1356919061798293,0.3881598218686729,-0.23036039666231134,0.23432201332611968,-0.1372900038393985,-0.25825217803222056,-0.22310987633885915,-0.13329334678260119,0.16435476078483713,-0.38114186671547245,-0.25577443905373476,0.3215143613807252,-0.0009287832748179348,0.06468105873758734,-0.4369611961808786,0.39310407422243054,-0.36164827771737734,0.27958410333045924,-0.44288261886192337,0.4862279476425015,0.2904734937297565,0.46413557355111146,-0.3542019901931741,-0.0777977791048366,-0.2808592453790479,-0.3522988945423028,-0.23383339322806113,-0.4050404764335011,-0.4448174406449272,0.05016075402767754,0.3435821264998747,-0.17730352702770966,0.39931574261312924,0.4071458753933478,0.3918255893090284,0.2726687125174271,-0.02645351407420915,-0.2496831189013684,-0.16371344807848343,0.05471889466082902,-0.07628973890824697,-0.1640977319295791,0.024966948187727715,0.3948940893279782,0.02443216030561999,0.20867802766439406,0.4272384753616331,-0.15093259542702978,-0.22686711415952301,0.1971704246614653,-0.36779837202222776,0.42509186708894886,-0.09627412661414872,-0.45036974957472725,0.057456480138045295,0.2545478116536796,0.05741712838922484,0.16127218339545873,-0.2833964838010917,-0.048888014094848255,0.025045596199810782,0.32455920742564853,-0.09330197516209693,-0.22229916345782463,-0.2573600819058803,-0.1500461069566071,0.24848112739455985,0.34854142587206194,-0.4437832386226517,-0.05138857414882991,0.15106354135993663,-0.09006722656106846,0.1155869310953269,-0.057207684202243356,0.4919438624833989,0.3524563727775907,0.2075562108046795,-0.22143555399448947,0.22145807748303792,0.23757393229644388,-0.3612910222644764,0.5172229841251246,-0.19996434048677533,-0.4323545241983361,-0.4185737764783942,0.14526350699384552,-0.3720703364418408,-0.21043224180583753,0.3549146792326951,-0.2691214653969547,-0.41677950299680344,0.2443372469537754,-0.18895187834049784,-0.1037851956168973,-0.057412364840975144,-0.33341469076918473,-0.056584360822607205,-0.009960679180624632,0.17675203267967776,0.12525270540912775,0.3243515958257081,0.11979354580533948,-0.19167167424125878,-0.28493977865549724,0.4042398124409953,0.3077006384880697,-0.06679691519628234,0.11403227001016278,0.025247378001744973,0.3815117079584953,-0.11160151446255721,-0.34244456173977467,0.3483471063119633,0.3340022442898395,-0.15896873646176596,0.11708902342329094,-0.35198509677426243,-0.2814665299036383,-0.10703823403699515,-0.42357433013115064,0.4138765661938776,0.16181330618663498,-0.21914724764543267,-0.3457530580535353,-0.29247176533781194,0.42195564257666096,0.17814756441569893,0.20942893024374098,0.4170130536315752,0.10969154408948699,0.33380142305729027,-0.18314818725015092,0.5677604007836115,0.18117794467952247,0.4843121393598197,-0.13978401123002182,0.5697998903715432,0.27128022922227596,0.21516691288456832,0.2137200205258145,0.3505162815197672,-0.05872124606924138,0.5139668134700182,0.2039569350812552,-0.11675967652682571,0.37932882122554273,0.4603513973578039,-0.33424262723840237,0.08706067664294626,0.4166875446516619,-0.22711843235910806,0.17062270628671516,-0.21115813955636875,0.20685041326104756,0.3280009614707614,-0.1597894525438173,-0.39641743595764656,0.23281803862216818,0.016040112828554956,0.14329434555129159,-0.12546963716378465,-0.24661516784011664,-0.23897721012306847,0.015474776378063724,0.5445818479219375,0.24813925191055788,0.2801447659941854,-0.06297422816376555,-0.3258510023704118,0.07255346481540656,-0.16856561136010503,0.3595886466542077,-0.16156065249913956,0.17932873414923167,0.17418336138097437,-0.3106880566559397,0.27412727024230527,-0.4520297525363211,0.3697921575954998,0.42162322436746424,-0.031113702690651168,0.37356454345886436,0.29542274627549836,0.4591094375673827,-0.2966658120337688,-0.012737529725063512,-0.06044861876832655,-0.2736395630699311,0.015210451929531806,0.5395839028811663,0.5472903398060479,0.0463160066903172,-0.5142742060995329,-0.14467591390787976,-0.2431396786052325,-0.5038684193689034,-0.03426383820887913,-0.07525178383302979,0.46616058546503536,-0.16284821642057953,0.32950456731283845,0.4937528943339985,-0.046808448313583974,0.35126521961976975,0.4235362441836329,0.4498072334015169,-0.22390004061354518,0.4308530896115651,-0.16991845274111986,-0.29736407977713925,0.2755791548349168,-0.39823726138364773,0.1558865285582784,0.46485847891413445,0.48996239932347796,-0.01722663925499174,0.43124109775705094,-0.37869340368978355,0.36601155105038063,0.24609639788358056,-0.6775696104823117,0.08349485490968167,-0.529141978477914,-0.5690246526848733,-0.19990298919223246,-0.4585970066347456,-0.3234970342141585,-0.06250688601025232,0.42432098253391115,0.14116392400579317,-0.14876741386889764,-0.07711896978540392,0.06921192418225804,0.2460747050364896,-0.0907108223351527,0.4429015538891158,-0.1683883996846133,0.197011936668382,-0.22900502251623572,-0.21193614879510775,-0.10743877136462819,0.09208384965873184,-0.434262970608051,-0.11217379079324064,-0.39289852372917966,0.21656555901248417,-0.2173784060197649,-0.45595510283117585,0.007179622735895933,-0.22064518631439492,-0.18019674788524845,0.15210852059135188,-0.5563594269640351,-0.05097467592431156,-0.09393811023617173,-0.09762814382547354,-0.3006131959531506,0.23073914153311614,-0.30835648339814015,0.13547301280831436,0.18361104770398548,0.1661158700022482,-0.47509234034299375,-0.3718738658922314,-0.38151449160585427,0.46975044277854033,0.2038067624031426,-0.490265711017163,-0.3901766808116855,0.04655531639478225,-0.4895039639649461,-0.04776424936862481,0.2537173848613531,0.2907387694252552,-0.22879182510579557,-0.07689592546880121,0.0036109557308718412,0.1838665886585899,-0.4466243686273336,0.03463473437133487,-0.3179124131207016,-0.14785255005114317,-0.4441110125250598,-0.05287118095813723,-0.14678875080737266,-0.3748971099460351,0.02298477768180009,-0.04861556441757186,0.3649873941704256,-0.3071346423030879,0.49373754526232777,-0.38587077624438804,0.3972101052113497,-0.1796945486133853,-0.03516297630643484,0.32534632548435966,-0.4949711211618184,0.022329516743299922,0.38700530152846213,-0.2807158543039894,-0.04307545922225594,0.46402826892638566,-0.37422707578583375,0.5109494480030551,0.4009635653599817,-0.28994990712646135,0.023535008564116593,-0.25137811610140554,-0.08629294261610312,0.0005225857092909615,-0.6278199033402043,0.08968459761509659,-0.5124304393723391,-0.47982813759073867,-0.12861911568003523,0.08667989641201884,0.17896853407514615,-0.14943696553602434,0.13172177812412014,-0.24064772486906386,-0.34317460676521205,-0.4613805884588629,-0.17418052437865195,-0.4284838174508215,0.46210732206249694,-0.39086672988743376,0.24100775386781856,-0.39618952004516805,-0.07492110084796283,0.44250735786475,0.42173102658923994,-0.0860508508015365,0.7667854689031017,0.21026957931405418,-0.534608227667469,-0.17083349052875185,0.2899996626694867,0.13970640067956228,-0.0386782881584178,-0.018097985462707442,0.20021566748339636,0.06484300188559647,0.3498305737197447,0.20902843420500286,0.16822268343016225,-0.2682734820043985,-0.01009623235872666,0.11800448336460687,-0.33148251165713416,-0.34020054529508603,0.10415402249311179,-0.0016916392083535189,0.21461340712869265,0.12903774276751925,-0.26141123122016485,0.29377809287804163,-0.4863580290519087,0.3159921616831132,0.09413979547717811,0.0921433505511916,0.03541675588301239,0.18138977213530405,0.43451697210873985,-0.22981220608737885,0.2970428421241716,-0.332644754895616,-0.08917230569378523,-0.4227684839434113,-0.4659674799079075,0.250656945111278,0.2800906406131377,-0.2490961060661556,0.12330343861603353,0.4023039396845476,0.23565041496844663,0.2043426197265064,-0.2742206482014108,-0.40084357567433965,-0.03266995147114055,0.4675395811856595,0.39697261424564184,0.014281971602759574,0.11535636032224819,0.2896254385615211,-0.3389777636338475,0.23601952150398167,0.11420644173449673,0.6255476462099048,0.24446723110781263,-0.2783085088124874,0.049972322794767245,-0.1492977187310999,-0.39713196375814247,-0.18254893157954827,-0.16419156482161168,-0.49556929802808,0.11167799771623375,-0.3179222186304406,-0.029479961877012545,-0.07056531327129867,-0.38904635126770476,-0.18618098696365487,0.4564297325611098,-0.1389658844576199,0.43669596095466756,-0.255838107334041,0.36783036192841895,-0.4193461033065831,0.04269955819195358,-0.21975424262183516,0.009258841895281868,0.2804827511101273,0.0919725012377126,0.1837141232396813,-0.23094889620740128,0.2603715111608049,0.5506035899573773,0.27920359049590915,-0.2139323560887955,-0.18542577050936648,-0.15050043323405887,-0.05186564415784476,0.32593428752467274,-0.03713969843485844,0.5024615358493094,-0.014647273536273611,0.2884379242115837,0.47913938326447375,-0.38785057164515996,0.23450183464847132,0.015625705217048574,-0.1126925663059508,-0.2947938135282775,0.24107512636989742,-0.038179777599126365,0.31749038301514954,0.3091008228741111,0.2805489415826076,-0.06884845785651754,0.35009894430424404,0.16326341032638725,-0.3386616777179814,0.447335312061747,0.3894235843943834,-0.015460610016793443,-0.22340167610180015,0.2624330001614389,-0.05658945180496747,0.34817375815036977,0.11136606570001216,-0.28437696262323503,-0.14807636867665516,0.4372666599118306,0.13113781501866878,0.45538525261270046,-0.3094873183029665,-0.3240581415406878,0.4201667529872396,-0.4516540209852612,-0.02600000759057789,0.23278209949373518,0.08828680006092893,-0.3947833244440063,0.11625422350844088,0.4630217796818059,-0.23288932179553473,-0.38141389164722417,0.12345783851712622,0.42273257655960206,-0.4069118229314297,0.3005495374213518,-0.34685433174830366,-0.11603100737778972,0.41490300120230145,-0.03530976147315385,0.01858811311180628,-0.43716845316310704,-0.05506746907240097,-0.01736722163338981,0.4627720982909029,-0.2605741589032367,-0.17387432876672587,0.10617987389270327,0.10009270006537394,0.338737183850105,0.000829089132280465,-0.40678692923959314,-0.4915869502936626,-0.28933587721548937,-0.2209262786220203,-0.0013399010723987679,0.38836648505489213,-0.22809006236331417,-0.27375598370911264,-0.004809801737041919,0.296183900904561,0.2989163152874613,0.5592673251734784,0.550053520492433,0.4322700314443545,-0.022986131157464958,-0.14746810441581473,-0.35633665948072046,-0.30894717648040343,0.4825568690479317,0.3335769763629318,0.11915369611509033,0.4851145697297917,0.14072462431507257,0.38610534175288463,-0.03576779329654574,-0.166406548886514,-0.2807658806385771,0.43914102111383213,0.46842378348094843,0.2721045081852565,0.33784970813235093,-0.4703555205278434,0.2223520346710023,0.20714017916700941,-0.049531220559608756,0.12382369044399424,0.5079200403634311,0.3227567049220711,0.2509429579296095,-0.1339498194105204,0.3917850928158823,-0.20127440708094105,-0.026342539426407897,-0.19407008201957185,0.3197900206241793,-0.3596020566049504,0.14341711258692091,-0.20488800743251537,0.17291748981888977,-0.08824380206852317,0.5881953045379151,-0.23143152377934398,-0.07789187469757704,0.02339614869684393,0.15248825591015308,-0.10582325579081016,0.3376162795948122,0.16059108441132341,0.45996661880235,0.029551521763657922,0.41562507111950137,0.16852886611336082,-0.09054996257248557,-0.24177769120186185,0.5685766994664353,0.34780107632752366,0.3894949498358846,-0.13515192750130114,0.6255042607286618,-0.010240980291149176,-0.14899602112958657,-0.3790873384724049,0.4366088270786193,-0.28431013880113476,0.6182340060460432,-0.06974082504685798,0.19634622936618779,-0.08508544998794612,-0.22615834645150376,0.3036063850741858,-0.33532592494845204,-0.31261261532454854,0.4223804798424397,0.2594615142064198,0.31134919319276244,0.08798042089245348,0.14902736775955316,0.32092602311730123,-0.24707619930375055,-0.043821442248553485,0.3076254444421301,0.4760110542876089,0.0010341889193841974,0.0022370563494362307,0.47568038746252067,0.0004859157366734723,0.6105218269690896,0.04713041934054663,-0.14209551636661102,0.4005918465826809,-0.371538855041501,0.15042321598125738,-0.06535488587648626,-0.12068330274637605,0.5480997891800974,0.12218476488142999,0.5401279866108497,0.21578774149814087,-0.19607735089597114,-0.36621920450322104,0.06912156407265116,0.32329417963296625,0.09560211225366777,0.16228158478204951,-0.40407288050374285,0.08652777832349405,0.1986579176636576,0.2871077333609936,-0.004952284821717443,0.15971304488019597,0.2629727412249871,0.07971599985499128,0.08708565970482567,0.24598791364032563,0.48716438801282813,0.6710913891971694,0.3416023835713057,-0.1670262027279143,0.4764000880277984,-0.23295060532509163,0.5178357025730466,0.24749411508992583,-0.10909727349912207,0.22384331992126133,0.0911747251753095,0.02438552809052321,-0.06380965186452754,0.44057443481279457,-0.3085508861438465,0.13858274866393475,-0.04081434264383727,0.23931394884355203,0.22234596477329693,0.1847394614909409,0.45464622444152303,-0.13788655764997834,-0.12408473096412306,0.2850715236197547,-0.14491734157008634,-0.021536372920012592,0.39463187979630115,0.1481695653085579,-0.3944937863267184,-0.14410011761329886,0.4539064461103917,0.0899288406692922,0.29186876618245694,-0.3714315818973696,-0.11298490937303146,0.27499428523518016,0.48969369158410747,0.1061619248390271,0.06858268541391953,0.12799431724368746,-0.47448833523319467,-0.07641205189619317,-0.4441515917783765,-0.040024115989511534,0.4788871600387498,0.09950226283194619,-0.4752083955827301,-0.2957135779500709,0.034216087614801965,0.4587282700090127,-0.49475596152841517,-0.10107027610404679,-0.013340585093861681,-0.06438411262830471,0.12265816822476457,0.2369332229563104,-0.2355757911148555,-0.17381640714324598,-0.2842553515362548,-0.1439990287301663,0.3970793596423174,0.4022503909851823,-0.018361879300481856,-0.09863786348254908,-0.3689219103258405,0.18432819850951213,-0.5271546140162867,0.11760317291779823,-0.22747929790117918,0.2619085766511091,-0.09837992365847918,0.044495226934059204,-0.3338798441407642,-0.24438645436318585,-0.11241872264574304,0.1755926423508516,0.13491358325072328,-0.30924062022575066,-0.39978162504941206,0.12618932812595607,-0.2821645509333814,-0.02093471571351227,0.12101687210444956,-0.6375343157190883,-0.2697193897482557,-0.2162833195448555,-0.17219620641788017,-0.1676359144517531,-0.6743719416469693,-0.1459281028135749,-0.026085434501290763,-0.5939679887686539,-0.12229059635416324,0.30209947667979686,0.002785748224717678,0.3185233157698906,0.15334584467103746,0.46530766045780597,0.3584667816873586,0.1531802173327554,0.30694380202893545,-0.35727952767522075,-0.0535952089606444,-0.4067754143807778,-0.1276029122888247,-0.29653354926203923,-0.3476618847885192,-0.48973561902106577,0.18823893819988,0.05914593016329182,-0.43559645454380785,-0.2402144917660467,0.2543116309130357,0.29020537735514307,-0.32276472071498846,0.2397878685805215,0.271382321127343,-0.18116163180230688,-0.32837715309375354,-0.10407189245251515,0.08669545081190194,0.19835721624809813,0.02278101049595589,-0.346900167554714,0.37749381984840424,-0.3907623202780389,0.14154522488200352,-0.027043081685230886,-0.48024594258720366,0.42140670087377163,-0.0955092756836291,-0.09646756684000513,-0.47541490083568605,-0.3331756836058538,-0.26934376388323455,-0.23243682286861644,-0.406300421552879,0.0571278622681214,-0.489779754075841,-0.48092683031698485,-0.23112689397566155,0.18576093056303067,-0.027187801622927263,0.2395249574744109,0.30495851805228913,-0.44716378156116315,0.36542218501631396,0.4237080549487155,-0.24843892504154266,0.407124760441921,0.2851624362010004,0.24729036352604702,0.3372043434789566,-0.1877811139544587,-0.12938465876446748,-0.026719077122029367,0.38522610369316346,-0.10806965421648551,0.1906675565286171,-0.49267186119729744,-0.4105569779009208,-0.39084640862825215,0.35764878178450277,0.4353831194044805,-0.47373638173986754,-0.24923432021074865,-0.30559194429954917,0.16321610696859346,-0.12917434482560108,0.4094607369090143,-0.07633988678249592,-0.08266175194263843,-0.2695055366820311,0.4939861236784972,0.05815149138703994,-0.46778482798064325,-0.47436074441206755,-0.13481705283109635,0.46004443607948053,-0.3324958230965268,-0.0075467137737040835,0.23878457273275644,-0.48512300987770973,0.20409989634960224,-0.45694164732644504,-0.38680886262818415,0.1514819715112532,-0.06233649423805332,-0.0278321917301676,0.43657407461006603,-0.46476723873950143,0.08910759079579327,0.3488503741360723,-0.39045270717592434,0.41333835454778955,-0.12076057016408616,-0.3226950514691007,-0.2174821083325317,0.43987913196382183,-0.19306331623335685,-0.40972736063079523,-0.02295774563055426,0.1245018276215001,-0.3529720389822584,-0.4438129505160896,0.38976261146642144,-0.015049941661551965,-0.4481934978020847,-0.27007132878374285,-0.4376581578618296,0.4049606210607011,-0.4705014097643502,-0.06603300316048322,0.09605147525317903,-0.3051058299461332,0.0963572882900039,0.12808431835494982,-0.368228312855936,0.049955043305843015,0.08086021044269663,0.23398217869939678,0.1663206828152256,-0.3904714780984169,0.45873358181883434,0.050315309893619604,0.13959997566435925,-0.4249513783449006,-0.19477166177923483,-0.44808636332273566,-0.3578992383019461,0.0008521209460116125,-0.2263450662240599,0.33491820473689643,-0.23305334685480134,-0.28901149535261783,-0.17374344795905847,-0.09990579000774846,-0.2426932994272013,0.09175341806907644,-0.23659394832227088,-0.3927294682193114,0.4541984831769549,-0.19690747573482925,0.3347415588365523,0.016887357050302754,0.4615787729864727,0.12389272158574618,-0.37974233854946676,0.4727069236482766,-0.24957144279787377,-0.4283675577668773,0.4314668743531143,-0.08229927472520521,-0.35187556371678813,0.2281786893393839,0.051954492288022916,0.2143567941492685,0.16336918400348194,0.21443401463536294,-0.5269732004078146,0.37385301895487993,0.20593186997803023,0.29055416045443005,0.0087334954937003,0.4124733799593301,-0.31553220151324124,0.04462285146960948,-0.35466519838887844,-0.17714971028543774,0.07721631066827843,0.24133289255392443,-0.18024594845423103,-0.03460172388806565,0.4107615652791101,0.17423108493228293,0.23488143610457446,-0.443932259991962,-0.253441631390169,0.218939517604126,-0.4392194390989792,0.19394047801637934,0.15913988597603082,-0.5039425688884156,-0.2525723188784814,-0.22004450740375353,-0.33415225964043355,0.006490211076698318,0.3810713179828945,-0.4284921339655468,-0.24086414097121941,-0.010726793573371899,-0.11816406561912658,0.46023231339315884,0.0876221373827038,-0.4352734845071273,-0.3873266786354711,0.12038730611868878,0.07462349272882891,-0.45169452913071917,0.3258291480765044,-0.1324815872420967,0.24513802834537657,0.10629743560634711,0.07008875254455081,-0.5106741156073463,-0.10051193629363947,-0.035409504914891345,0.25487277418047233,-0.0009673316283045261,0.2151501811183005,-0.46858427365895744,0.43056505116769644,0.0671744275208818,0.2021538543827266,-0.47027223488388764,0.43141000224804,-0.11884924682411477,-0.19855508179272915,0.035747533941803196,-0.006610334358088539,0.30986550323562706,0.21223073815271185,0.0266056627118456,-0.35228883168156416,0.24082931745558298,0.06669602584980192,0.11291166874232972,0.129662794633422,-0.11417274140517895,0.18080628295473813,0.3932965745239145,0.16532545080053496,-0.27040814808911573,0.3757586662610886,-0.4015270718346829,0.1123195106919263,-0.048203806819985096,-0.25514770768699707,0.3969703436388871,0.030731501714282485,-0.2462293673655294,0.011991896539610475,0.09308589470312541,-0.03860522852376892,0.0560737659592481,0.009157681464395318,0.4253283434579131,0.33414922636481503,0.21223848682293722,-0.2686679204008702,-0.4471748187159129,-0.08419515218556736,-0.5130592773248711,-0.4287531283744982,0.08328222507456892,-0.2090334043216795,-0.4820869036884528,0.1013100875020933,-0.4877763013743197,-0.5030393709916086,0.14263708635716618,0.2560658477851518,-0.40287762245582087,-0.03873217053591313,0.16234651525425386,-0.07101750791032495,0.09885173484361982,0.15701146756433004,0.4574415952601404,-0.2610329103150295,0.3825390620044335,0.2189668932203854,-0.13313602223138085,0.28789045854454803,-0.3385126761792807,0.09437910230395705,0.4953961143887095,-0.14477002848739953,0.17156654283116227,-0.32251411081547204,-0.4953054314894285,-0.26588243622876334,-0.3126963025098957,0.12450097983908605,0.4933304811894963,0.4686105521063398,-0.07844753016818931,0.10115051725992762,0.021428493293122738,-0.18690067060612195,0.47961422089360856,0.2286657378427284,-0.026181960387764835,0.4396045321756021,0.534589441463037,-0.07508878729749954,0.08137899174215177,-0.01274169210660311,0.14315114266109422,0.5263938945315983,0.24631118830906465,0.38508567509573133,0.25552953753973046,-0.1859917124165369,-0.2987522853486913,-0.47962416081712356,-0.0421938530211559,0.17713388752915865,0.035243004716907285,0.21642685023418354,-0.18028868683351473,-0.3281997209196882,0.21476133748146747,0.47653620748282455,-0.030626265007355002,-0.22993522502630717,0.10616419266326935,0.2809280553151311,0.422633417549441,-0.15325547661984568,0.5368663900071954,-0.1378393899266645,0.01783493140767942,0.42575638022754125,-0.04714116499247916,-0.11219732956930412,0.3169040321409374,-0.3271182533274625,-0.09976560089433552,-0.17564350667547746,0.20458511328393672,0.4143597995339223,0.03507492509868651,-0.3875181996042114,0.3471954837788164,0.37587976613233076,0.32004270306096555,0.1608539736995471,0.3920503053617505,-0.40559820743817643,0.07497986803853114,0.2512965792595075,-0.22248443640731902,0.19400797410691067,-0.26918116971119155,0.3133091846814909,0.30819251890891314,0.27280194096492444,-0.07311876754469396,0.2605882692964744,0.11713288344350183,0.12646607234770582,-0.00690755223904751,0.2166075898166985,0.028125884247741394,-0.27294385944344113,0.04177903688929102,-0.19882096818257158,-0.07011639715407748,-0.37082369219298744,-0.164772130976471,0.10626135377439837,-0.22941557095439347,-0.3713800332809178,-0.341323626092362,0.4321771237148781,0.33683984775818565,-0.34101220392594056,0.060980469621929274,-0.2883014285743823,0.37202995617233303,-0.40127295187739553,-0.4261502559584983,0.27815833107693383,-0.22228950969161768,0.4474969432447528,-0.026361636747403674,0.2793884423900499,0.6219466274459493,-0.19893105659952848,-0.3631476930763309,-0.05083214047599244,-0.22010530359552274,0.014603639701950114,0.2727879464065294,-0.14156671178245436,-0.056657505407398605,0.05724882611962387,0.04002585923859122,0.34581043686849183,-0.1860847691371211,0.19814593524046323,0.27576471780945366,-0.06513657936173381,0.03966015935164326,-0.4310798916543234,0.48128996713881916,-0.34853409614825587,0.47746036357691707,0.2875915658930279,0.2411879293641074,0.28208447503200895,0.39091979598526894,0.38821396124256813,0.3416213781599032,0.16142060561380914,0.308711244508951,0.12454745621294412,-0.6440623700830252,0.0035490277738912694,0.18339832821682545,0.33801193217852,-0.29465491189494786,-0.11399799944480973,0.24746470179442956,-0.24768363462014145,0.5379221683777866,0.41563789744249907,-0.14102065927258656,0.11925159762342379,-0.36227213352909876,0.1502180891075362,0.4227406355294174,-0.40997801750841684,0.16577777906881858,-0.1289257040021429,-0.21515781649972177,-0.023360416148388286,0.1333433339509046,0.6032501376851774,-0.2531729767803733,-0.2873675284221976,-0.07940867884216808,0.3161716832261418,0.3037125697091581,0.055386448391644805,-0.6234720782842527,-0.39765284132541207,0.0901377328747977,-0.3280265832707802,-0.1576159662709824,-0.26753944109492406,0.3301530653422917,0.12777988912126018,0.11876221496195907,0.2700683899310481,0.0443945270927267,0.16839874828034254,0.4574781858483301,0.18154449449092286,-0.26428728774912963,-0.36263713511939766,-0.42423309087059596,-0.22906260721387373,-0.49796955657786723,0.43246011053051336,0.2785798937607365,-0.14662889805728008,0.1600521042984925,0.17690238029407088,-0.038819392948161995,0.12236171027631722,-0.46204956386775625,-0.4150964742013058,-0.7424985427214693,-0.6717825081832766,0.332642791071183,-0.48046768679838425,0.4896792640140297,-0.3056095452672597,-0.34943338441397903,-0.3557940406119862,0.5773429578821866,-0.24999487097563228,-0.2814642364131658,0.2854676428117251,0.18106431996571357,0.42783259132880047,-0.1654292202387558,-0.1532772241665481,0.4809307282853661,0.1436092089442895,-0.46622468968294634,0.08151930308198314,0.02370794032225343,0.17622821515104606,0.042155679220829356,-0.08431302499095931,0.5234279635322399,0.050360728534054704,-0.5351199174620721,0.09970658833193495,-0.5599473767831425,-0.036566048490551756,-0.29186775998107994,0.3705076141412918,0.13069738040266457,-0.07586968684162394,0.6070504454079183,0.1052292885226435,0.5682036268947324,-0.36034586309542876,0.3789371833822776,0.210712795613915,0.41511101493470365,-0.004856830646069824,0.22225470477587694,0.31254316365129575,-0.1961386586326711,0.27307756410010414,0.05071897578524893,-0.49443392021215904,0.036455047256691346,-0.11272110498618404,-0.15692457545219243,0.07453894708942038,0.2291574043729168,-0.1667546337333003,-0.3877276156440228,0.08010370638227228,-0.6435438893693827,-0.7277917207250231,-0.2504144581926951,-0.32319947859779347,0.4932192442261939,0.028985642557243785,0.030750602754759566,-0.001897496366882299,0.2768509900773129,0.10970776564321937,0.20431804110207097,0.48972534516250205,-0.2793666579521253,-0.3295740558903696,0.4686578389381177,0.10093376797089793,-0.2857800318953649,-0.38604858147863247,-0.4285024524977762,0.4755432516047395,0.08650167579680465,0.43773892760477046,0.19951638105734412,-0.20731131969835484,0.3323996806674476,-0.46581167352340347,0.017974734267161077,-0.4599790633238663,-0.243088345460033,-0.41447384321084396,-0.06434253617729496,-0.3790058017678947,-0.07620504264052493,-0.17534500154108176,0.18830769107324102,-0.06824211584306049,-0.10397840461285937,-0.018057401935178338,-0.17595804384778732,-0.32936624062189723,0.3876270944318756,-0.18451475713520712,0.3472133853744423,-0.39174743098083836,0.023586426688573334,0.4348544798907287,-0.09837055026964257,-0.473016295325482,-0.4094468916346372,-0.17208952297059865,0.36817441499070025,-0.18688836174876183,0.06598364064557985,0.27815080724286306,-0.1758024587363679,0.15254286163298147,0.03633001903709524,0.08330768668785028,-0.2704098058748996,0.28005160877463253,0.3190931212408603,-0.018378182061513062,0.04861944031261392,-0.4969911029872618,-0.28703432191780054,-0.04751725960431137,-0.3786387744901471,0.10104166378159127,0.03152958393985225,0.4136682037027597,-0.16119383478678798,-0.4915231297701468,-0.12073723592152286,0.11107334774957281,0.39491294261325066,-0.3722010626628719,-0.17019096303177483,-0.42780412043349864,0.32356917769039883,-0.4346010574107812,-0.467440944926309,0.17980812584854453,-0.08416269447151499,-0.5266287587356326,-0.17905967544523127,0.4238596597191422,-0.16495523895364025,-0.06754355079593306,-0.49907564781745545,0.07971202862921621,0.060651897599628225,0.2936486550135358,0.11940087833059411,-0.1584395546199887,-0.15034929573499467,-0.4980486754742438,0.08091190230972571,0.033678179619930006,0.1579223652166953,-0.1923650807722075,0.1594277426978607,0.17869604400013137,0.01743926835473941,-0.1734960484239606,0.39985221820170136,0.24256226892888683,0.012613105793184635,0.16546305066000366,-0.2860739212861046,0.23969229119205607,-0.48050939587426617,-0.31785921064386646,0.4204303659804619,-0.3883716133195547,-0.12694406623702786,-0.05076877132999059,-0.25363456450946276,-0.46695501335690764,-0.14471315155964695,-0.5892659145669427,-0.38198247672794405,-0.324395400361507,-0.4241009909943014,0.07604556106715579,-0.3706748569953527,0.47969758215738445,0.3933722290138364,0.09393300104054285,0.22156047865190912,-0.23721096919506596,-0.21541319385965554,0.2238004951534421,0.07508403137600292,-0.1431698835744654,-0.02027132368133145,-0.35830292380537454,-0.07087205811076364,0.1881368364526301,-0.0009912841425591815,-0.039237350674194996,0.11829912949417769,-0.14802193159184157,-0.11667923310314167,0.27380878647571444,-0.23700271255601485,-0.4454058721507211,0.022910302034258274,0.26910718923020394,-0.19167929421833246,0.4137129445746488,-0.0865976286680399,0.20853599169249482,0.0385083276208559,-0.32447605848413186,-0.3005134892708903,-0.0011964044402484968,-0.24158501889423298,0.4854033696659443,-0.4364705344206863,-0.3485632782766279,0.12076337842982077,-0.18662541311953545,0.006533580240048829,-0.34187844312447396,-0.22268789013458365,0.018559451042683413,-0.29204055184133104,-0.40692120050514824,0.28830420381740735,-0.3069317003388336,-0.23548608244912797,0.23083864260131767,-0.2123650347879064,0.3688787265022463,-0.24742724397342433,0.23410789626489856,0.276298456342591,-0.002368527198517161,-0.2258539230845938,-0.00523513520796628,0.45583500955273004,-0.22481460106414972,-0.20868703862192944,0.3547456922147282,0.3962762293461618,0.4150248065434097,-0.047662787456868236,0.16586843826069061,0.15736585095301087,-0.2351191021484764,0.3754507287200783,-0.4646453685396562,0.22331468318533393,0.4437673940603117,0.31216438876949637,-0.23636274732995805,-0.03289599834522023,0.2511446634612742,0.22584481731112885,-0.28823530481512294,-0.22394026008504062,-0.34378146021879713,-0.4638728361947756,0.00021375463685022162,0.007578120125947022,0.43097730108822235,0.4709919624393228,0.2408301452448946,0.07227603842281596,-0.24755163434162392,-0.22822887161618932,-0.2402695472865719,-0.4400679952518476,-0.35215721503023717,-0.2768302012123423,0.16561846784395737,-0.38461542800525644,0.30965781539507276,-0.3992605854331255,0.08548298805884466,0.031183025057225124,-0.004833170034702592,-0.4462545141516899,-0.16913433127189154,-0.1835480274235319,-0.40998856426263713,-0.031441911149240984,0.15490752424891088,-0.16183949948264442,0.2618250151508587,-0.3772434995871093,-0.26962851474464933,0.0734117198156535,-0.17881820752711544,0.06231903686509813,-0.34667057665306616,-0.044195074683353076,-0.11442445819191123,0.41185545784245936,0.20357151092657033,-0.1918761668318455,0.14739885222557828,-0.11837656210349619,0.4061147217843775,0.24788101199767074,0.306022467721011,-0.10188405180799487,-0.3161031264202979,-0.14858378362319263,-0.2813411161982475,0.37044680085620096,0.3417196326495767,-0.016304822827978446,0.5024353603968434,0.3228446814128723,0.41236069206812537,0.3351289755347971,0.32130577913597974,0.09578647709418488,-0.10883514695534598,-0.19838179294449007,-0.36509666118441964,-0.3752456155907248,0.4828303431793154,-0.1622646148349434,-0.07186727527394864,-0.3282046520181755,0.022187221432108384,-0.43134166870180257,0.03289685603666437,0.1993598394640561,0.11320246776980428,0.48096634811122757,0.24173034775709815,0.20801903840212593,0.4035888270313033,-0.30144998252527627,-0.059673323972735025,0.30074430801148905,-0.24356079723186347,0.4632315836420711,-0.11819602835589056,-0.4194592362404945,-0.1373490183710894,0.33561139083720953,0.12971673406512252,-0.18537619707596262,-0.42783641888798535,-0.18274841830044564,0.4034590172974671,0.18867056813967345,-0.46201628385712634,-0.4923352241578984,0.06116454014931405,0.13876511334123054,0.2885776688746935,0.028994155329648774,-0.1651211913396271,0.44061290760895455,-0.031694142658360236,-0.1259867465211887,0.04448468421289891,-0.08659366926083008,0.38607246850794025,-0.34899230815014637,0.44535394215110635,0.36209684994628444,0.41333818526309846,0.39071931109586755,0.14410369559749425,0.3493971861918353,0.061266727455615025,0.265017102667024,-0.14396186413841186,-0.08239438857861597,0.12613864192708152,0.4649951138380456,0.14015716101360665,0.1501852323486364,-0.358194867764819,-0.22290341793421153,0.025848404802647607,0.3798851282369581,0.35831634456047334,0.09204616666135179,0.0701119533736807,0.27797226697762545,0.031638614345971594,-0.15270115109040294,-0.4080593611572113,0.252262014006398,0.25089724485258935,0.4571476366878906,-0.38910276648770525,-0.27637168823964264,-0.1794679606740719,-0.25537950280388455,0.4782724562879539,0.4215198874607167,0.38836767823310375,0.41374338320824267,0.06615152936324176,0.4691598259884735,-0.2563907289657845,-0.18046709133232097,0.09142757104159194,0.39388326645393335,-0.2139791942175483,-0.0953639278899382,0.15891907542352024,-0.03085755457212702,-0.1473324643611862,0.11289640569791848,0.4933931412772711,0.19439980343466912,-0.08486939601418308,0.1985520452426202,0.0076755349543771246,0.14809875751562865,0.4512762785461683,-0.03608608126531456,-0.3083793237853889,0.1794413255958021,0.015908528708279353,0.06168618120588113,0.46292435819722644,0.10187403872221514,0.3373378495765342,0.3285634000105854,-0.39432390984674154,0.3561976063025261,0.19395637145107456,0.24865393337307962,0.26614499273573655,0.3498001460876418,-0.3800031227319713,-0.2425485266389219,-0.2014564437417833,-0.3110833917267749,0.35905248959899827,-0.025631763333414548,0.0019225465840519984,-0.2743651217644142,0.4857552050352399,0.10683540378115591,-0.13154651261685263,0.36544981619584727,-0.3411970355026404,0.03280594617976531,0.4525126396958898,0.13951550800765708,0.2652542897976883,0.29484388237634834,-0.14303170570335727,-0.08307268196360167,-0.43007742186900777,0.0558288661031747,-0.39756130912447074,-0.44823569298901256,-0.2793416426728059,-0.40534543822708374,0.2703171598998075,0.2807865924191176,0.3338395333938676,0.030565524031190953,0.0862848395596558,0.39070228088753534,-0.00013883979507167687,0.05195209533044709,0.42189126778535846,0.18575562716964955,-0.13022529650428596,-0.43619386063788673,0.4192872987870489,-0.16026884170390057,-0.18032777216643014,-0.08399894758359276,0.13225121084811564,-0.08935487479348211,0.42820178468873793,-0.09877631440721009,0.3189083975956635,0.29735789805321683,-0.3151200052639577,0.22118561875798384,0.10312652417103534,-0.004505834695504814,0.37124439500693013,0.0691260711906749,-0.15796393375961557,-0.01547315523447396,0.44747722815872293,-0.2264968596771853,0.46592623692323987,0.08001212165818854,0.4648325274456673,0.030383247269170632,-0.15372944134644442,-0.3805067192133811,0.39918790790662145,-0.2643682859481988,-0.011895915229309405,0.21927970157392507,-0.244314283371903,0.4507695258416657,-0.43092655203964586,0.46595192353934195,-0.39111114594903584,0.07197082356360551,-0.3032448291166996,0.1435996698788048,0.15107932904195126,-0.07684499865188439,0.6206545438416843,-0.28593951533019224,0.004224344300883386,0.3931682248158397,0.09796830541829463,0.2414980820377766,0.41319088512182384,-0.253960254226718,0.08797741837858228,-0.48124084136248657,0.1146920271992381,-0.19557132569377234,-0.4232300551492312,-0.29380884528598605,0.12608950637657024,-0.3342667852582476,-0.4827770833595432,0.07131665417227291,-0.03406007948797222,0.26037176982333016,0.03115314250320579,-0.26004052789660054,-0.2846770815444901,0.316089309966806,0.14999853455087725,0.0605860991675277,-0.0339622569540643,0.4378765847118024,0.15359147277397028,-0.2615779244918949,0.2572173121350524,-0.45402689064061497,0.22128046848090693,-0.0813167667835382,0.18740375935865447,-0.24985127881288094,0.19603421478844005,-0.03131071355228632,-0.058382115026233666,-0.13459999209783313,0.13265274161100743,0.1884841437811936,0.1759557987169631,-0.10074018861645602,-0.0642558270381123,0.41062083782634284,0.07043230449108719,0.4518975202504149,0.49810761442259843,-0.33027263884604774,0.027200693303058472,0.10366070158673675,0.12221718792863735,-0.42509050978484836,-0.5076373934205951,-0.17414656105964893,0.43004065898808097,-0.5578239406574723,-0.5212877191719844,0.07669501462645126,0.3303702982154175,0.0651391234948301,-0.4162306067358731,0.04450386624396768,0.13716737675650423,0.22930834421078386,0.1505374563280465,-0.2718168542186178,0.16586243048398674,-0.41560562670613743,0.2634710804633966,0.43540051182807804,-0.21325573666345476,-0.3248473199189973,-0.29706187761966224,0.42673835150594747,-0.1847457949569089,-0.47407444566164647,-0.13801917828500154,-0.6458480806661635,-0.40051188282953687,0.2092662988773712,-0.2874192221005915,-0.34935490880305603,-0.19125979576861793,0.04523859456285184,0.11442025057902154,-0.3647783655204323,0.1307733952244956,0.3910239635770259,0.3570515442257225,0.24793212317385202,0.09863153907182531,-0.43258919291709524,0.039784994180926896,-0.44250904098572913,0.31343795587168094,-0.15243482513078987,-0.1525804921197952,-0.20738381980803983,0.4777744694613914,0.06078180106678533,0.3018185023106272,-0.2647383465476015,0.07668261646745855,0.3114144651315015,0.30420467345512936,-0.6841827258488206,-0.4746664194835751,-0.09534657983170462,-0.1591663939394909,-0.2477408098761643,0.051516298484625675,0.07464452414356146,-0.09029547098997255,-0.2276209153229222,0.19585208298734372,-0.06408384316903135,0.19600046840278412,0.3376703341658847,-0.37046194337236643,-0.21479678734087965,-0.048576215964187486,0.34844474861899305,-0.007620688283163449,0.0663760506731409,0.3724485802302634,-0.5078190585311955,-0.36747170812050184,-0.3482249223697902,0.14912764655464564,0.33329420032255563,-0.30557307902418107,-0.3241031875085035,0.30483590367857116,-0.1481419758714743,-0.458727337875156,-0.34225381061862853,0.05774073568695348,-0.3589935485646976,-0.04073144171798523,0.09298485929501,0.2285406816994283,-0.3247860536713723,-0.4991730564604475,-0.14031224472280263,0.08505076909607102,0.3284922614059473,-0.17327202013093468,0.395791326419887,0.2724751132120937,0.07245672077217787,-0.28730942595763287,0.29033996121178873,-0.5101116380114021,-0.3948900697323181,-0.49113130834672775,0.25917326820319947,0.006299742749082553,0.1430831347077311,0.4376507706536191,-0.10942236087255233,0.307129921028012,0.19508717515631135,-0.5255475789763074,-0.11106433270887195,0.050465029065530964,-0.42339265384557273,-0.1696149231314474,0.18009083531165712,-0.4222329971730557,0.16789295998987558,0.20486627086097817,0.15237795338961632,-0.4570927127947,0.03131653686736754,0.47015878694500246,-0.4669371637108247,-0.049201542294016194,0.4111823235978583,-0.06291346386233765,0.16628746021836546,-0.06609107795580955,-0.3437125368088895,0.25663656939552554,-0.45412387458233017,-0.047145599980835874,-0.48209011820403624,-0.2662508046686597,-0.49009004273649387,0.38660898505878066,-0.23410071722892412,-0.6357099795422082,-0.11895155980076917,-0.31288749139154715,-0.19506490735393237,-0.3666572715728892,-0.20193737711163257,-0.05019716577483896,-0.08336436605343046,-0.4243666086007918,-0.12317031113736075,-0.18007594719743492,-0.21620286837454022,0.3426861263401487,0.31061551992243397,-0.12104094506517583,0.1335973530382339,0.21141036615038153,0.20002830938919666,0.4525488726074146,-0.39215178939387396,0.12200704480004097,-0.13781498858159213,-0.11215813988176333,-0.17464748845559427,-0.21085341115993578,0.4758399045354381,0.4961178742024323,-0.2699108747051581,0.2286866366083619,-0.16379359704712482,-0.15866275605955643,-0.34631015949913857,-0.4808142039673841,-0.6240416726665082,-0.5929357603032503,-0.3527293616229644,-0.32446068552372104,0.2649748558429598,0.1140353907631763,-0.2968358371865977,-0.19487817865230928,-0.4412092711276488,-0.3437523610039395,-0.2304303692563777,0.3670995617072201,-0.23188302893997315,-0.46246899326708485,-0.3609054850904343,-0.030388030690112228,0.48394135982127795,0.21526884731460336,0.3295937693827387,0.11315953360546985,-0.22596939477686637,0.06698788295247494,-0.1698799948054669,-0.636673212435158,-0.6915474994508022,-0.3141925316234917,-0.2996320633798918,-0.20754843913356616,0.08997849199977756,0.322258813937373,-0.15085956647085963,0.2292846499165605,-0.20147302918550766,0.14806180256258267,-0.01034612430053148,0.21884672560319482,-0.22917608676962162,-0.31637657469065283,-0.33267060492777656,0.22954290090149157,0.22451776794837525,-0.10613360936074101,-0.3009617653286296,0.30126703925780035,0.33821203954077145,0.059077134855268144,0.518570509323748,0.6561972094146071,0.16170960416070687,0.42472400134932203,-0.017757512544690948,-0.4154280052550654,-0.6176951553940488,0.01594730047306588,-0.08977019477649219,0.10847089023939163,-0.08429152188718728,-0.22388431830123376,-0.1785527004609068,0.35139355010477497,-0.05564248197496855,-0.08999683928279523,-0.35844438456915534,-0.3116571477161681,-0.3299851051088549,-0.2632145625452836,-0.1765205469368083,-0.324219833831783,0.17787567156018247,0.040396956042200505,0.3828914300574279,-0.050773256132714675,0.1499777711343334,0.6555135557517439,0.38961164565680145,0.3830785404635131,0.7257317481572905,0.6970494886215924,0.6197670842097872,0.10277721037687691,0.0500601403264635,0.31493132397471313,0.24562358800690584,-0.37338573172635725,-0.14191853044347202,0.06487436004113141,-0.1198867864808181,-0.19095446136002736,0.4003656067172463,-0.2961450533019586,0.07764632359874278,-0.05152760386119878,-0.2047156082206967,0.14858206663178444,-0.12406843979621429,-0.14826635852006814,0.4659815005385261,-0.06565165542366996,0.31140684395857704,-0.12876216105224,0.44643924423804215,-0.16310113033579712,-0.06536233133024538,0.17847168933515792,0.3078605698619204,-0.2830964603633795,-0.03738588104523138,-0.2249845542092455,0.2973342036049216,-0.15407710307708278,0.0738582159316242,-0.11573397898028004,-0.2903643411371829,0.5301521477370782,-0.17721376235784828,-0.3799471356819227,-0.19044526882238705,0.2237422601981283,-0.10502516290844124,0.28210989915990087,-0.007101669357328316,0.370146477284802,0.2818165470648598,-0.41460085497474203,0.23244629911296488,0.08034085124413345,0.10834004040103183,0.026444915452951225,0.31271535027417025,0.41091311052352036,-0.20639185620807712,0.47914724505345774,0.4049640509587709,-0.05003245820858082,0.31296940122621986,-0.47759271313244783,-0.1415589252107153,-0.41902595113378316,-0.23316951516779183,-0.08550948220324474,-0.2681383101247316,-0.23221932037702028,0.3121449773157237,0.42933522842502314,0.40871121916327047,0.3330286512289961,0.3179794064029808,-0.20371189698750367,-0.42306407892162273,0.22088583802287007,-0.2816535854963419,0.1450943612869202,-0.30931188201084,-0.023968729438883896,0.26493295192993654,0.22247682287229126,0.12781021277507235,0.49509130789271255,-0.3477578817224708,0.33143371897489177,0.12153262612422933,0.0746907047320018,0.4287329516246902,0.18112627428277076,0.35390118862632114,0.1046341882878629,0.17027924758049984,-0.14080257063287815,0.41836488111934356,0.07251858919007773,0.3005859803323351,-0.024704995030680712,0.2500475426216133,-0.28035407921391986,0.292519230216489,0.08266445715463104,0.1631119936525016,0.37878364464539116,0.40080193962367916,0.05121504874283402,0.28377769250206364,-0.4862894136117711,-0.33669402175739466,0.1618221368865283,0.42631689210034973,0.4247525802955944,0.54878961522343,0.37609129648735795,0.19695930505020445,0.5729013315476822,0.06932718439897137,0.5803192310378805,0.29076948412026116,-0.08006025169112622,0.46307651418353507,0.37700881461459196,-0.16961541596844967,0.0606507263213583,0.4152781538956026,0.4795494257180282,0.1950421705407342,0.18330643092975624,0.13968911296968717,-0.4225770269348579,-0.012817788522004063,0.31260921766113814,-0.17569728397095263,-0.12221762682743476,-0.1123711492657006,0.08658610948961333,0.3990758122374038,0.5176269767307949,0.20446420364115955,0.0876917790780629,0.2632107367239214,-0.2272740142102258,0.32524442088642463,-0.20097785118224773,0.5471476397911864,0.31184538651434257,0.5963108805968337,0.16477599887556,0.6281984830568581,0.05947583744464259,0.2016257991825055,0.11453718310608443,-0.376689718836349,0.48467498682787186,0.5738917367607195,-0.3102171013450238,0.24513683121729815,0.4300225563910372,-0.1621349141003454,0.09418166822010275,0.22817262983444808,-0.10347870809706251,-0.28803170695135155,-0.33135571678921255,0.007058369740980805,-0.3281976344272751,0.4404747863282674,-0.03233366176408595,-0.06297331174969907,-0.3812277090873189,-0.057405470738645326,0.4768892567635275,-0.1283468966481863,-0.06558857828337417,-0.0783661876606623,0.3470506565044017,0.14392804462205883,0.34211819786149317,0.4383458361015613,-0.20080380742797915,0.16922725632018037,-0.19561560764713648,-0.1525366923829758,0.02722198298748673,0.1625451694027855,-0.005132506619589744,0.2673471840929708,0.4120439212972663,-0.47851548159507445,-0.1886909910412333,0.044005122853906516,-0.1487787778028545,-0.07949551866491655,-0.1641197480120016,-0.09436055455243539,0.31705281090426546,-0.29381532866415994,-0.4570742036652956,-0.19918004986197665,0.4400523003818373,-0.06277919289753883,0.0909982431119994,-0.1772288589296459,-0.011161335269979183,0.14861770159765214,-0.029201747784172873,0.02125738928529602,-0.20653308771436063,-0.10838317663828963,0.11192380927947779,0.2912063301821586,0.3801885267290478,0.16717364989494876,-0.2880153633162508,-0.020455260716699664,0.26439248328842835,0.05903933469397615,0.37016415340540265,0.4411412305233892,-0.33999976817070804,-0.3855231961372062,0.1923096534892807,0.32223267561919094,0.07841831268686411,-0.0698953257221627,-0.10418127274404634,0.19034441425911505,-0.4862377226734244,-0.4695899793205704,0.18377742043060535,-0.22677278122765496,0.07068220241474693,0.28335437617306114,0.21828302051137852,0.3557811327628998,0.2928690134170396,-0.40306007970645263,0.4769226027982027,-0.05511279522278506,0.3911525012342862,0.3688004880296767,0.4092847106971125,0.018064504785653492,0.4539148076204783,0.4226455306447505,-0.15158503264079437,-0.41474729501209867,-0.10502830657224241,0.16714650247587823,-0.0984704759698549,0.27853875438187364,0.012579141664173638,0.31398180144523474,-0.3822590898969385,-0.3416077357995985,-0.490028007144524,-0.32195846368032205,0.01777488905849088,-0.22525861930004157,0.1694455104168576,-0.40065753448867597,-0.3460735785598357,0.08470427847937675,0.09909287615663089,0.3594623412026231,0.14967015712529375,0.4078645848013961,-0.2769004677214338,-0.3980838968207525,-0.31743475353349415,-0.34262077321024725,-0.2613710176514523,-0.35977312982444376,-0.04151058599687907,0.16151033083545957,0.2814117515035657,0.2945411505297273,0.22424858577661563,-0.17986487994692987,0.29970247982297643,-0.19726357155539814,-0.17258743213467104,-0.41714164136140874,-0.08887319863074816,0.05439070225266354,-0.2974954841098278,-0.3055814182852914,-0.1353982271013349,-0.2586339879296621,-0.01181446861525343,0.2282074524028829,0.28350324537306115,-0.10336299209766994,0.3274214699762413,0.04220843339993664,0.19949749347480666,0.38561280751404825,0.24116073499396395,0.14770050043152466,0.4837853744894437,0.28601695911944336,0.06202254358889203,-0.1263076615344776,0.2326570213303929,0.26918786829937036,0.3841362539339359,-0.26298166512808957,0.20420177363407457,-0.32433360319710064,0.3229996610990652,0.13367012573260278,0.4071696880834331,-0.507388025608967,-0.3231242531417988,-0.36453914130715015,-0.12839238438771347,-0.2563229174566355,0.3353246851960721,-0.4738995018703978,0.14048403128250803,-0.159006469894832,0.2067122642452997,0.4690375801403257,-0.4931928704244893,0.05478735608866248,0.1772999388412032,-0.34664311766524514,-0.38651041882767645,-0.24638313556135072,0.11452260618446852,-0.22602599125399792,-0.43871668646993667,0.4612175283122333,0.0542522410563219,0.026889279937438094,-0.2886193169895009,0.40509054027676233,-0.2928498180378305,0.17785200525187478,0.315229865024802,-0.36527611238797714,0.15691740585526817,-0.2728737824175166,-0.3286178337443158,0.11681252046852447,-0.42083025572439386,0.20069290916796093,-0.305363720114005,0.19497249931621635,-0.06332575392957279,-0.11404092986851662,-0.365044259307705,0.28281958764130133,-0.16792176814324145,-0.2625764848290858,-0.49557371038720843,0.2437898303697887,0.005243215378068378,0.26587808658639966,-0.01702996651794253,-0.19775410634435142,-0.1712964784545985,0.08599126534519563,0.12570527959812083,-0.018136026223211643,0.2240076357197296,0.28458852922739164,0.03440362568426636,-0.07781826232535693,-0.07021976238455575,0.1536575522225391,-0.19275416019995398,0.04434778226072064,0.3849487680011032,-0.09932053907882687,-0.24080235830259555,0.41312612128376736,0.40066917308456773,0.31504994812467657,-0.09350790133163034,0.06584230108160372,0.2982224649391225,-0.08076869379884377,0.22167736775306324,0.07177012181497633,-0.20844184975853575,-0.4596840348088348,0.35746634659274434,-0.11436761253289562,-0.4498653571276547,0.08274251427506539,-0.03870474375554518,0.036238195637947154,-0.37825287033292637,0.3289124005235747,0.023209998322312533,0.1590184449421411,-0.40728287405918584,0.24090396026160465,0.2690164971675424,0.22231672346994522,-0.35206832075475225,-0.40135545824212415,0.0465837841047523,0.21298638320776456,0.0820728881150811,0.08451154968105669,0.3270134577372458,0.08016490759877395,0.3982320321965037,0.4917968513393749,-0.14943597163285482,-0.1459439622686699,-0.13208295458572006,0.3335662962113194,0.04086013810953741,0.36124250489037246,-0.005678845740624118,0.08147961925728602,-0.4722040792412251,-0.1515879124725862,-0.03752261605094833,0.3045980819089992,0.4301188415513655,0.22559843003772972,-0.07960919430919815,0.07717232411194647,0.10948979936308409,-0.2506454016185504,-0.2512861806463779,-0.04245455312643164,0.4388837480176657,0.2161354615865011,-0.050420215230056194,-0.25572298996742276,0.488246708848522,-0.039924180966517994,0.16674842333709192,-0.4712137759606393,-0.03252536736235967,0.3336336415627097,0.16090197379341709,-0.035840144274794095,0.10137920858650769,0.25804962831760486,-0.0733115346261898,-0.40790299567827043,-0.2756750696040816,0.2167550927136525,0.30955809354242103,-0.2785973835587312,-0.148534446225305,0.49942317721592366,0.12222261521883045,-0.11707296918307307,0.004144738606291429,0.014457972739849069,-0.0382218332025849,0.18882259235140328,-0.21047695928205098,0.1333439943481961,-0.28190275507728124,-0.4903164639164719,-0.48661856727089353,-0.48855758611606376,0.3245118210508449,0.05565604896543715,-0.4857219551304041,-0.30092159257513273,-0.28416333304541863,-0.3100948693215092,0.49095893844972005,0.3151777936430449,0.04567817216228223,0.30794719128440673,-0.22681967261398162,0.4557154889676367,-0.35350775704565324,0.1755312430438407,-0.0770156026599434,0.1407419854702221,0.18915782956002933,-0.13304225137093675,-0.1739452055658674,0.49068820059047297,0.5207799546403764,0.455620495320542,0.19789366428662228,0.37852423083389314,0.15033959780625153,-0.35472544851278376,0.2187459250158373,0.2518537036614481,-0.05281602112872436,-0.22774207498419058,-0.26287095959238804,0.13340849422827528,-0.3382768235661546,-0.03609421108775235,0.4771132084433673,0.24719409280666,0.3502833117221869,0.4050495698040149,0.5219197317782134,0.06336447017605296,-0.21697152025836275,0.2755035478590147,0.3880108531257693,0.48125228752907856,-0.09419381803543407,-0.2172851520586295,0.20042911423638154,0.09074811641572558,-0.09940016986073823,0.23755002269233558,-0.3563589292480778,-0.44080078784501797,0.10634464367146301,0.17519353377969837,-0.42244347160898366,-0.41080546269866847,-0.11743970353149107,-0.07232779138634707,0.03795092957768263,-0.13689979502727362,0.32293987504553423,-0.13513363085174795,-0.15568603110046636,-0.11320930919341213,0.5082511051564901,0.017908601741294827,0.34693419936522435,-0.22530486870286973,-0.007961399546983949,0.47117970344506277,0.13327877461387708,-0.2835698332246314,0.4121464249164933,-0.3352694611165463,0.20014217880906093,0.5142786304175556,0.029356110368085282,-0.46561375390831083,-0.49360363838185556,-0.20650770765554216,-0.42345756148511343,-0.3622043012468511,-0.4790760829165672,0.210704607513409,0.3296672565810402,0.06710277456736688,0.35984004461131475,0.33241372116749335,0.08402320731022239,0.3744807382917733,0.1395518018231551,0.007752033167354384,0.054080622280811584,-0.05145187078552351,0.04366813024437906,0.1010546740491815,-0.007551989776504899,-0.1161452100556008,0.28604202665249007,0.2433436868585576,0.04766072093360314,-0.16878057630015975,0.5244790927011423,0.2685717079966597,0.16988507187536708,0.2646243871438521,0.22397837138831542,-0.03432052714176679,0.42221776707762393,0.34380267222635635,0.1892854126406948,-0.46742424832785084,-0.3680563820889883,-0.17101080398871882,-0.2566912752138916,-0.06542560677464382,-0.1691694778746688,0.285516037180154,-0.38374977146227185,-0.4122818978297041,0.23685775123586664,-0.35460478411900553,-0.12856427839878198,0.34954430372981943,-0.20615539469659627,-0.1673835405978149,-0.5650317525954566,0.1429930405056766,0.07554134628680229,0.5284224586134816,0.14440233817107898,0.02699196425316505,0.2283483252642245,0.3576114959498558,0.3090762422512973,0.05367215740750549,-0.4647542014240298,-0.29276309185139865,-0.31141991765697136,-0.5092468040480703,-0.44645342892923284,0.11208984950622565,0.2990386335318634,-0.38135539683353714,-0.30326572460483603,0.4875600987579323,-0.0272137305615865,-0.12257967062804491,-0.05661129598453099,0.048675128620798334,0.08883196155766189,-0.45481220027319674,-0.10875752976471849,-0.4317897002949496,-0.3370246010103193,-0.21464172687807692,0.06561258803821937,0.03965430776070031,-0.13867945307464882,0.5008357553608971,-0.22211265574628242,-0.3414590296216573,0.3658286262809239,0.3124374596754296,0.15999375906699398,-0.13103950338482773,-0.5052808158216531,-0.43146702019784405,0.09978717058273683,0.23374862292010098,-0.3214568272056396,-0.4174933027554149,-0.42581232183955714,0.4578772303198885,-0.16516090597349867,-0.33394088260654803,0.34637499684438394,-0.18544914505106563,-0.15492319614621686,-0.09645615262563463,-0.31059558995877695,-0.2604655556463382,-0.8451299929333709,-0.6614757595011758,-0.20982318392957774,0.15145611747617801,0.5476056258779474,0.6626001353631168,0.21387315405418858,0.06252423645725338,0.10217879043764576,-0.043900846173341425,-0.3362929898590393,-0.262227927342863,-0.3727536508279247,-0.5773590515493761,-0.08612946226930308,0.29616875886457844,-0.37749669836693156,0.4086990557065941,0.005932689528164258,0.38506688944839107,0.4592251952232148,0.42056805509552725,-0.39530120595709883,0.3056553661572094,-0.34912262342858386,-0.5414674126614629,-0.4100974423821184,0.02188288654692911,-0.5834662101277276,-0.0733474259876725,-0.8357538861214322,-0.7135216050548866,0.17412361640457036,0.4949450181456945,-0.0417032462518484,-0.34543690159644325,0.3016529736562697,0.5243637380503863,-0.3398996835773335,0.03278888004848436,-0.5516294018701953,-0.1548136162018842,0.21825202384743989,0.07772855473243964,-0.05670929621403733,-0.05738530984572751,-0.2109107816043779,0.07341743457624103,-0.21896836500280123,0.39684402747814057,-0.14077120744463156,0.3842058275965951,0.22513177090527936,-0.5468897411572925,-0.1478632566301064,-0.5553374905249642,0.1585650513817853,-0.3177714552600575,-0.4770107041411499,0.16464760708256032,0.36430929795182804,-0.12224089255192186,0.5130177705746484,0.032951651403761294,-0.20113512347274892,-0.038285838234293525,0.1135283699085896,-0.06874715462796496,-0.3993779980363815,-0.40207540768862055,0.3811923963354453,-0.2068511509429825,-0.1822266114800352,0.4796870790642064,0.10071081955729524,-0.19473891787238506,-0.10757596914440064,-0.009319304846400792,0.3338031932287993,0.26781275860901593,0.16850909273724782,-0.0849882842062686,0.11921895597601892,0.20563530504261357,-0.2459656069625747,-0.10671780458587947,-0.07052552613261595,0.1993914639152818,0.35453414013366985,0.13001804809946335,0.2194654391852559,0.2771744107101795,0.1434144081428592,0.26983636909595743,-0.11273904339988522,0.4419785423457581,-0.22108125515832894,0.20215591463198912,-0.02338421953637745,-0.3490212614678137,-0.20773531933471226,0.44016726664581485,0.13399480527671914,0.09695348994855399,0.005436040614376235,0.3852547425551263,0.35352093446521016,-0.04320138204669474,-0.2689175968620381,0.2084290384809058,-0.36349007012024875,0.1392254265565633,-0.3528456295938092,-0.1740540876108957,-0.34038590004762054,0.3383871483229902,-0.16239915317702705,-0.28996820007830637,0.45202736546726624,-0.23618520223599532,-0.1067259369457021,-0.2068873191221557,0.22848237386005538,-0.11749543340651515,-0.3616494050617801,-0.00016769837273631033,-0.09020430958701549,0.48947140534189365,-0.36511271443859294,0.12609154289689084,0.11743657208159919,0.4946019160771774,0.17756874073164763,0.1376188387091248,0.3623594825250373,0.24032005087676928,-0.16019686886625226,0.45894590802371493,-0.37095027573409256,-0.2798208965092738,0.17849598377768072,0.01076752955709811,0.37710825822583405,0.387657502151561,-0.26718771495727955,-0.1775410272266323,-0.06798871787138712,0.41677078207736085,0.3249269763860521,-0.19016376522619113,0.5342002731610811,-0.3440883819882309,-0.113030599427784,-0.159279967641707,-0.21748727677124785,0.14136323864107675,0.35703756110351115,-0.29815250041325664,-0.0372949857951409,0.3697741649928801,0.4796731981368386,0.0485216568657927,0.12099987628020863,0.005981290441799106,0.4389756093207357,-0.053636486392174505,0.3451592247826807,0.10864722509545437,-0.05170584768427494,-0.44010206893340187,0.030519799414837446,0.20177957337865396,0.09116859029265377,-0.19608563786180774,0.10836259734455982,0.037041479651632084,0.3712307372342786,-0.2825614053930762,0.22608018417120893,0.3834034338375131,-0.233353452985163,0.3561096888698759,0.3184207220780074,0.12360466307596954,0.38793887851304476,-0.48817528963429224,0.27316072905092037,0.2238431081711256,-0.28402187462692513,-0.011622476579160195,0.07392758229618132,0.3248533555583999,-0.46525795736753567,-0.3120499874101094,0.03531224311560339,-0.4155336756267905,-0.4005170409042002,-0.04586390491014302,0.22810921454292293,-0.2010894795485885,0.2542060312795444,-0.20410762051114997,0.4255557952090231,-0.14861434525339912,-0.1502037413242329,0.4839053874893569,-0.24731548756668195,-0.30039485195799104,-0.4101488531770846,0.11236371816400825,-0.20652409906758307,0.1405827082055848,-0.435783938937314,-0.24878967826712378,0.14128445543988286,0.11726036265505778,0.22907417067286648,-0.2688056971651874,0.5100987104975911,0.0833117403339052,-0.0846200448120832,-0.22063041444141085,0.09992738098274391,-0.005367573524327974,-0.12918414962801075,-0.306087476511245,0.07875678460620653,0.19493311397050347,0.14998605157036365,-0.14192057713579612,0.26735315877294763,0.0871636512064254,0.43282060446756004,0.2028561634917832,0.21700920703491924,0.008373459569071536,-0.13797299387542583,-0.46005458908317354,0.11335345757969403,-0.32844148860047695,-0.0945363273505626,0.3340057425425776,0.36364238403461224,0.399691564941553,0.15789355005844163,-0.3365620906789172,-0.03552360016760369,0.10232635739567143,0.3109796180763766,-0.052697597371757374,-0.5665958443652949,0.15143533559444688,0.22906892064833778,-0.06293818585445396,-0.36532754190380934,-0.1679221818580308,0.005517212058458753,0.3876298962481235,0.24110220752607872,-0.03422068013080614,0.12381994196413783,0.5129016003272237,0.37416982121897796,-0.05764515580144038,0.5457513041119215,0.5079128013874846,-0.04590805270061848,-0.3455932810102361,0.04117773226338017,0.026928900839677913,-0.157321891292869,0.03381055074231383,0.03270803723660082,0.09329009030399066,0.11123290781783175,-0.0185685171046046,0.06669719587975084,0.3754176808160456,-0.19275281096992658,-0.12060531010768107,0.0863564307685713,0.19258114188261855,-0.2515323341082405,0.3933341862818784,0.20596231277914107,-0.4193669438132174,0.33220249210324093,0.3351318240772567,0.25832179884543166,0.04998419600532364,-0.20762509292619133,0.2696052418796732,-0.24052717374678106,0.18334364702505468,-0.17035308817324085,0.44511711168250034,0.3034692772854799,-0.3441437513200243,0.32361370682980334,0.21082954551718938,0.4625958461301611,-0.055020065702273274,-0.029733688464259063,0.576149662791969,0.2849211461492961,-0.15314818194156857,-0.3410764101100694,0.026986580609709356,-0.17737890019756494,-0.3805412492836245,-0.48507906115078486,-0.1326589305163505,-0.20763533659246708,-0.06609332536754449,0.4468668231622413,-0.39831207083504083,-0.20025735996151886,0.031559683158241765,0.5995645907187155,-0.07394789324284246,0.15375500708337558,0.06401170627612174,-0.2732829729652551,-0.45630247081042485,0.48087636130026185,-0.03635238219942166,0.39412055308214494,-0.11548631299353412,-0.17496777704148195,-0.10375245434341834,0.02372057001010876,-0.20098893478762367,0.5088011448345973,-0.28521044054662253,0.5970223584355752,0.503210120553948,-0.004120751519526696,-0.4036702499744635,-0.534864253473706,0.4138964770902927,-0.4637708525734273,-0.5004960472391085,0.2348599340806574,-0.1285664104563922,-0.4331986778982208,0.1866988993476282,-0.4242712271394362,0.3269419252097706,-0.285576957285443,-0.46332595067465837,0.1661679891422447,0.24018680736765316,0.4235304185195178,0.4102268678873462,-0.29766320870919205,-0.2886911550423499,-0.15814386608071093,0.27906816219324687,-0.27973529401525626,-0.1070399569694059,0.1730722862050367,-0.09450522229970358,0.1580863547933035,-0.4066143781921287,0.1320403359919749,-0.00868712693412433,-0.5843961945862901,-0.27476699402083044,0.09766536371143013,-0.20464651449920437,-0.026018432951622573,0.0962845948580446,0.030753401067402722,0.3202605705749428,-0.18825036738192485,0.41979878361536416,-0.3907818983888032,0.20668841466472093,-0.08987552902910281,0.22449341521899313,0.07167710788821015,-0.29113312004375,-0.2760432097465486,-0.19395922988005665,-0.23554957151990685,0.23048376300508797,-0.4472867427733265,-0.2843184707324616,0.3457804712892646,0.23747539956624392,-0.23453607802488996,0.4099849114184968,-0.22836446397411808,-0.129295159606966,-0.1165904387377347,0.031201451932112805,-0.3898507680398157,-0.5235457306519424,0.2705442348487951,-0.09472572907822575,0.2108916786317328,0.4545283907309823,-0.09777662870542209,-0.2840534901900123,0.19642333358126232,0.10887397577138898,0.1391130164957879,0.12430528534560192,-0.20454552540508902,0.34576220949006853,0.07638573433795093,-0.01920653102032055,-0.32402697830324584,-0.48547139625767544,0.3568663687930608,-0.04369301992278433,0.38936101766017495,0.390232955571455,0.04771464566097375,-0.355018390316552,-0.002687541090499986,0.5194496254862425,-0.1928397795488328,-0.13324022597375493,0.4668961641177606,0.4181560821058807,-0.34909935505291456,0.22911730210189102,-0.2691126389443721,0.480155216693979,-0.01921349197098397,-0.2600001472132083,0.14263465889376709,0.0029922245867813023,-0.17731481055549722,-0.10578866750049591,0.36555032355403055,0.17288061275557176,0.065075906435752,0.4027004411340662,-0.19572783415796657,0.4168667987399004,-0.32728656847001175,-0.3053033765405147,0.45396151900735077,-0.1918165692634543,-0.12115087114568017,-0.40876251790838963,0.14355245466999084,0.25196796050067977,0.44191905650398655,0.44947794067761554,0.001336686637203563,0.47345582545914827,0.48929752574273816,-0.17427492539832448,0.004070051814935364,0.06227594393636473,0.01898704946172159,0.07379594340304821,-0.4358955149201102,-0.24444367526285002,0.4790729849553861,-0.4435000804471442,-0.42692036411134104,-0.4591001915321322,-0.015043834230341613,-0.3078912401824868,-0.2808227434294296,0.07895332274100098,-0.38926167201879525,0.21151826556529363,0.24993649571279555,-0.07798366727086774,-0.43711971464440663,0.3448240978874813,0.47707420762133956,-0.03326163519220007,0.09446390114713447,0.4061047732460252,0.034977449828177465,0.22731944509941682,0.2369570035011529,-0.20902264308023297,-0.3569985321432117,-0.43817630316953965,-0.026763784937029952,0.1512072244600304,0.5004121480452354,0.31023438195265846,-0.4083946253163633,-0.1553279455107336,-0.04192927082998499,-0.20483977172542922,-0.3572570227696327,-0.45541642199973387,-0.12658855290555437,0.3842867133285869,0.08197236062389646,-0.1302943146728609,-0.1081581051946614,0.3816001114402374,0.3498934815091196,-0.08128751904385845,0.09706418248835669,-0.34185701142142255,0.3176464539771231,0.4682215499663162,-0.071829819953297,0.11195687359161685,0.25309325018830897,0.16791392067767996,-0.0755895618234208,-0.08019954124655004,-0.14577596181037988,-0.22889778767658042,0.2480886472625452,-0.4469560017363676,0.43660003153657045,-0.3806331514693402,0.3365585380541829,0.04258504010357711,0.36117199376076414,0.46728596185156146,-0.39362026026691255,0.020703352130658992,-0.4312534992606809,-0.23537097725507483,0.24199637542021835,0.43498729199775527,0.0651469102092547,0.059531713251864064,-0.10938375835278037,0.25687813640048757,-0.29375200168107923,0.4946895782983676,0.24829755429979455,0.06166703736582845,0.2776273568286013,-0.41260095004438824,0.15972039453685027,0.2929063527958334,-0.4818490449899435,-0.02340772788718295,-0.12679195885715036,0.22257180447751257,-0.08095551601106812,0.45080717060676856,0.25224465818209496,-0.21448906137524082,-0.08157186146600492,-0.3995104972179254,0.26729079581097803,0.11642070394542223,-0.1266185158675944,0.15127872350241234,-0.19367024299070557,-0.32767136621628506,0.12234838589629109,0.4999436781289265,0.0285036416757371,-0.15277507072729307,-0.16347608076211145,0.3022109318756319,0.397964990965722,-0.1362602475831328,0.2405792541319423,-0.4439461314399183,-0.0003030204975110757,-0.08173127211326583,-0.440303680786835,0.4550547420866654,0.386575170643557,-0.28728313236229996,0.3385453784452656,0.2389272488308938,0.013764881349761341,0.2502235653566156,-0.012016192431940964,-0.14091172504401317,-0.049942880976670434,-0.35492052247553363,-0.1494517299850652,-0.31014013335754265,-0.48477153963987163,0.01657032908357201,-0.289462338215862,-0.08946192347228021,-0.2676787617361141,0.5415728346611302,-0.27221989770420196,0.09090790495314639,0.3368341988527242,0.4237494504212324,-0.2940815802077126,-0.20394292402317235,0.3955590737197023,-0.3035975802850121,0.15270362007009017,-0.2667703895399324,-0.3441571633291731,0.011044331510441879,0.19657283860502467,-0.24836254125613982,0.012745474819112871,-0.07023765084184432,0.22680139682831646,0.0019995490272652905,0.2774085703309917,-0.39727169754820224,0.3002394892601175,0.1692976591449539,0.19272785592773656,-0.22106583558595488,-0.21211878663690045,0.12649863068729458,-0.009050771484529369,0.08514193320994638,-0.248740759697217,0.37382518474351073,0.5037222229216173,0.49160768596987314,-0.1209483267120312,-0.18292103421941996,-0.29038477361719894,0.15180990313888562,0.38868554204498795,-0.008086007268003681,-0.40442458598406666,0.4625297802686608,-0.2547876449627358,-0.03797155863245262,-0.47275997031777406,0.45563890836731674,-0.003462608232737252,0.4962552472368582,-0.10373185990663625,0.4047595064251931,0.1655604052794974,-0.26220088708416867,0.15523142678388097,0.28923103878531686,-0.2675898322935231,0.09159905129564068,-0.11084970424191154,0.30820945848565384,0.6090504039796077,0.5077854060990911,-0.3460091123518012,0.07643260234765416,0.4893762540804401,0.24137984765606327,-0.1502281318211595,0.289796204827169,0.28008296754718903,0.07675899487375823,0.03651712103677115,-0.3379662380273846,-0.4435603055972764,0.21692982462549998,-0.0014449662126169076,-0.28981833248696703,0.0025543505798701826,0.42109611657884105,-0.2667818085028104,-0.14235585177044702,-0.42334295999169713,-0.38161343233026196,0.2853815366743796,0.06890483772687273,0.028962492392338297,-0.3002123238340701,0.01282611570067155,-0.05356611218711545,-0.24895493679047637,0.14987071023700932,0.2209954409974278,0.04245851104883213,-0.21094060542333629,0.12378890289231965,0.0207445428011839,-0.2559720615665825,0.28062721471965063,-0.05622256427391817,-0.2229860963475278,0.0027976638033092357,0.357066584293996,-0.21473481718114912,0.2901363866906189,0.33437379013248053,-0.06797245714960991,0.233318910286613,0.4621734999504168,-0.17994535027074454,0.276969929571247,0.3757643043433546,-0.24572111897837237,0.355182127487891,0.29606087701829753,-0.0024120858833644745,-0.07340783941666916,0.09117060749519276,-0.2192210891759145,0.12641419268206108,0.5461022784689211,0.35303574785827796,0.28188589877616244,0.08245426218175278,0.3703786633516631,0.2656773727784752,0.07044846627600831,-0.11163538036952432,-0.07596502854518501,-0.4720701143441148,-0.4478737867938314,-0.24792817447923018,-0.37495893099954186,0.2954037991067633,-0.2833576645582336,-0.4816631229913987,-0.3402586978845392,0.09057260689507586,-0.3803684550258608,0.3679136351021685,0.03225829934713092,0.4373899653229241,0.2386485369608627,0.05036079621464059,0.2937946268464638,-0.07862879356165449,0.01113579311691045,-0.12068763130023724,0.44386617712938864,0.45548440956954783,-0.14079831866347686,0.3641803875350281,0.2822025146736463,0.023353546038785925,0.511736601101443,-0.3300137120545844,-0.06903585506236667,-0.16214601566285036,-0.4755733351749299,0.3717012113265759,-0.3083878378479447,-0.21111904883979324,0.4786444573866469,-0.011894564658869974,-0.3948128858313976,-0.14169100098291557,0.18569985973535458,0.3567249048502537,0.3047587212733695,-1.1259319611439116e-05,0.07537739276668977,0.4816930714864338,-0.12910150738373347,0.3329490794448775,-0.027645710124435723,-0.2303208195810928,0.3537046061033708,0.13411385762373543,0.7181676100605879,0.04341847374663382,0.3346153212229671,-0.10774137168316363,-0.1255288562384602,0.4295451356655407,-0.039785414567206294,-0.13950699857997484,-0.5398819722731876,0.24565934918945337,0.3366593038434901,-0.006134582993696307,-0.38367301200351034,-0.02918864856615425,-0.3063195849915434,0.04413950243257451,-0.07797050553678771,0.09582052830954228,0.059218605110778304,-0.12982580171707625,-0.463452127667693,-0.19748322571720472,0.2572847564076852,0.22447274001762954,0.18871664262895765,-0.2581623451164567,-0.2258847589337789,-0.4457254353248678,0.287966056369083,-0.12849601907412364,0.13531839354443082,0.35503849726440195,-0.012727960599852527,0.30925642460556907,0.2902405142431624,0.2776924114001858,-0.15779902794975958,-0.44625273703346907,0.05296936050862182,-0.4996297613911845,0.19506198904087213,0.18861723127289035,0.21470954339279713,-0.10766594014164764,-0.2215311218944158,-0.4153725121268468,0.18602619315816574,-0.2998731542690319,0.25766928064797845,-0.4510572563841907,-0.16681417512270053,-0.11035830459561922,-0.1924664224665123,-0.35187649629068063,-0.08362336998428851,-0.7305594713992977,-0.11699907449147304,0.08825901245335996,0.09130546460200167,-0.07950957064881717,0.1722598470149375,-0.40359805951344613,-0.3009084009057275,0.14306324973002554,0.4018564085777633,0.46606219506903196,0.3034236166178105,0.05552354641393876,0.3504361524454108,0.34637919408900086,0.3438449948417571,-0.09687965385521329,0.40903124114771044,-0.4819476275816728,-0.30298166410479316,-0.5610389358504513,-0.42514573715695286,-0.6079945354476471,-0.4531735048222409,-0.6093291327589853,-0.7276510884906794,-0.79337202830802,-0.352163678560319,-0.3973672964519416,-0.2374778798465386,-0.4006304093871413,0.20524185704147635,-0.5474292499292744,-0.09974512200775475,-0.020825655125192126,0.11946360747919449,0.01578805682823137,-0.3750352757991657,-0.06982614543369245,-0.3470421541194795,0.15976598752021967,0.2789468498378663,0.1641183540424763,-0.10274295881291452,0.14562251035215942,0.08015313134368637,0.443205692220687,-0.41113985620373844,-0.5424705574195535,0.07508049963138701,-0.01868805119223089,-0.3598998087720775,-0.24833886254489637,-0.6193171257815216,-0.6018716094342914,-0.8332481542052379,-0.2326661457561518,-0.41758962319892146,-0.19071582198398207,0.044976781189483755,-0.09191605278704751,0.1286711540533507,-0.10838441627344675,0.5230585164244385,-0.20657115635127662,0.22688977551854247,0.31765089642761085,-0.29843475919160284,-0.18776563325796888,-0.42387983108182237,-0.42373410650621357,-0.42784768451016864,0.48408516538380864,-0.3988328604043648,-0.5142328963723874,0.0623282541079084,-0.4347987296601674,-0.25380604672881124,0.08204674272899513,0.37219918530092966,-0.5976113668101182,-0.2847908125335598,-0.14801509746803665,-0.2867863596675615,-0.39176715887182995,0.2253748017943579,-0.45658678321245044,-0.1827977477922925,0.28856253569873214,-0.25921803154821427,-0.3575010998538614,-0.2719848817598836,-0.37255609324770333,0.019183406289759692,0.014208468966784607,0.002108648605876686,0.3383200377059312,0.19532903986962954,-0.0846210152752086,0.1414263465060691,-0.49962746547807774,0.1478499756383997,0.06529955826778773,-0.1991823497254745,-0.2790353936153256,0.2696141345353023,-0.2931598250015788,0.18899082468792894,0.22058785941923262,0.21494478403829098,-0.23201889679596058,-0.2507699997652311,-0.635488995957572,0.013476976139284974,-0.025845480579925816,0.17045293122587638,-0.13968743189717445,-0.07636775335207102,-0.2084267791818714,0.17549318154380478,0.1878749480959134,-0.3031220001582259,-0.4919651951386107,-0.4285980097925768,-0.12003057933296295,0.1393599206144732,0.0773111182461994,-0.29248683138293907,0.16153660180258658,0.3652521581555458,-0.10406243182746489,0.17438486616163626,0.2673019273075632,-0.2579388343292764,0.1937696738710283,0.0813047772843393,0.1751903078494714,-0.0011151470594393414,-0.29330475996581085,0.28226093163853183,-0.5236358125967073,0.08481119309054919,-0.4053245435992417,0.19872080956401,0.003595261917356944,-0.275358572828518,-0.36562517976995423,-0.05159123018801923,-0.2339900056198438,0.4504070173146015,-0.04064656703443409,0.4435749670640018,0.05311940049732885,-0.05086176538915545,-0.49168863367780447,0.2688844457835537,0.13014940976431905,-0.2326857499309407,-0.3984648117035954,-0.058131854211237094,0.6141206110390091,0.4961149546950664,-0.11963305922379094,-0.28905347874444526,-0.4101434245515904,-0.3333353097667933,-0.2757740826717569,-0.33180487161658173,-0.38412265612580876,0.1929440311799967,-0.33638608380563695,0.3804997517542959,0.2404135232734719,0.18945823014825905,-0.09546013595618323,-0.37769842405378495,0.5539288203468543,0.44942444300366496,-0.14781975320432802,0.18717045707227753,-0.25816918814991185,0.26091857011904823,0.2131375319283706,0.18886754927059687,0.41147229255245643,-0.146576958934477,0.37735011356992954,-0.13626616153079896,0.3919108182195671,0.42186845526947586,0.31943910423163185,0.36489205422891385,0.007494441375460736,0.046278101207327886,0.1602305963885733,0.003064943872635611,0.1444477212449946,0.17390125499228215,-0.16488014882601915,-0.1846511838737368,-0.3027400656739867,-0.10204473936158827,-0.3596749287365531,0.3548905202859784,-0.39676050137754704,-0.0530136050073659,0.5598260451741208,-0.2024328346616333,0.48656301139586333,0.20275956439729317,-0.4948326325448418,0.2833177605185061,-0.37886555915964953,0.4137830578648759,0.14966112225563255,-0.0852044499168342,0.07516029399093979,0.2718985006571823,-0.34941173102988543,0.29949399570560653,0.41620068233076013,-0.416681525344525,0.14179161503595877,0.0379464466622437,-0.44504911156342913,0.3779200800054023,-0.2407600899549504,-0.19828199079157424,-0.3250484074509265,-0.16643245393324932,0.3060162406180437,0.5046557936557453,0.5344082038196442,-0.26556378556663635,-0.060248202455440526,0.3797838649711236,-0.45287292810287944,-0.2577186299958698,-0.33322660276585736,0.3052998052163682,0.2861833954079247,-0.3259634934599811,-0.12952014513725732,0.48956561979899627,0.3083404561365757,-0.18561924103440475,0.5068546724069796,0.18372212206551666,0.4696260102011913,0.4641815592331713,0.18641871188888692,0.19063732761610486,0.2132850604083639,-0.41350971614622895,0.16169171237521981,0.14285343473581122,-0.34206873609258015,0.14694852616967266,-0.36519526214396986,0.5106928090746632,-0.23826003051466396,0.021390424808686782,0.4728597452220765,0.015536514959827132,-0.12818065030774076,0.02570617550007787,-0.09531734253640148,0.014536843058206579,-0.2368012117111367,-0.3738287215696507,0.133192939219485,-0.3214587046214889,-0.36575743446152875,0.17161153976913313,0.3387035070485008,-0.194390728992741,0.02279534647036282,0.2585172560073338,0.04198707725541714,0.2290184047225224,0.17177354958718005,-0.3948586904439674,-0.2752511232675285,0.42500584022218846,0.03155214503151733,0.3167637721727533,0.023632835384867077,0.06918973301474066,-0.17719550245773663,0.1918382468860345,0.4263816255702962,-0.3947071216505743,-0.015461484445995304,-0.12126260000998287,0.34530243900423596,0.15269397170378168,-0.4368607324929678,-0.13858329131954195,0.19544448657325741,-0.11801322934306106,0.16272567106194297,0.003732787595957591,0.04627139644465177,-0.012152815642515021,0.1849495983953928,-0.3507868537654319,0.11359381608818873,-0.43189698905854385,0.14342046692974558,-0.12596145010403426,-0.0075659349076266655,-0.26783230679994985,0.32914266873143766,0.09241958656847414,0.11516958068453373,0.3958620940089341,0.19129037491285447,0.3555313530541122,-0.26289318812202306,-0.2851584537080907,0.4428947025741214,-0.4209902652133238,0.23336980354526404,-0.3671715002800543,-0.12393906219837104,0.1284231563529244,0.3316697348265097,-0.3367625812790304,-0.4260125552438042,0.3184996906089204,-0.1071059118398912,0.15748429721678295,0.12038631288082746,0.08867424322552166,-0.38657242552925974,-0.25935963405596735,0.32816414552652384,0.022318484768246116,-0.5341058564828738,-0.1521556421562875,0.27584170591496604,0.34080750894825035,0.0763221197987523,0.3476820185680339,0.02905558245439136,0.4151073519155947,0.37666476090309775,-0.3336148568457639,0.4524536502578684,-0.21459766630372035,0.13797264997917646,0.12393458799783896,0.0685632754109839,0.01819788488028548,0.2213692165715424,-0.19643381006814672,0.37386413344023306,-0.3891717656235633,0.20350715586492032,-0.3528122529028178,0.3358927321732289,-0.17779961996061905,0.06704067663745461,0.02647946940192571,-0.39215912594463925,0.14891294001305938,-0.4657318621828004,0.18580608615682617,-0.11573983272288321,-0.3780933936463557,-0.22721801969011923,-0.40396931096285027,-0.21245926147458324,-0.12688444441929647,-0.29078502657379585,-0.19424549168406383,0.10369743119576004,0.2936323775246614,-0.09384522039689736,0.3240261029098569,-0.22344358197268366,0.3664755437732538,0.16377354030451213,0.47040637582082,-0.11074917861310098,-0.25276903240626564,-0.2574434767407832,-0.15882693909637893,-0.11735682702583752,0.21439045877209748,0.30266952521820956,-0.31734843189832873,0.1355654154095451,-0.038706611882821075,0.3597924008862588,-0.05719873157346881,-0.24680231016901605,0.3425289268078976,-0.24331191712703792,0.4715511033678734,-0.20220034872917617,-0.01619426188303694,0.49482993899415717,-0.45460303078105757,-0.16502521798196992,0.45807770213968413,0.43832662604706685,0.4666136516839561,-0.32350236584820036,-0.37621312080095726,0.22146455443045152,0.35032956878928706,-0.16141890843140072,-0.06592320097039392,0.47198423201476464,0.06053709987542834,-0.25288794564296707,-0.09880847813665514,-0.04124993229777371,0.5198229832436271,0.4307429681755124,-0.00024724625683796654,0.5036935257876592,-0.45358729284465704,-0.17394558560205362,0.1269098432926255,-0.45044306661185546,0.24685269779304403,-0.3187619704039748,0.046267896569801556,-0.32366793050609477,0.33927589679247927,0.24973201294071912,0.0035376163156246587,0.43860456524506863,-0.3614267326551138,-0.44752998456515425,-0.46837902094044237,0.18935904734676845,0.09161051290243369,0.4141163355953824,0.17640366179057437,0.28596807034699867,-0.42617070075849706,0.4366721072507012,0.3281770416697461,-0.16244134609362604,0.17067225161658264,0.3210266852923785,-0.13852842735357868,0.3476165288331034,0.17215738125888674,-0.24347335476277682,-0.40353099766234035,0.09657931193190293,0.4368619422560562,0.3190974309753216,0.15035739347664762,-0.17860840989295435,-0.2572864140408232,-0.2501442411813565,-0.10800215245204736,0.34969539107276354,-0.22984473765927693,0.24184515986199173,0.08799093790041268,0.24075804565898462,0.17755250923188515,0.05559753983013627,0.37492802145113835,-0.36919243696666104,0.2150066937375621,0.48586694863514246,-0.3278061063408998,-0.11255720777379774,0.25074195126341225,-0.1789575540876336,-0.22057714019717675,-0.029003162936684423,-0.28666936693217826,0.21478268673731005,0.3519714147295818,0.05506800274064094,-0.04567904506106912,0.30302800941623487,-0.35944256466684754,0.1459096210710923,0.10674050214848618,0.1016946740238589,0.17180457162615492,-0.4654333594916389,-0.39409223845201746,0.3080007233402773,-0.0917586950655861,-0.07075074653753988,0.21387177267211957,-0.17791210683129755,-0.18192938438138045,-0.0621075318094275,-0.06169784955385818,0.13358053528184027,-0.04659979449116566,-0.40958090972644867,0.48890542779773993,-0.03136601902256893,-0.11312856291919188,-0.06619122087227206,0.4227603729956585,0.3836004163679225,0.25983127759612734,0.2380227039440298,-0.33111758341132125,0.1984285578071813,-0.23714113485925653,0.44358935845314645,-0.4520329784326733,-0.17739894144467072,-0.11235605857328301,-0.16357049521386446,0.259010459589637,0.47107321130949875,-0.30391956042511165,-0.3203699332692892,-0.2110518552190058,-0.377823432066314,0.26297506681819416,-0.17560872392040608,0.023874134756315935,0.42790378633201426,0.2788123928512566,-0.3291325479668305,-0.010882307826211723,-0.42887129569966087,0.2261612687121279,-0.04250968665217609,-0.3165453165775572,-0.0200778837566441,0.14103975392358556,0.1264924583440395,0.3707661953395486,0.20740748252582958,-0.13434871506305135,0.29006886927476366,0.08030841662184657,0.47789921702909854,0.260698434901258,0.11721402051370422,0.059199555186844166,-0.3270724473562975,-0.029786410413812886,-0.22966648094098227,0.2207492493627749,0.46002845618150034,-0.4591632067475566,-0.4758396783307783,-0.32667088679046685,0.32887786281201237,-0.1948092244707163,0.32678337642961747,0.1900168125627149,0.01042570171744241,0.30283854985015496,-0.11441024811002212,0.16744906304305163,-0.18773232137913537,-0.07767623220107625,0.28205877273215485,-0.4050290818591063,-0.2548546177857853,-0.40369478398888653,0.022524992725610624,0.21457012281507026,-0.043827599283585324,0.18160475596785658,-0.24068502138440284,-0.3148610071364658,0.33129227438415604,0.18972551508956356,-0.23196519151877576,0.27977256681574864,0.0548268945779534,-0.35693224837173854,-0.26968528719031604,0.10993548794184752,0.035431390460826925,0.09288287078666468,0.45225075422723643,0.4184500051289701,0.3539180028095594,-0.11183575851322956,0.09569987442822969,-0.06691743467379822,0.2695271064234402,-0.4561269626563295,-0.3354266959719387,0.19026487251559465,-0.15573150154398363,0.2860570344976997,0.13438745432824006,-0.10661875207150535,0.17617887954752265,-0.07498087091596331,-0.3803523071656504,-0.41655112985182485,-0.09224439198859025,-0.3643810605421477,0.26235986297105984,0.4978111663996294,0.25189399125264184,-0.16596434904989793,0.330133556665035,-0.024124399735237025,0.49873919525353844,-0.1917222489833445,-0.010657982381065946,-0.009856657788274334,0.3867214298972018,0.43966128565493134,0.054538102324751515,-0.11264863498678127,0.09771494034151183,0.40973506294723383,-0.14290839538026914,-0.04008295585631337,0.3397565129483333,-0.4727885918167276,0.1560712727181922,0.22946870743075726,0.49440825402276595,0.19309233434832085,0.371290362327974,-0.23121016172679054,0.43428562557554584,0.3840463354707302,-0.26827123207776277,-0.17147641467239477,-0.37896882320573194,0.4038717130058563,-0.2771756917912895,0.4515947716425045,-0.21804624582155985,0.4635599181151514,0.2666547386556703,-0.2022962082133957,-0.325292853180077,-0.09109371087011522,0.32031100169168336,-0.09251481272219492,0.15977591268798153,0.5294452258004656,0.04114459289350411,-0.041222629336380004,0.18416950803342458,0.1237276072460718,0.028888996817900345,-0.02837307205912794,-0.4751338047104,-0.12047158330092202,-0.2717568468246613,0.42711261643114384,0.3209172873491028,-0.07846574980531996,-0.4444084655276018,-0.2813677995126493,0.06484959315708506,0.17325829249128746,-0.3065529397686306,-0.14096504612996236,0.22547867485700254,0.29212215849946727,0.5316876868523246,-0.008262387003451662,-0.0896043181036045,0.6493348186832761,0.39275587173890375,0.09914842356868252,0.46007063470169723,-0.19686206904366044,-0.07865317372208448,0.2985718755213087,-0.06821143150837208,-0.005473746502833112,0.01990465817799185,0.5189359289383091,0.005860879363577484,-0.42517128270147925,0.09308313600189878,-0.1650866972664969,-0.05368836864593706,-0.24434367791691242,-0.4772729259411688,-0.004406478571119423,-0.08311872446677764,0.25807938450830287,-0.08727199358786068,-0.4181308252707514,0.25047712434923464,0.08416132059155007,-0.018365709246603214,0.3504638562318333,-0.14581298245159469,-0.14139542031097976,-0.023175142861931456,-0.21472632416143494,-0.3622076489507254,-0.36427430127210375,0.3415681542204372,-0.21755003670210174,0.15334559308573067,0.09931471190120311,0.14185618326534397,-0.12843605613609949,-0.28995383913513695,-0.22980090544978068,-0.11718551753748804,-0.00540585494815538,